tree
version=v4
num_class=1
num_tree_per_iteration=1
label_index=0
max_feature_idx=30
objective=binary sigmoid:1
feature_names=lmp_lag1 lmp_lag4 lmp_lag96 lmp_mean_4 lmp_mean_96 lmp_std_96 lmp_max_96 lmp_ramp_1h lmp_ramp_4h spread_lag1 spread_mean_4 spread_max_96 spread_ramp_1h dam_lmp_current_hour dam_rtm_gap temp_2m wind_speed_10m temp_anomaly temp_delta_1h wind_chill prc_lag1 prc_mean_1h prc_ramp_1h system_lambda_lag1 rtordpa_lag1 wind_gen_lag1 wind_forecast_error hour_of_day day_of_week month is_weekend
feature_infos=[-244.13999999999999:9150.6800000000003] [-244.13999999999999:9160.8500000000004] [-244.13999999999999:9150.6800000000003] [-104.11000000000185:9102.4774999999991] [-20.963333333333335:9009.6167708333323] [0.042426406871190689:4484.9527335632874] [0:9160.8500000000004] [-8966.4400000000005:6955.1899999999996] [-8974.5800000000017:8964.9399999999987] [-363.46000000000095:3291.3299999999999] [-331.92249999999973:2329.5799999999999] [-3.6400000000000006:3291.3299999999999] [-2531.2099999999996:2568.5999999999999] [-0.02:8995.1100000000006] [-7721.5699999999997:8466.7399999999998] [-10.9:41.700000000000003] [0:75.700000000000003] [-24.757569444444442:15.300972222222224] [-10.300000000000001:6.0000000000000018] [-17.526205630265622:41.700000000000003] [0:16581.779999999999] [0:16437.190000000002] [-5270.3600000000006:5249.3999999999987] [-31.863700000000001:9001] [0:7177.0160999999998] [0:31981.5] [-8336.4900000000016:15709.1] [0:23] [0:6] [1:12] [0:1]
tree_sizes=6631

Tree=0
num_leaves=63
num_cat=0
split_feature=3 11 10 8 11 11 10 17 6 10 10 21 0 17 21 21 6 23 10 21 8 17 17 23 29 14 14 17 11 0 3 7 23 13 21 11 10 11 0 25 7 13 0 6 4 15 15 16 3 2 22 22 12 28 22 6 8 7 8 10 8 4
split_gain=2.15574e+07 2.16048e+06 2.07436e+06 1.47301e+06 1.1408e+06 798369 757309 437723 364473 352303 351061 319870 298300 335308 287865 262060 200880 186574 267879 257141 267126 242544 178490 147422 131668 128459 124990 122099 118613 113493 108635 103968 111210 96998.4 91292 88953.8 79907 179462 79616.9 78959.1 73817.9 73040.1 72837.2 69082.2 66016.5 63068.2 113367 62358.9 60165.3 53397.9 51949.1 51411.1 51100.6 50818.3 49691.4 49480.5 102707 43319.1 78748.6 65634.4 41147.4 50789.1
threshold=43.509999999999643 22.580000000000005 -2.400000000000063 3.3000000000000029 13.620000000000001 247.27500000000001 -4.4500000000001139 2.8352430555555554 4814.6100000000015 0.57749999999988522 0.051249999999910319 4812.982500000001 95.570000000000007 2.3577951388888931 3270.0975000000003 4208.1587500000014 95.710000000000022 20.290550000000007 0.059999999999949434 3440.7700000000004 -0.15000000000000122 -0.48432291666666666 -1.7770486111111123 29.299150000000001 11.500000000000002 -0.65000000000000013 37.005000000000017 10.26 4.2950000000000008 20.865000000000006 17.709999999999166 1.2099999999999984 30.627700000000004 59.815000000000005 7245.2575000000006 9.7250000000000032 -10.591250000000056 4.6050000000000004 55.725000000000001 12384.620000000001 -1.2000000000000017 94.945000000000007 42.965000000000011 30.495000000000001 79.010989583333341 26.050000000000004 26.650000000000002 6.8500000000000005 40.378749999999094 84.00500000000001 -751.78999999999962 247.92500000000021 8.0800000000000054 1.0000000180025095e-35 -546.08499999999992 68.02500000000002 36.095000000000006 -0.21000000000000038 10.975000000000005 0.074999999999943459 -5.4299999999999979 22.879843750000013
decision_type=10 10 10 10 10 10 10 2 10 10 10 2 10 2 2 2 8 2 10 2 10 2 2 2 2 10 10 2 10 10 10 10 2 2 2 10 10 10 10 2 10 2 10 10 10 2 2 2 8 10 2 2 10 2 2 10 10 8 10 10 8 8
left_child=3 2 36 5 6 17 23 -7 14 27 33 31 13 15 16 -3 38 -1 41 25 -21 28 -12 -5 -17 -20 -15 -8 -22 -9 -24 42 43 -6 39 -30 -2 -38 -4 47 -39 -19 -11 -33 -28 -13 -47 52 -48 -46 -49 57 -32 -35 -29 56 -16 58 59 -52 -31 -62
right_child=1 12 8 4 10 7 9 29 -10 11 22 45 -14 26 55 24 -18 18 19 20 21 -23 30 -25 -26 -27 44 54 35 60 34 32 -34 53 -36 -37 37 40 -40 -41 -42 -43 -44 -45 49 46 48 50 -50 -51 51 -53 -54 -55 -56 -57 -58 -59 -60 -61 61 -63
leaf_value=-5.695610365021448 8.7788943981443062 8.2048018125783209 -5.7597631294627183 -5.7597631294627183 -5.7597631294627183 -5.7597631294627183 -5.7597631294627183 -5.7597631294627183 7.2058198980016348 -5.7597631294627183 -5.7597631294627183 -5.7597631294627183 9.2290074681765581 8.0508989235258603 -5.7597631294627183 -5.7597631294627183 -5.7597631294627183 -5.7597631294627183 8.7429938476223086 -5.7597631294627183 -5.7597631294627183 -5.7597631294627183 -5.7597631294627183 7.9332216892205176 7.4378485147695903 -5.7597631294627183 -5.7597631294627183 8.7315292020101865 8.2075654621782093 8.1852419196443336 -5.7597631294627183 -5.7597631294627174 -5.7597631294627183 8.5505292108535578 -5.7597631294627183 -5.7597631294627183 -5.7597631294627183 -5.7597631294627183 8.2337360636493138 -5.7597631294627183 8.2757685389918016 6.5349927529563745 9.1317766656999275 6.8530630490513156 7.611121532765087 5.8204515208759267 -5.7597631294627183 -5.7597631294627183 5.7333275549320808 -5.7597631294627183 8.8005902606219735 -5.7597631294627183 7.4188727736252451 -5.7597631294627183 -5.7597631294627183 -5.7597631294627183 7.3061544380995604 6.7732533848168286 6.9369273485267362 -5.7597631294627183 9.4278806130581074 -5.7597631294627183
leaf_weight=470.36097078211606 68.491438402794302 7.5628813644871125 1.1522524524480076 2.2123247087001827 11.634457619860767 10.659981260076163 113.85571090131998 1.7580080274492527 8.1455918904393894 4.3324692212045219 3.9604562865570179 20.533138702623546 550.60223689861596 114.70740601513535 4.3127163220196953 10.89701605029404 4.9711462948471317 77.358937507495284 8.3225435297936183 29.375853237695992 2.1662346106022623 7.7826422788202754 2.2518305070698252 17.629439868964255 2.2863952489569792 1.869941122829913 2.3374264035373917 2.0822819573804741 11.882176322862504 19.474687036126852 2.0575936650857325 1.1555446023121536 2.209032558836042 2.1086191562935706 1.8073902754113067 1.260893397964536 3.1703403191641 1.0041057085618383 8.6254213172942382 1.5045124879106868 13.974334729835387 1.227147446013986 1.0131577048450706 17.943018559366465 3.3851488502696157 3.9086006786674252 8.5892189955338818 0.91850981209427018 1.3127433424815524 0.95801561046391714 1.036202753894029 0.88888046331703563 1.1448436994105575 0.879004013724625 0.82632961589842935 59.377214949578047 2.3094402980059385 69.821478274650872 5.9415003880858421 3.0584072237834334 0.99340480566025047 1.23455619905144
leaf_count=142272 955 192 350 672 3534 3238 34584 534 369 1316 1203 6237 2737 3264 1310 3310 1510 23498 122 8923 658 2364 684 543 93 568 710 31 301 502 625 351 671 39 549 383 963 305 214 457 335 72 7 939 126 285 2609 279 98 291 14 270 47 267 251 18036 100 3765 301 929 1 375
internal_value=1.74828 7.44636 2.49162 -3.44676 -0.5931 -4.8018 -2.85837 2.64167 -2.87444 -3.89251 3.51303 -0.8128 8.70185 6.65972 -3.8913 0.785373 2.42393 -5.21705 -3.62343 -1.1849 -2.59664 1.42726 4.62978 6.40648 -3.47091 6.08228 7.6637 -5.50134 5.08085 6.45908 5.0848 3.29729 4.86143 -3.69611 5.36173 6.8676 7.99725 5.04742 6.58467 5.59446 7.33487 -5.56778 -2.93737 6.08993 1.01545 -4.00253 -1.38993 5.79574 -4.23608 4.66177 6.06414 6.19864 -1.04851 4.34022 4.61459 -5.30256 -1.2031 6.33174 3.26015 -2.07505 7.44886 1.01211
internal_weight=1820.62 868.271 175.534 952.345 306.617 645.728 197.603 34.1206 88.8938 177.761 109.014 60.9969 692.737 142.134 80.7482 20.7463 14.7488 611.607 141.246 62.6603 52.4678 23.0919 94.3916 19.8418 13.1834 10.1925 121.388 116.764 15.3093 23.4607 90.4311 26.6532 21.3076 14.6221 88.1793 13.1431 86.6402 18.1488 9.77767 86.3719 14.9784 78.5861 5.34563 19.0986 6.68059 34.3437 13.8106 84.8674 9.90196 4.34316 81.665 80.7465 3.20244 2.98762 2.90861 65.9994 6.62216 79.8576 10.0361 4.09461 21.7026 2.22796
internal_count=280538 35170 24447 245368 61557 183811 48594 4650 21889 47379 12963 12513 10723 7986 21520 3595 2074 179161 36889 13319 12629 3706 9123 1215 3403 690 4391 34866 1342 1412 7920 3284 1961 3840 7236 684 2558 1603 564 6687 640 23570 1323 1290 1127 9229 2992 6230 2707 417 5558 5279 672 306 282 19446 1410 5009 1244 943 878 376
is_linear=0
shrinkage=1


end of trees

feature_importances:
spread_mean_4=7
spread_max_96=6
lmp_ramp_4h=5
temp_anomaly=5
prc_mean_1h=5
lmp_lag1=4
lmp_max_96=4
lmp_mean_4=3
lmp_ramp_1h=3
prc_ramp_1h=3
system_lambda_lag1=3
lmp_mean_96=2
dam_lmp_current_hour=2
dam_rtm_gap=2
temp_2m=2
lmp_lag96=1
spread_ramp_1h=1
wind_speed_10m=1
wind_gen_lag1=1
day_of_week=1
month=1

parameters:
[boosting: gbdt]
[objective: binary]
[metric: binary_logloss,auc]
[tree_learner: serial]
[device_type: cpu]
[data_sample_strategy: bagging]
[data: ]
[valid: ]
[num_iterations: 2000]
[learning_rate: 0.05]
[num_leaves: 63]
[num_threads: 0]
[seed: 0]
[deterministic: 0]
[force_col_wise: 0]
[force_row_wise: 0]
[histogram_pool_size: -1]
[max_depth: -1]
[min_data_in_leaf: 50]
[min_sum_hessian_in_leaf: 0.001]
[bagging_fraction: 0.8]
[pos_bagging_fraction: 1]
[neg_bagging_fraction: 1]
[bagging_freq: 5]
[bagging_seed: 3]
[bagging_by_query: 0]
[feature_fraction: 0.8]
[feature_fraction_bynode: 1]
[feature_fraction_seed: 2]
[extra_trees: 0]
[extra_seed: 6]
[early_stopping_round: 0]
[early_stopping_min_delta: 0]
[first_metric_only: 0]
[max_delta_step: 0]
[lambda_l1: 0]
[lambda_l2: 0]
[linear_lambda: 0]
[min_gain_to_split: 0]
[drop_rate: 0.1]
[max_drop: 50]
[skip_drop: 0.5]
[xgboost_dart_mode: 0]
[uniform_drop: 0]
[drop_seed: 4]
[top_rate: 0.2]
[other_rate: 0.1]
[min_data_per_group: 100]
[max_cat_threshold: 32]
[cat_l2: 10]
[cat_smooth: 10]
[max_cat_to_onehot: 4]
[top_k: 20]
[monotone_constraints: ]
[monotone_constraints_method: basic]
[monotone_penalty: 0]
[feature_contri: ]
[forcedsplits_filename: ]
[refit_decay_rate: 0.9]
[cegb_tradeoff: 1]
[cegb_penalty_split: 0]
[cegb_penalty_feature_lazy: ]
[cegb_penalty_feature_coupled: ]
[path_smooth: 0]
[interaction_constraints: ]
[verbosity: -1]
[saved_feature_importance_type: 0]
[use_quantized_grad: 0]
[num_grad_quant_bins: 4]
[quant_train_renew_leaf: 0]
[stochastic_rounding: 1]
[linear_tree: 0]
[max_bin: 255]
[max_bin_by_feature: ]
[min_data_in_bin: 3]
[bin_construct_sample_cnt: 200000]
[data_random_seed: 1]
[is_enable_sparse: 1]
[enable_bundle: 1]
[use_missing: 1]
[zero_as_missing: 0]
[feature_pre_filter: 1]
[pre_partition: 0]
[two_round: 0]
[header: 0]
[label_column: ]
[weight_column: ]
[group_column: ]
[ignore_column: ]
[categorical_feature: ]
[forcedbins_filename: ]
[precise_float_parser: 0]
[parser_config_file: ]
[objective_seed: 5]
[num_class: 1]
[is_unbalance: 0]
[scale_pos_weight: 301.75]
[sigmoid: 1]
[boost_from_average: 1]
[reg_sqrt: 0]
[alpha: 0.9]
[fair_c: 1]
[poisson_max_delta_step: 0.7]
[tweedie_variance_power: 1.5]
[lambdarank_truncation_level: 30]
[lambdarank_norm: 1]
[label_gain: ]
[lambdarank_position_bias_regularization: 0]
[eval_at: ]
[multi_error_top_k: 1]
[auc_mu_weights: ]
[num_machines: 1]
[local_listen_port: 12400]
[time_out: 120]
[machine_list_filename: ]
[machines: ]
[gpu_platform_id: -1]
[gpu_device_id: -1]
[gpu_use_dp: 0]
[num_gpu: 1]

end of parameters

pandas_categorical:[]
