tree
version=v4
num_class=1
num_tree_per_iteration=1
label_index=0
max_feature_idx=30
objective=binary sigmoid:1
feature_names=lmp_lag1 lmp_lag4 lmp_lag96 lmp_mean_4 lmp_mean_96 lmp_std_96 lmp_max_96 lmp_ramp_1h lmp_ramp_4h spread_lag1 spread_mean_4 spread_max_96 spread_ramp_1h dam_lmp_current_hour dam_rtm_gap temp_2m wind_speed_10m temp_anomaly temp_delta_1h wind_chill prc_lag1 prc_mean_1h prc_ramp_1h system_lambda_lag1 rtordpa_lag1 wind_gen_lag1 wind_forecast_error hour_of_day day_of_week month is_weekend
feature_infos=[-37.640000000000001:9312.3600000000006] [-37.640000000000001:9312.3600000000006] [-37.640000000000001:9312.3600000000006] [-36.307500000000587:9253.9974999999995] [-31.616979166666656:9025.1458333333339] [0.023266219533688664:4486.2052899289629] [-31.530000000000001:9312.3600000000006] [-8949.7099999999991:6955.1899999999996] [-9000.3799999999992:8994.9399999999987] [-2251.8499999999999:477.52999999999975] [-1256.355:407.82749999999976] [-44.450000000000003:477.52999999999975] [-2146.6700000000001:2187.8800000000001] [-38.530000000000001:9000.9899999999998] [-7719.6499999999996:8471.6900000000005] [-15.199999999999999:41.600000000000001] [0:57.100000000000001] [-25.829652777777774:19.075451388888887] [-12:6.3999999999999986] [-22.271290117265281:41.600000000000001] [0:16581.779999999999] [0:16484.055] [-5270.3600000000006:5249.3999999999987] [-32.114899999999999:7999.9912000000004] [0:7177.0160999999998] [0:31981.5] [-8336.4900000000016:15709.1] [0:23] [0:6] [1:12] [0:1]
tree_sizes=6568

Tree=0
num_leaves=63
num_cat=0
split_feature=0 0 25 19 13 16 11 14 17 17 12 19 11 8 21 0 22 17 3 17 10 3 17 26 29 26 6 8 8 10 16 16 21 13 11 4 2 3 0 12 15 13 10 0 2 15 15 11 22 21 10 28 10 10 2 21 21 12 10 0 12 10
split_gain=1.41463e+07 958753 514785 271500 261253 109644 108095 105211 98771.1 97277.8 68035.3 61284.6 60826.6 58911.6 56028 210679 59744.3 54751.9 48532.5 42530.9 40203 37337.6 36529.4 30036.9 28995.2 28623.8 85436.7 28115.3 21882.4 20874.5 43934.2 39679.5 20350 28564 18202 50967.4 14503.5 25205.1 14304.1 40462 33889.1 12646.8 47997.5 9021.49 45494.2 8255.04 35818.4 8028.06 14839.9 26711.4 4209.17 3669.58 4527.09 20321.7 3438.16 6321.34 19998.2 3343.65 6901.71 7571.66 23182.2 3805.24
threshold=89.565000000000012 38.485000000000007 5226.3850000000011 7.6306836266792084 49.925000000000004 3.8500000000000001 13.005000000000004 -4.4499999999999913 2.9084722222222212 3.7081423611111064 -79.760000000000304 24.950000000000003 9.4250000000000131 38.185000000000009 9091.9087500000023 26.075000000000003 -1391.095 -0.1753472222222214 204.70500000000004 -16.505972222222219 -68.793750000000088 37.12499999999968 6.9122916666666674 -983.7049999999989 3.5000000000000004 -27.279999999999742 390.74000000000007 -23.734999999999996 -24.424999999999994 2.8099999999999379 8.3500000000000032 8.2500000000000018 9392.7162500000031 148.06500000000003 13.005000000000004 26.386562499999993 31.265000000000004 298.32874999999967 123.01500000000001 0.26999999999999974 40.750000000000007 73.145000000000024 4.1287499999999104 37.355000000000011 -30.554999999999996 32.550000000000004 39.850000000000001 52.410000000000046 -1202.3599999999999 9226.6762500000023 21.614999999999949 1.0000000180025095e-35 5.0099999999998799 3.8200000000000007 48.015000000000008 9091.9087500000023 8388.1450000000023 7.6999999999999931 -5.7100000000001199 213.99500000000003 -1.0000000180025095e-35 0.032499999999887404
decision_type=10 10 2 2 10 2 10 8 2 2 8 2 10 10 2 10 2 2 10 2 10 8 2 2 2 2 8 10 10 10 2 2 2 10 10 10 8 8 10 10 2 10 8 10 10 2 2 10 2 2 10 2 10 10 10 2 2 10 10 10 10 10
left_child=1 10 3 7 23 9 8 12 19 -5 24 -6 -3 -10 18 16 22 -17 43 -2 -7 -9 -16 -4 -1 -15 -27 28 -25 -22 31 -31 -19 -34 35 45 -14 -38 39 40 -8 -28 -43 -12 -45 -13 -47 48 -41 -50 57 -11 53 -53 55 56 -36 58 -40 60 -60 -61
right_child=6 2 4 5 11 20 38 21 13 51 14 34 36 25 15 17 -18 32 -20 -21 29 -23 -24 27 -26 26 41 -29 -30 30 -32 -33 33 -35 54 -37 37 -39 50 47 -42 42 -44 44 -46 46 -48 -49 49 -51 -52 52 -54 -55 -56 -57 -58 -59 59 61 -62 -63
leaf_value=5.3324483044171496 5.9615439457434585 -5.5064328315861903 3.707754936726837 -5.5064328315861903 -5.5064328315861903 3.8956651843773988 -5.5064328315861903 4.3654173010347348 -5.5064328315861903 6.0897438625463591 -5.5064328315861903 5.4987764966908523 5.6983148246433748 5.7879063445040329 -5.5064328315861903 -5.5064328315861903 -5.5064328315861903 5.9615439457434691 4.9237582216396047 -5.5064328315861903 -5.5064328315861903 -5.5064328315861903 5.1858129099918342 -5.5064328315861903 -5.5064328315861903 -5.5064328315861903 5.8380858513351308 -5.5064328315861903 6.2540815874292859 -5.5064328315861903 -5.5064328315861903 5.9853650654080992 -5.5064328315861903 6.3042950725504019 -5.5064328315861903 -5.5064328315861903 -5.5064328315861903 6.3042950725504268 6.2225872066405001 6.0252876105855355 6.2540815874292539 -5.5064328315861903 5.9299356509008261 6.1549247177513111 -5.5064328315861903 -5.5064328315861903 6.2042932614932456 6.1005566903009187 -5.5064328315861903 6.1549247177513111 6.250758058725034 -5.5064328315861903 6.1549247177513111 6.204293261493242 5.891539116945844 6.1059706695022298 6.1549247177513093 6.1529586323936121 -5.5064328315861903 4.4842649244413186 4.749734970808114 5.7644176033789671
leaf_weight=2.1608345378190283 1.0211491165682671 1.4944041268900026 1.2709220442920912 3.7296601580455881 1.413968777284025 1.2455214075744141 1.5917732343077688 1.1862532552331702 1.4520697323605407 3.0295798340812325 499.42731914296746 7.4486180171370489 12.541663281619547 24.884354908950623 1.2573315175250166 1.6341076288372267 52.875658767297864 6.1268946994096023 1.1227516634389747 3.8820639783516517 60.055572079494596 4.9742913572117695 2.1904686139896512 0.65618311520665884 0.86362164840102185 2.4553948827087937 8.2580951610580033 9.123062021099031 0.99574847985058734 1.1895964862778767 5.8971811579540372 2.0380647936835885 1.0583598632365467 0.99151504039764393 0.57998120505363027 1.413968777284025 0.82975413277745358 0.99151504039764182 37.940044781193137 3.04651359189302 0.99574847985059012 1.3081327909603713 3.0719142286106935 1.0042153587564824 5.003925433382391 0.96945763472467672 1.9999638386070728 18.160545246675611 0.96099075581878413 1.0042153587564824 374.50726441014558 0.58844808395952009 1.0042153587564824 0.99998191930353642 27.740363725461066 2.0168975964188576 1.0042153587564826 100.43846963346004 0.62654903903603543 7.032850742340087 4.5672085639089337 33.24828605633229
leaf_count=44 8 353 67 881 334 61 376 47 343 16 117972 127 164 281 297 386 12490 48 32 917 14186 1175 51 155 204 580 85 2155 2 281 1393 15 250 1 137 334 196 1 100 20 2 309 26 4 1182 229 6 92 227 4 777 139 4 3 256 10 4 404 148 262 146 391
internal_value=0.423486 -4.29414 -0.849696 -2.97557 2.97145 -4.33212 5.91703 1.93966 3.59242 0.754612 -5.242 4.73659 4.09396 4.3866 -5.2815 -3.91279 -5.0906 2.84895 -5.4602 -3.1181 -5.00759 -3.60554 1.2866 -3.56212 2.23745 4.74593 3.02806 -4.41961 1.58255 -5.16788 -2.9397 1.74991 4.51875 0.206362 5.07206 3.40115 5.09284 0.923432 6.10143 4.94947 -0.980668 4.68618 2.51438 -5.48326 -3.55732 4.61012 2.38097 5.61166 3.84007 0.452491 6.15457 4.90805 3.52721 1.86595 5.70286 4.24936 1.88565 5.95864 5.72466 5.30924 3.51248 5.54091
internal_weight=1364.6 734.146 158.429 101.796 56.6334 79.7778 630.454 22.0179 46.3332 9.35189 575.717 44.5874 15.8573 41.43 572.693 66.1343 56.3235 9.81088 506.558 4.90321 70.4259 6.16054 3.4478 12.0459 3.02446 39.9779 15.0935 10.775 1.65193 69.1804 9.12484 3.22766 8.17677 2.04987 43.1735 11.832 14.3629 1.82127 584.12 25.7598 2.58752 12.6381 4.38005 505.435 6.00814 10.418 2.96942 23.1723 5.01172 1.96521 558.361 5.62223 2.59265 1.58843 31.3415 3.60109 1.5842 183.853 83.4149 45.4749 5.19376 40.2811
internal_count=161190 155692 22731 18915 3816 16979 5498 1936 2549 1043 132961 1437 714 1624 132713 13523 12838 685 119190 925 15936 1222 348 2379 248 1281 1000 2312 157 15875 1689 296 299 251 1103 696 361 197 2949 721 378 420 335 119158 1186 362 235 343 251 231 2228 162 146 142 407 151 141 1451 1047 947 294 653
is_linear=0
shrinkage=1


end of trees

feature_importances:
spread_mean_4=8
lmp_lag1=6
temp_anomaly=5
prc_mean_1h=5
spread_max_96=4
spread_ramp_1h=4
lmp_lag96=3
lmp_mean_4=3
lmp_ramp_4h=3
dam_lmp_current_hour=3
temp_2m=3
wind_speed_10m=3
wind_chill=2
prc_ramp_1h=2
wind_forecast_error=2
lmp_mean_96=1
lmp_max_96=1
dam_rtm_gap=1
wind_gen_lag1=1
day_of_week=1
month=1

parameters:
[boosting: gbdt]
[objective: binary]
[metric: binary_logloss,auc]
[tree_learner: serial]
[device_type: cpu]
[data_sample_strategy: bagging]
[data: ]
[valid: ]
[num_iterations: 2000]
[learning_rate: 0.05]
[num_leaves: 63]
[num_threads: 0]
[seed: 0]
[deterministic: 0]
[force_col_wise: 0]
[force_row_wise: 0]
[histogram_pool_size: -1]
[max_depth: -1]
[min_data_in_leaf: 50]
[min_sum_hessian_in_leaf: 0.001]
[bagging_fraction: 0.8]
[pos_bagging_fraction: 1]
[neg_bagging_fraction: 1]
[bagging_freq: 5]
[bagging_seed: 3]
[bagging_by_query: 0]
[feature_fraction: 0.8]
[feature_fraction_bynode: 1]
[feature_fraction_seed: 2]
[extra_trees: 0]
[extra_seed: 6]
[early_stopping_round: 0]
[early_stopping_min_delta: 0]
[first_metric_only: 0]
[max_delta_step: 0]
[lambda_l1: 0]
[lambda_l2: 0]
[linear_lambda: 0]
[min_gain_to_split: 0]
[drop_rate: 0.1]
[max_drop: 50]
[skip_drop: 0.5]
[xgboost_dart_mode: 0]
[uniform_drop: 0]
[drop_seed: 4]
[top_rate: 0.2]
[other_rate: 0.1]
[min_data_per_group: 100]
[max_cat_threshold: 32]
[cat_l2: 10]
[cat_smooth: 10]
[max_cat_to_onehot: 4]
[top_k: 20]
[monotone_constraints: ]
[monotone_constraints_method: basic]
[monotone_penalty: 0]
[feature_contri: ]
[forcedsplits_filename: ]
[refit_decay_rate: 0.9]
[cegb_tradeoff: 1]
[cegb_penalty_split: 0]
[cegb_penalty_feature_lazy: ]
[cegb_penalty_feature_coupled: ]
[path_smooth: 0]
[interaction_constraints: ]
[verbosity: -1]
[saved_feature_importance_type: 0]
[use_quantized_grad: 0]
[num_grad_quant_bins: 4]
[quant_train_renew_leaf: 0]
[stochastic_rounding: 1]
[linear_tree: 0]
[max_bin: 255]
[max_bin_by_feature: ]
[min_data_in_bin: 3]
[bin_construct_sample_cnt: 200000]
[data_random_seed: 1]
[is_enable_sparse: 1]
[enable_bundle: 1]
[use_missing: 1]
[zero_as_missing: 0]
[feature_pre_filter: 1]
[pre_partition: 0]
[two_round: 0]
[header: 0]
[label_column: ]
[weight_column: ]
[group_column: ]
[ignore_column: ]
[categorical_feature: ]
[forcedbins_filename: ]
[precise_float_parser: 0]
[parser_config_file: ]
[objective_seed: 5]
[num_class: 1]
[is_unbalance: 0]
[scale_pos_weight: 234.21]
[sigmoid: 1]
[boost_from_average: 1]
[reg_sqrt: 0]
[alpha: 0.9]
[fair_c: 1]
[poisson_max_delta_step: 0.7]
[tweedie_variance_power: 1.5]
[lambdarank_truncation_level: 30]
[lambdarank_norm: 1]
[label_gain: ]
[lambdarank_position_bias_regularization: 0]
[eval_at: ]
[multi_error_top_k: 1]
[auc_mu_weights: ]
[num_machines: 1]
[local_listen_port: 12400]
[time_out: 120]
[machine_list_filename: ]
[machines: ]
[gpu_platform_id: -1]
[gpu_device_id: -1]
[gpu_use_dp: 0]
[num_gpu: 1]

end of parameters

pandas_categorical:[]
