tree
version=v4
num_class=1
num_tree_per_iteration=1
label_index=0
max_feature_idx=30
objective=binary sigmoid:1
feature_names=lmp_lag1 lmp_lag4 lmp_lag96 lmp_mean_4 lmp_mean_96 lmp_std_96 lmp_max_96 lmp_ramp_1h lmp_ramp_4h spread_lag1 spread_mean_4 spread_max_96 spread_ramp_1h dam_lmp_current_hour dam_rtm_gap temp_2m wind_speed_10m temp_anomaly temp_delta_1h wind_chill prc_lag1 prc_mean_1h prc_ramp_1h system_lambda_lag1 rtordpa_lag1 wind_gen_lag1 wind_forecast_error hour_of_day day_of_week month is_weekend
feature_infos=[-251:9002.3099999999995] [-251:9010.5400000000009] [-251:9002.6399999999994] [-165.8325000000001:9003.3875000000007] [-21.250833333333333:8985.9706249999999] [0.042426406871190689:4483.7561414384354] [0:9010.5400000000009] [-8969.380000000001:6955.1899999999996] [-8977.5:8966.1700000000001] [-1451:829.8599999999999] [-1194.7674999999999:772.05250000000001] [-9.0799999999999983:838.18000000000006] [-1005.8399999999999:1143.6099999999999] [-27.739999999999998:8987.6599999999999] [-7722.1899999999996:8437.4099999999999] [-6.4000000000000004:36.799999999999997] [0:101.09999999999999] [-22.659166666666664:14.221615294576669] [-9.5999999999999996:5.4000000000000004] [-15.389348646429884:36.799999999999997] [0:16581.779999999999] [0:16437.190000000002] [-5270.3600000000006:5249.3999999999987] [-31.863700000000001:9001] [0:7177.0160999999998] [0:31981.5] [-8336.4900000000016:15709.1] [0:23] [0:6] [1:12] [0:1]
tree_sizes=6610

Tree=0
num_leaves=63
num_cat=0
split_feature=3 0 14 11 10 10 10 17 12 3 12 12 29 14 10 10 3 3 0 16 15 21 14 26 23 0 8 15 13 10 20 13 11 14 2 21 7 12 29 7 2 2 28 4 12 17 6 11 15 3 11 3 6 23 29 3 17 15 21 17 20 17
split_gain=2.14387e+07 1.60205e+06 889169 591287 492936 874277 328305 278502 268449 250166 188258 241386 168186 153996 140643 111884 107123 105578 103250 92146.3 90555.5 83901.2 171051 83673.7 83171.4 81751.1 80258.1 114379 72652.2 93807.3 248820 97709.1 144422 67954 62838 56219.2 48041 47666.7 43925.3 43830.9 49711.6 93216.8 96106.2 67960.4 48445.4 70445.5 42569.4 42292.1 42167.1 42160.5 41432.2 40841.5 39605.9 37735.8 36894.7 36439 35287.9 35473.2 32814.3 79217.1 31890.5 31482.9
threshold=44.410000000001077 80.075000000000003 -8.519999999999996 51.709999999999994 2.4350000000000303 -10.317499999999974 0.5775000000000251 1.8200694444444461 -2.8499999999999814 24.667500000001098 2.5100000000000007 -4.9699999999999944 4.5000000000000009 3.6600000000000015 -1.4424999999999426 -20.88999999999999 18.732500000000019 52.213750000000751 100.26500000000001 1.8500000000000003 32.650000000000013 5401.9050000000007 -7.4299999999999953 62.070000000000171 61.103550000000006 53.305000000000007 16.715000000000007 30.450000000000003 21.795000000000005 0.32000000000002898 1.0000000180025095e-35 23.075000000000003 1.9800000000000002 1.1699999999999993 28.305000000000003 10883.467500000001 27.695000000000004 0.54000000000000459 2.5000000000000004 1.9300000000000002 22.565000000000001 21.195000000000004 1.5000000000000002 37.532291666666673 6.7700000000000076 7.4922569444444447 4599.8250000000016 37.945000000000014 13.250000000000002 24.667500000001098 22.115000000000002 19.890000000000018 103.2 19.801050000000004 1.5000000000000002 28.796250000000565 -9.4799826388888864 31.450000000000003 5452.357500000001 5.1490972222222231 3273.2050000000004 -2.9439409722222218
decision_type=10 10 8 10 10 10 10 2 8 10 10 10 2 10 10 8 10 10 10 2 2 2 10 2 2 8 10 2 2 10 2 2 8 10 8 2 8 10 2 10 8 10 2 8 10 2 8 8 2 10 10 8 10 2 2 10 2 2 2 2 2 2
left_child=2 4 10 8 5 53 19 -7 9 -4 11 -1 34 16 17 52 -8 -9 26 -5 -16 -6 50 -19 -24 35 27 -3 -17 39 33 32 51 -31 -11 -14 61 -21 -39 44 41 43 -43 -41 -30 -46 56 -35 -45 -12 54 -32 -10 -2 -23 -34 -13 -58 -18 -60 -55 -33
right_child=1 18 3 6 21 7 13 14 15 12 49 46 25 -15 20 28 58 23 -20 37 -22 22 24 -25 -26 -27 -28 -29 29 30 31 36 55 47 -36 -37 -38 38 -40 40 -42 42 -44 48 45 -47 -48 -49 -50 -51 -52 -53 -54 60 -56 -57 57 -59 59 -61 -62 -63
leaf_value=5.0617689388618814 5.6629797850823209 -5.5614708737722474 -5.5614708737722474 6.1544753309590288 6.0457413562220133 -5.5614708737722474 -5.5614708737722474 5.0429595095250619 -5.5614708737722474 5.2895712405855946 -5.5614708737722474 3.9812666295100652 -5.5614708737722474 -5.5614708737722474 -5.5614708737722474 -5.5614708737722474 5.9028528426152711 -5.5614708737722474 6.6136688031027706 -5.5614708737722474 2.7258621167831816 6.6167068043487731 -5.5614708737722474 6.2215603418335217 5.4837108526345659 6.2215603418335252 5.298661098606706 5.0581141325228476 -5.5125917277721355 5.518401749254032 5.7883047828200631 -3.0015560673387918 -5.5614708737722474 -5.5614708737722474 -5.5614708737722474 6.8617751589504117 5.139105218909048 4.5767769902317355 -5.5614708737722474 -5.5614708737722474 -5.0826811123289222 4.3808466810436126 -5.5614708737722474 6.6649439131788739 -5.5614708737722474 6.6407776870260005 6.2440930612320749 6.1544753309590448 -5.5614708737722474 4.8809828922228888 5.8379409772810416 -5.5614708737722474 5.5366602831640783 5.809209465055126 -5.5614708737722474 2.8615476780301243 -4.9933728291921931 3.171335823615367 -5.5614708737722474 6.878464215415395 -5.5614708737722474 -5.5614708737722474
leaf_weight=11.647337721660731 45.196251360699534 4.4895365834236127 22.151052821427584 2.1122060418128994 50.101829700171947 49.400936476886272 2.5333813577890387 15.168396087363364 1.0582479089498518 17.104227477684617 1.0021287016570593 1.2966139093041444 10.630581267178055 4.4935450982302418 12.482515107840301 464.4826447032392 24.82350195012987 5.3313246928155413 851.63542872481048 23.61416072584689 4.4790934044867745 1.016017872840169 7.123130811378358 2.100180497393012 2.240478515625 2.1001804973930112 47.851751789450645 5.8256731182336807 253.13957366533577 8.9338544588536006 6.5410523805767298 14.500380421057342 10.197661668062212 2.8460455127060413 1.4470738451927925 0.99597529880702573 1.1563158910721529 2.4409042559564105 1.9000360183417795 19.373152060434226 51.685508655384183 7.4670193009078485 3.6036548111587763 2.0240187160670753 2.838028483092784 2.028027230873704 1.0480859912931908 1.0561030209064477 1.0822989977896211 27.252661922946572 20.623140955343843 0.90191583149135102 3.3446837142109871 1.0881711393594735 1.6034059226512907 1.4689800459891547 21.78012457117439 1.4168693535029877 2.2407597769051781 2.9839173816144466 1.4230227563530204 69.948583375662565
leaf_count=441 1170 1120 5526 34 915 12324 632 580 264 570 250 77 2652 1121 3114 115874 524 1330 5919 5891 378 7 1777 31 66 31 1586 221 62904 257 153 2878 2544 710 361 2 42 116 474 4833 12401 384 899 12 708 13 15 17 270 1130 462 225 95 25 400 120 5187 107 559 5 355 17450
internal_value=0.691613 5.54966 -4.22076 -4.57279 1.71432 -0.129442 -0.0329626 -3.05796 -4.88252 -1.46957 1.434 -0.903499 1.33853 3.11563 0.0682038 -5.08234 4.31235 2.6509 6.47446 -3.9154 -3.37301 4.76104 2.78699 -2.23153 -2.91863 -2.85728 4.43634 0.436103 -5.12018 -4.67535 -3.4563 -4.2617 -1.02905 3.11407 4.44315 -4.49725 -4.98332 -4.67625 0.139251 -5.09284 -4.10982 -2.61108 1.14449 -4.46062 -5.4176 -0.475937 -3.62374 -2.39059 2.40503 4.51061 5.08559 4.41297 2.86922 5.33151 -0.837819 -4.5009 -4.04598 -4.49467 5.14482 1.54322 -0.634234 -5.12192
internal_weight=2245.87 1129.18 1116.69 1051.25 219.378 136.67 67.1424 88.9624 984.107 54.4291 65.4438 37.189 32.278 37.0751 39.5615 929.678 32.5816 22.5999 909.802 30.0673 16.9616 82.708 32.6062 7.43151 9.36361 13.7267 58.167 10.3152 925.275 460.792 117.551 104.715 19.1096 12.836 18.5513 11.6266 85.6053 27.9551 4.34094 343.241 85.2357 33.5501 11.0707 22.4795 258.006 4.86606 25.5417 3.90215 3.10632 28.2548 23.2426 7.44297 4.40293 47.7074 2.61942 11.6666 24.4936 23.197 30.0482 5.22468 2.51119 84.449
internal_count=280538 31780 248758 241551 22934 19307 9356 17757 232195 9142 7207 5827 3616 2841 5433 223053 1720 1941 8846 6515 3492 3627 2712 1361 1843 2685 2927 1341 222694 106820 24396 23412 3042 984 931 2654 20370 6481 590 82424 18799 6398 1283 5115 63625 721 5386 727 282 1380 869 378 359 1550 407 2664 5371 5294 1088 564 380 20328
is_linear=0
shrinkage=1


end of trees

feature_importances:
lmp_mean_4=7
spread_mean_4=6
spread_ramp_1h=5
temp_anomaly=5
spread_max_96=4
dam_rtm_gap=4
temp_2m=4
lmp_lag1=3
lmp_lag96=3
prc_mean_1h=3
month=3
lmp_max_96=2
lmp_ramp_1h=2
dam_lmp_current_hour=2
prc_lag1=2
system_lambda_lag1=2
lmp_mean_96=1
lmp_ramp_4h=1
wind_speed_10m=1
wind_forecast_error=1
day_of_week=1

parameters:
[boosting: gbdt]
[objective: binary]
[metric: binary_logloss,auc]
[tree_learner: serial]
[device_type: cpu]
[data_sample_strategy: bagging]
[data: ]
[valid: ]
[num_iterations: 2000]
[learning_rate: 0.05]
[num_leaves: 63]
[num_threads: 0]
[seed: 0]
[deterministic: 0]
[force_col_wise: 0]
[force_row_wise: 0]
[histogram_pool_size: -1]
[max_depth: -1]
[min_data_in_leaf: 50]
[min_sum_hessian_in_leaf: 0.001]
[bagging_fraction: 0.8]
[pos_bagging_fraction: 1]
[neg_bagging_fraction: 1]
[bagging_freq: 5]
[bagging_seed: 3]
[bagging_by_query: 0]
[feature_fraction: 0.8]
[feature_fraction_bynode: 1]
[feature_fraction_seed: 2]
[extra_trees: 0]
[extra_seed: 6]
[early_stopping_round: 0]
[early_stopping_min_delta: 0]
[first_metric_only: 0]
[max_delta_step: 0]
[lambda_l1: 0]
[lambda_l2: 0]
[linear_lambda: 0]
[min_gain_to_split: 0]
[drop_rate: 0.1]
[max_drop: 50]
[skip_drop: 0.5]
[xgboost_dart_mode: 0]
[uniform_drop: 0]
[drop_seed: 4]
[top_rate: 0.2]
[other_rate: 0.1]
[min_data_per_group: 100]
[max_cat_threshold: 32]
[cat_l2: 10]
[cat_smooth: 10]
[max_cat_to_onehot: 4]
[top_k: 20]
[monotone_constraints: ]
[monotone_constraints_method: basic]
[monotone_penalty: 0]
[feature_contri: ]
[forcedsplits_filename: ]
[refit_decay_rate: 0.9]
[cegb_tradeoff: 1]
[cegb_penalty_split: 0]
[cegb_penalty_feature_lazy: ]
[cegb_penalty_feature_coupled: ]
[path_smooth: 0]
[interaction_constraints: ]
[verbosity: -1]
[saved_feature_importance_type: 0]
[use_quantized_grad: 0]
[num_grad_quant_bins: 4]
[quant_train_renew_leaf: 0]
[stochastic_rounding: 1]
[linear_tree: 0]
[max_bin: 255]
[max_bin_by_feature: ]
[min_data_in_bin: 3]
[bin_construct_sample_cnt: 200000]
[data_random_seed: 1]
[is_enable_sparse: 1]
[enable_bundle: 1]
[use_missing: 1]
[zero_as_missing: 0]
[feature_pre_filter: 1]
[pre_partition: 0]
[two_round: 0]
[header: 0]
[label_column: ]
[weight_column: ]
[group_column: ]
[ignore_column: ]
[categorical_feature: ]
[forcedbins_filename: ]
[precise_float_parser: 0]
[parser_config_file: ]
[objective_seed: 5]
[num_class: 1]
[is_unbalance: 0]
[scale_pos_weight: 247.465]
[sigmoid: 1]
[boost_from_average: 1]
[reg_sqrt: 0]
[alpha: 0.9]
[fair_c: 1]
[poisson_max_delta_step: 0.7]
[tweedie_variance_power: 1.5]
[lambdarank_truncation_level: 30]
[lambdarank_norm: 1]
[label_gain: ]
[lambdarank_position_bias_regularization: 0]
[eval_at: ]
[multi_error_top_k: 1]
[auc_mu_weights: ]
[num_machines: 1]
[local_listen_port: 12400]
[time_out: 120]
[machine_list_filename: ]
[machines: ]
[gpu_platform_id: -1]
[gpu_device_id: -1]
[gpu_use_dp: 0]
[num_gpu: 1]

end of parameters

pandas_categorical:[]
