tree
version=v4
num_class=1
num_tree_per_iteration=1
label_index=0
max_feature_idx=30
objective=binary sigmoid:1
feature_names=lmp_lag1 lmp_lag4 lmp_lag96 lmp_mean_4 lmp_mean_96 lmp_std_96 lmp_max_96 lmp_ramp_1h lmp_ramp_4h spread_lag1 spread_mean_4 spread_max_96 spread_ramp_1h dam_lmp_current_hour dam_rtm_gap temp_2m wind_speed_10m temp_anomaly temp_delta_1h wind_chill prc_lag1 prc_mean_1h prc_ramp_1h system_lambda_lag1 rtordpa_lag1 wind_gen_lag1 wind_forecast_error hour_of_day day_of_week month is_weekend
feature_infos=[-31.899999999999999:9300.3500000000004] [-251:9310.4899999999998] [-32.5:9300.3500000000004] [-34.995000000000651:9252.1249999999982] [-20.650833333333335:9025.4766666666674] [0.042426406871190689:4487.0278425177448] [-4.96:9310.4899999999998] [-8948.5799999999999:6955.1899999999996] [-9001.7600000000002:8998.2100000000009] [-1645.45:509.58999999999997] [-1145.9125000000001:367.54500000000007] [-26.690000000000001:509.58999999999997] [-1267.45:1080.3400000000001] [-13.41:9000.0100000000002] [-7719.3800000000001:8479.4200000000001] [-15.9:44] [0:63.899999999999999] [-23.935868055555552:23.390347222222225] [-13.800000000000001:8.1000000000000014] [-23.492817113170894:44] [0:16581.779999999999] [0:16437.190000000002] [-5270.3600000000006:5249.3999999999987] [-31.863700000000001:9001] [0:7177.0160999999998] [0:31981.5] [-8336.4900000000016:15709.1] [0:23] [0:6] [1:12] [0:1]
tree_sizes=8174 9589 9244 9647 9783 9653 9703

Tree=0
num_leaves=77
num_cat=0
split_feature=0 0 8 11 27 8 9 9 29 18 2 4 4 6 15 13 27 12 19 8 27 4 4 22 11 11 23 9 10 8 17 20 27 16 10 27 18 15 16 27 9 16 4 21 25 18 8 23 28 18 14 2 22 11 14 5 3 4 6 2 16 16 12 5 10 4 16 4 19 9 5 14 4 18 15 16
split_gain=5.54641e+06 252366 46947.6 25480.3 22406.3 17280.9 18986.1 11975 11907.9 9602.28 9323.96 8203.97 8203.12 7588.86 6740.67 6166.91 6047.51 5904.71 5330.61 6240.62 5307.46 5306.91 5306.08 5075.63 5046.86 6879.18 4913.81 6953.81 4823.82 4440.11 4304.79 4230.51 4815.5 3919.15 3713.47 3654.49 3934.53 3339.74 3077.85 3005.15 2933.18 2633.68 2622.49 2574.33 2579.73 2538.45 2247.34 2238.55 2349.2 3007.12 3880.35 2190.3 2103.86 1936.19 1853.25 1883.18 1431.55 1267.65 1252.92 976.286 910.231 830.529 800.546 712.561 624.804 597.344 593.07 541.534 298.461 277.241 261.807 247.592 128.709 81.8615 65.4604 29.5238
threshold=92.90000000000002 47.525000000000013 11.675000000000001 67.855000000000018 19.500000000000004 5.110000000000003 -1.5499999999999978 2.1000000000000054 1.5000000000000002 -0.50000000000000011 -0.15499999999999997 74.101145833333348 58.602447916666677 27.605000000000004 32.550000000000004 12.885000000000003 2.5000000000000004 10.694999999999997 -1.8969537905964853 1.6199999999999999 18.500000000000004 12.912916666666669 34.147552083333345 163.10499999999982 12.104999999999984 9.1350000000000033 24.148150000000005 0.10000000000000499 -1.9700000000000262 15.595000000000001 -8.9629513888888876 3725.2050000000004 10.500000000000002 10.050000000000002 -4.8249999999999966 19.500000000000004 1.8999999999999992 30.150000000000002 28.550000000000004 18.500000000000004 0.070000000000003851 5.6500000000000012 111.43958333333336 8778.9562500000011 12384.620000000001 2.4000000000000017 14.610000000000005 20.747050000000005 1.5000000000000002 -1.0000000180025095e-35 3.0350000000000015 0.38500000000000006 166.1249999999998 13.775000000000002 -1.3700000000000003 6.8196300216758656 16.014999999999954 18.76661458333334 897.20000000000016 21.785000000000004 10.850000000000003 21.250000000000004 -7.2799999999999976 4.2706778411254991 -1.2025000000000099 24.138072916666673 13.350000000000003 33.805937500000006 -4.0291109636574856 -62.464999999999989 110.82643275126593 4.4350000000000014 71.517656250000016 0.19999999999999754 0.95000000000000007 4.0500000000000007
decision_type=10 10 10 10 2 10 10 10 2 2 10 10 10 10 2 2 2 10 2 10 2 8 8 2 10 10 2 10 8 10 2 2 2 2 10 2 2 2 2 2 10 2 10 2 2 2 8 2 2 2 10 10 2 10 10 10 10 10 10 8 2 2 10 10 10 10 2 10 2 8 10 10 10 2 2 2
left_child=1 3 7 5 8 17 9 69 -4 -7 -10 15 16 -11 22 -5 -12 18 19 -1 33 -18 28 30 25 -2 63 -28 38 31 -17 -29 -33 -9 -32 36 43 39 45 -34 -21 75 -14 44 46 51 -36 62 49 -49 54 -15 -53 -35 -51 -56 -19 -42 -50 -59 -57 -58 67 65 -62 -8 -44 -20 74 -3 -60 73 -6 -69 -65 -23
right_child=24 2 4 11 72 6 26 20 10 13 12 -13 42 14 -16 23 21 56 47 40 -22 41 -24 -25 -26 -27 27 29 -30 -31 34 32 37 53 35 -37 -38 -39 -40 -41 57 -43 66 -45 -46 -47 -48 48 58 50 -52 52 -54 -55 55 60 61 59 70 -61 64 -63 -64 68 -66 -67 -68 71 -70 -71 -72 -73 -74 -75 -76 -77
leaf_value=-5.672451950830955 -2.294587006402137 -5.4413955826810012 -5.6663522722767077 -5.6663522722767077 -5.6663522722767077 -5.6663522722767077 -5.6663522722767077 -5.6663522722767077 -5.6663522722767077 -5.6663522722767077 -5.6663522722767077 -5.6663522722767077 -5.6663522722767077 -5.6663522722767077 -5.6663522722767077 -5.6663522722767077 -5.6663522722767077 -5.6663522722767077 -5.6663522722767077 -5.6663522722767077 -5.6663522722767077 -5.4531925953577343 -5.6663522722767077 -5.6663522722767077 3.2601506519109176 -5.6663522722767077 -5.6753301815867445 -5.6663522722767077 -5.6663522722767077 -5.6663522722767077 -5.6663522722767077 -5.6663522722767077 -3.6779345010507076 -5.6663522722767077 -3.058715366420286 -5.6663522722767077 -5.6663522722767077 -5.6663522722767077 -5.6663522722767077 -5.6663522722767077 -5.6663522722767077 -1.7019514441619319 -5.6663522722767077 -5.6663522722767077 -5.6663522722767077 -5.6663522722767077 -5.6663522722767077 -5.6722079136874424 -5.6928733113093131 -5.6663522722767077 -5.6663522722767077 -3.09618260503952 -5.6663522722767077 -3.5921053963986496 -5.6663522722767077 -5.6663522722767077 -5.6663522722767077 -4.1773176378481125 -5.1894385230807645 -5.6663522722767077 -5.6663522722767077 -4.5602448160773266 -5.7004064074167076 -5.6663522722767077 -4.2478943332224226 -5.2005225924491585 -4.5565728867556565 -5.6663522722767077 -5.6927397768098054 -5.6765500680309096 -5.6663522722767077 -5.6663522722767077 -5.4452069800132801 -5.1991385778339563 -5.4424655964505426 -5.6663522722767077
leaf_weight=12.605592609383168 11.994373474502932 0.23315338371321559 1.3059228984639037 2.9383265215437921 3.6737673117313525 5.7151310003828284 4.7013224344700566 1.3849656002130348 0.97256889543495972 3.2888637206051525 0.5223691593855645 5.3233541308436534 4.0380510676186523 0.44332645763642631 2.3231681035831562 1.415895353071394 0.44676309684291615 1.9932507397606958 6.9935607851948571 2.5568595696240655 2.4743802286684513 0.62836689245887345 1.5361777252983362 1.9588843476958562 109.31767727155238 0.78699037828482765 14.822224897565322 3.1032852034550187 1.2200069183018012 4.7769284970127037 1.0756680716294802 2.5362397343851608 3.8877933153416961 0.58422866510227356 6.932325715199104 0.94851242098957378 0.91758266813121814 1.3540358473546801 0.70451103732921261 1.017245205119252 0.83853996638208661 27.808675499632955 0.6151584179606292 0.54986227303743351 0.51549588097259391 0.54298899462446648 0.42270662239752521 12.437197288265454 57.824891288299114 1.9898141005542127 7.0176172596402466 8.8454575885552877 0.40552342636510808 3.3997905480209738 1.549924282124264 0.62546833558008108 0.89008955447934601 2.0169772771187127 0.44568693218752642 0.56704546906985376 0.39177686953917179 1.5403605920728294 330.41223986819386 1.4949380548205216 2.508416683645919 0.63470208854414512 1.5094308392144737 0.43645317922346316 56.896998702548444 15.911639526020739 1.5052479724399743 1.6358402622863648 0.35687239514663804 0.61064561409875751 0.26751977577805508 0.67014464526437223
leaf_count=3668 1604 7 380 855 1069 1663 1368 403 283 957 152 1549 1175 129 676 412 130 580 2035 744 720 122 447 570 2848 229 4313 903 355 1390 313 738 462 170 922 276 267 394 205 296 244 4137 179 160 150 158 123 3619 16826 579 2042 1357 118 320 451 182 259 161 8 165 114 144 96144 435 304 63 135 127 16556 4630 438 476 43 56 17 195
internal_value=-3.83745 -5.17565 -3.21457 -5.42637 -2.56034 -5.48425 -5.11806 -4.8767 -2.33617 -4.36871 -2.23917 -4.42399 -2.16323 -4.09076 -3.87113 -4.16009 -1.8816 -5.59115 -5.61446 -5.12375 -4.17986 -1.82861 -3.67606 -3.96176 2.90681 -2.42296 -5.40378 -5.08904 -3.52252 -4.72235 -3.79853 -4.4884 -4.26558 -3.90038 -3.66011 -3.5407 -3.42319 -4.012 -3.38294 -3.83615 -4.60618 -1.78211 -4.93009 -3.29669 -3.21392 -3.29388 -3.13097 -5.64633 -5.49181 -5.2563 -5.0064 -3.22043 -3.15706 -3.69404 -4.68462 -4.53105 -4.82296 -4.36318 -5.6376 -4.25818 -4.37504 -4.65668 -5.68776 -5.61072 -4.29964 -5.37594 -4.62543 -5.45557 -5.66635 -5.61251 -5.26616 -5.29574 -5.52298 -5.22312 -5.4818 -5.47093
internal_weight=781.546 659.447 66.5362 592.91 42.5481 569.912 120.518 23.9882 38.5175 25.0252 37.2115 22.9986 36.239 19.31 16.0212 17.6753 30.0763 449.393 444.97 18.585 7.84337 29.554 13.698 14.7369 122.099 12.7814 95.4932 31.4978 12.1618 16.6755 12.778 11.8986 8.79531 5.36898 11.3622 10.2865 9.33797 6.25907 10.9418 4.90504 5.97942 29.1072 6.16264 8.42039 7.87053 10.2373 7.35503 426.385 86.296 26.5202 14.083 9.69431 9.25098 3.98402 7.0654 5.07559 4.4237 3.42256 59.7758 2.58402 3.52566 2.43045 340.089 63.9955 2.90019 5.33602 2.12459 9.6765 58.6595 16.1448 1.95093 2.68294 4.03064 1.0471 1.76246 1.29851
internal_count=186894 182213 14250 167963 8000 162366 33000 6250 6888 6065 6508 5597 6225 4402 3445 4048 4736 129366 128383 4982 1613 4584 2769 3193 4681 1833 26935 8496 2322 4183 2623 2793 1890 893 2211 1898 1622 1152 1967 758 1314 4454 1489 1355 1195 1762 1045 123401 24563 7291 3672 1604 1475 490 1630 1051 983 570 17272 326 600 403 98838 18439 418 1431 314 2694 17008 4637 446 659 1112 183 452 317
is_linear=0
shrinkage=1


Tree=1
num_leaves=96
num_cat=0
split_feature=9 0 9 8 1 19 15 0 3 0 10 11 11 7 18 11 3 25 13 11 7 4 0 0 2 9 11 11 4 2 9 4 7 11 0 8 11 12 29 4 5 0 28 3 0 14 11 13 25 23 23 22 11 10 27 19 10 8 17 11 0 16 18 10 2 12 8 5 12 11 26 14 17 15 18 0 7 11 1 17 18 17 18 18 6 6 27 17 29 11 22 18 18 14 18
split_gain=14146.9 9795.78 7953.72 9643.43 3383.29 3118.34 5110.55 3026.82 2784.91 3987.32 4354.72 2579.12 2502.48 2476.95 1880.78 1925.02 1821.04 1636.84 1829.53 1600.24 1560.06 1489.96 1481.39 1393.59 1529 1213.73 1701.12 1159.97 1075.62 1071.63 1051.08 951.455 898.988 881.847 872.553 814.503 794.265 2271.77 1264.39 717.894 702.939 695.185 659.407 1198.31 2943.18 1725.52 738.202 617.557 542.38 539.922 676.022 522.012 506.336 498.068 496.539 423.378 513.658 421.947 474.086 562.707 391.732 390.047 371.433 347.455 338.637 330.897 316.049 266.291 254.943 250.908 247.143 241.605 208.763 200.243 184.239 176.994 173.831 149.155 295.041 140.478 137.813 123.982 96.6094 91.2944 72.6636 65.9335 57.5286 50.4504 49.83 38.6379 36.9086 34.5327 40.0385 32.8665 27.5774
threshold=-1.0750000000000026 92.90000000000002 1.5399999999999998 14.610000000000005 38.535000000000004 -1.8969537905964853 0.95000000000000007 157.23500000000004 6.7674999999991661 36.835000000000008 -14.961250000000033 11.525 2.7349999999999981 5.9900000000000064 -1.0999999999999999 16.22000000000001 44.414999999999722 6896.7650000000003 33.105000000000011 15.094999999999999 -0.34999999999999604 23.931979166666668 103.55500000000002 68.285000000000011 361.30000000000001 15.600000000000003 12.104999999999984 29.914999999999996 18.76661458333334 34.105000000000011 -13.614999999999997 12.69671875 12.965000000000002 0.090000000000000316 31.465000000000003 21.455000000000002 13.345000000000006 1.490000000000004 11.500000000000002 25.798385416666672 6.8839755628856674 18.795000000000005 1.5000000000000002 26.324999999999964 24.065000000000001 -0.9399999999999985 0.67000000000000093 11.385000000000003 4711.8250000000016 20.747050000000005 20.862950000000001 -13.190000000000053 0.39999999999999941 1.1900000000000011 11.500000000000002 39.150000000000013 -7.1474999999999858 13.674999999999999 9.3127083333333349 13.775000000000002 49.655000000000008 12.65 1.4999999999999998 -16.243750000000031 12.105000000000002 0.050000000000001606 9.7400000000000073 5.4023576048644086 6.2600000000000033 53.38000000000001 -432.41999999999911 347.23000000000008 2.3708680555555568 40.550000000000004 2.3000000000000003 92.90000000000002 -8.2899999999999938 85.080000000000013 46.465000000000011 8.2869791666666703 -1.0999999999999999 -9.8080729166666654 1.3000000000000027 -3.1999999999999971 75.365000000000023 344.81000000000006 18.500000000000004 8.1385416666666686 4.5000000000000009 216.64999999999998 464.42000000000013 1.9000000000000015 1.8000000000000027 -95.289999999999992 -0.99999999999999956
decision_type=8 8 10 10 10 2 2 8 10 10 10 10 10 10 2 10 10 2 2 10 10 10 10 10 8 10 10 10 10 10 10 10 10 10 10 8 10 10 2 10 10 10 2 10 10 10 10 2 2 2 2 2 10 10 2 2 10 10 2 8 10 2 2 10 8 10 10 10 10 10 2 10 2 2 2 8 10 10 10 2 2 2 2 2 10 10 2 2 2 10 2 2 2 10 2
left_child=8 2 5 4 13 6 -2 36 35 10 33 22 41 -4 -6 53 -17 42 -19 68 61 28 30 24 83 26 64 70 -8 31 -11 -22 -29 -10 54 -1 94 38 93 -32 -33 -12 43 44 49 46 -46 -42 62 -7 -51 -43 66 -16 -15 56 -28 65 59 -59 -21 76 -39 -25 -9 72 67 -53 -5 81 -20 73 -58 75 -66 -65 -14 78 -50 -70 85 -27 -49 -13 88 -62 -71 -83 -82 -88 -36 92 -84 -38 -3
right_child=1 7 3 19 14 17 21 25 9 11 12 23 20 34 15 16 -18 18 27 60 29 -23 -24 63 -26 69 55 32 -30 -31 39 40 -34 -35 90 -37 37 48 -40 -41 47 51 -44 -45 45 -47 -48 82 77 50 -52 52 -54 -55 -56 -57 57 58 -60 -61 80 -63 -64 71 74 -67 -68 -69 79 86 -72 -73 -74 -75 -76 -77 -78 -79 -80 -81 84 87 91 -85 -86 -87 89 -89 -90 -91 -92 -93 -94 -95 -96
leaf_value=-0.028730611373320877 -0.016795628078670438 0 -0.019709916332197101 -0.03384530097168216 0 -0.026220277176513221 0 0.16534328325493991 0 0.21476840572901232 -0.021495297819021982 0.095268166383352226 0.26621085983972831 0 0.30374808651743124 0 0.82693351523908709 -0.027733936363917227 0.12821721647461351 -0.008690871409679897 0 0 0.31335092326976505 0.0064674676011552135 0.59366580847244466 0.0038285943277308367 0 0.51024309621280795 0.97023750476227733 0 0.14530729531243419 0 0.13347931257362533 0.77704215875987681 0 0.25672725122784951 -0.057797392444864822 -0.29217043559063854 0 -0.030295318951863052 0 -0.002332523779851848 -0.036841557823100023 -0.03459439014966182 0.81740082934043645 0 0 0.64606196621897749 0 0.38573842153780308 -0.00061878565707026187 0 0 0 0.59999096431491095 0 -0.2772677777050489 -0.025014087912264827 -0.050356153922225137 -0.45406028439264418 -0.0064981906880054374 -0.0099287740034247306 0 0 -0.028455322073362065 0 0 0.4245489093503198 -0.0045855991583583161 0.026175972253037645 -0.019023848108371419 0 0 0 0.11433671816601328 -0.32566434435547836 0 0 -0.18903902519561849 0.12369043714464542 0.077955541018225952 -0.12250857979510872 0 -0.010699485206892389 0.17889410819783455 0.081510169108751696 -0.019296709795107954 -0.015378967652953324 0 0.016322286215591814 0.095024064605251521 0 0.16203009150377526 -0.61886621069107484 -0.04921828715368181
leaf_weight=75.388784020906314 22.171030460856855 16.525255908025429 29.485047502443194 75.410884502111003 5.2011167807504526 55.544584380928427 1.4924229537136833 13.460518521955235 1.7855829463806028 172.7587896019686 33.939330501947552 8.0901734309736693 6.3851767973974347 1.7024033339694149 11.156150657217951 3.3121007685549548 48.152746923733503 59.562500907573849 17.951611608034 12.493136787088586 3.6160032004117957 2.6001856166403732 161.13034516037442 68.771079101366922 2.3677450248505947 24.678965512663126 13.600407864898441 16.075325127691031 7.2356613904703408 4.6486750515177837 50.984617977170274 2.4176697470247737 29.739737305324525 29.882297154981643 3.6855660879518828 6.8500593723729244 3.3049956969916865 20.369510840624574 7.1739779114723197 50.487284302711487 1.9636856957804401 10.053095652023332 410.59611519589089 102.28393894713372 4.8032694393768907 5.0828920188359898 1.4430925513152031 40.394758947892115 25.3909159488976 2.2941747833974651 9.3592628915794176 1.7638526605442191 5.7816097072791299 7.760148284956812 12.676889869151635 15.979867994785307 6.9359429217874986 7.6011481732130104 12.858433738350866 20.73663372173905 10.728824978461491 15.492584562161936 9.4466454759240133 3.7308918342459938 51.174199602100998 25.426513470709324 2.5617853961884967 10.996243982343001 9.8172965445555764 578.14965394884348 22.150873401900753 12.151826995424926 7.1383803896605968 4.6241752919740984 6.2328569279052308 4.6345511139370492 2.9816789538599568 43.465463899075985 13.753945615142582 18.649140988476574 10.429479710757734 17.266952611505985 1.5348955115769047 13.469583406113083 301.95331986341625 9.9035850134678167 61.154012940824032 21.379543647170067 7.5041961299721143 80.463326491415501 8.1204033582471311 1.7496650053653864 2.8641574538778514 15.342531900852919 46.962674758397043
leaf_count=18754 4203 88 6868 2102 1002 16264 434 43 205 370 7863 6 288 387 86 558 1276 13018 202 1126 372 316 322 118 47 24 17 471 238 653 279 503 110 1039 626 108 32 268 19 1303 279 1565 72572 7999 266 1235 368 1112 44 149 2304 439 1161 1137 187 23 134 31 57 400 313 3767 22 113 712 45 238 645 384 422 1708 33 18 15 16 132 737 65 143 107 60 120 181 519 938 89 136 53 114 70 17 372 31 431 658
internal_value=0.086499 0.0441847 0.109207 0.207392 0.469945 0.0324499 0.334017 -0.0315289 0.215251 0.237162 0.384418 0.183592 0.272448 0.205017 0.62241 0.666103 0.778928 0.0148163 0.119028 0.124386 0.394678 0.757925 0.22327 0.029475 0.235121 -0.00436345 -0.0859212 0.217853 0.881061 0.488214 0.161707 0.527165 0.328574 0.740509 0.412387 0.0123495 -0.154632 -0.201369 -0.4658 0.0591864 0.561718 0.0839373 -0.0115384 0.0433113 0.142287 0.530879 0.731611 0.587257 -0.110679 0.0223298 0.186029 0.187805 0.26504 0.205461 0.55183 -0.169835 -0.196544 -0.227901 -0.308252 -0.37909 0.159958 0.0967777 -0.227118 -0.0342512 0.0445629 -0.0990244 0.339412 0.385614 0 0.0147779 0.0506088 -0.129845 -0.200277 -0.202994 0 -0.261358 0.214624 -0.0485149 -0.0924841 0.0793339 0.167139 -0.0481114 0.609676 0.033252 0.173549 0.035487 0.0212331 -0.0831604 0.0433625 0 0.0706378 0.116279 0.137626 -0.579261 -0.0370268
internal_weight=3340.76 2524.5 1358.53 588.142 131.253 770.387 33.4993 1165.97 816.253 734.014 180.813 553.201 149.145 55.6703 75.5823 70.3811 51.4648 736.887 145.48 456.89 84.049 11.3283 435.361 117.84 23.9275 964.237 181.145 85.9175 8.72808 59.1895 274.231 54.5408 45.8151 31.6679 26.1853 82.2388 201.736 138.248 25.8215 101.472 50.9248 65.0959 591.407 180.811 78.5273 11.3293 6.24636 48.5072 112.426 67.198 11.6534 31.1566 21.1035 18.9163 14.3793 110.277 94.2975 80.6971 41.1962 28.3378 353.013 24.8594 29.8162 93.9125 70.8676 39.5008 15.3219 12.7601 103.877 783.092 40.1025 25.1414 14.0743 12.9896 57.4071 8.36544 9.36686 82.6103 39.1449 28.4664 340.519 63.3255 46.5435 21.5598 319.887 20.6324 719.767 38.6465 17.9337 141.617 11.806 6.14872 4.39905 18.6475 63.4879
internal_count=186894 143325 139234 17377 12144 121857 5191 4091 43569 24707 21450 3257 20206 8085 4059 3057 1834 116666 15509 5233 8295 988 2274 983 572 2321 1496 2491 672 3503 1952 2850 581 1244 1217 18862 1770 1024 482 1582 2478 11911 101157 28585 20586 1869 634 1975 542 18717 2453 4048 2483 1223 574 725 702 685 488 431 2640 4792 290 411 771 197 1322 1084 2593 825 1910 293 152 260 728 245 1025 252 187 491 1514 197 1696 525 1112 402 628 173 174 206 643 584 212 463 746
is_linear=0
shrinkage=0.0357526


Tree=2
num_leaves=90
num_cat=0
split_feature=9 0 9 8 0 19 15 21 15 17 15 8 17 17 27 25 13 13 15 0 11 9 18 16 11 14 11 21 11 28 21 1 15 18 14 13 12 0 11 12 2 8 12 14 21 21 13 5 16 18 13 0 11 1 7 10 9 16 16 17 8 1 27 27 2 10 16 4 18 7 5 18 16 10 11 29 4 2 2 27 6 18 15 15 17 15 0 27 8
split_gain=10173.4 8411.23 5468.91 4185.82 2570.48 2248.36 2558 1634.49 1913.67 1868.23 1743.89 1738.57 2806.74 2189.54 1456.4 1418.36 1430.48 1332.96 1279.25 1429.62 1245.98 1081.67 1006.33 986.748 985.571 845.471 711.544 658.151 648.911 640.841 1034.11 1524.77 1715.56 1480.62 1272.47 594.531 587.108 531.854 524.961 1167.92 547.749 464.662 456.233 455.539 454.32 452.674 417.222 385.148 377.739 366.098 335.393 332.453 313.053 305.826 304.901 304.597 302.654 292.723 272.813 257.109 254.253 248.969 245.057 667.763 342.94 220.085 173.993 167.349 143.811 141.743 127.738 126.733 123.534 111.966 99.2313 89.318 85.3625 83.9661 67.0603 65.8721 64.9406 46.6235 57.0103 46.147 33.9592 33.5255 17.9819 15.2893 4.46248
threshold=-1.0750000000000026 92.90000000000002 1.5399999999999998 14.610000000000005 157.23500000000004 -1.8969537905964853 0.95000000000000007 5024.2725000000009 27.450000000000003 5.6308333333333325 11.15 0.83499999999999919 0.85118055555555572 -1.3902951388888882 7.5000000000000009 6896.7650000000003 33.105000000000011 21.345000000000002 27.950000000000003 34.845000000000006 13.025000000000006 29.845000000000077 -0.89999999999999958 23.150000000000002 6.3000000000000407 4.3500000000000041 29.914999999999996 4927.1125000000002 2.7349999999999981 1.5000000000000002 4959.7212500000005 25.905000000000005 18.050000000000004 -1.0000000180025095e-35 1.1749999999999992 21.545000000000005 11.664999999999985 24.065000000000001 13.775000000000002 3.0200000000000027 24.175000000000004 7.2849999999999975 7.9700000000000024 6.9350000000000014 9041.0000000000018 3702.4150000000004 170.38500000000002 29.107854598382296 23.350000000000005 -0.19999999999999749 353.17500000000001 49.655000000000008 12.104999999999984 39.835000000000008 12.965000000000002 2.6349999999999989 0.26999999999999985 12.250000000000002 4.8500000000000005 10.147621527777781 17.795000000000005 34.425000000000004 10.500000000000002 5.5000000000000009 27.485000000000003 -1.0500000000000089 7.3500000000000005 205.18239583333337 0.50000000000000044 53.750000000000007 63.115791942078147 -1.0999999999999999 18.350000000000005 24.311249999999969 51.099999999999987 10.500000000000002 50.054791666666667 2.5350000000000006 67.925000000000026 4.5000000000000009 344.81000000000006 0.89999999999999913 36.550000000000004 7.0500000000000007 -16.872916666666665 18.750000000000004 92.90000000000002 18.500000000000004 91.260000000000019
decision_type=8 8 10 10 8 2 2 2 2 2 2 10 2 2 2 2 2 2 2 10 10 10 2 2 8 8 10 2 10 2 2 10 2 2 10 2 8 10 10 10 10 8 10 10 2 2 2 10 2 2 2 10 10 10 10 10 10 2 2 2 10 10 2 2 10 10 2 10 2 10 10 2 2 10 10 2 10 10 10 2 10 2 2 2 2 2 10 2 8
left_child=7 2 5 17 38 6 -2 8 11 10 14 12 13 -1 28 29 -17 -4 -11 23 69 24 73 -20 55 -15 65 -8 -9 30 31 32 -7 -34 35 -35 46 -24 85 40 -40 -13 44 -30 45 -39 52 61 50 53 62 -22 -26 -41 -28 67 -48 -49 -12 -54 -43 -21 63 64 -47 -18 -10 -6 71 -5 -51 80 -59 -19 -38 -73 83 -70 -66 -55 -53 82 -58 -23 -16 -3 -60 -78 -63
right_child=1 4 3 20 21 15 27 9 66 18 58 41 -14 25 84 16 26 22 19 47 51 76 37 -25 36 -27 54 -29 43 -31 -32 -33 33 34 -36 -37 74 42 39 49 -42 60 -44 -45 -46 48 56 57 -50 70 -52 68 59 79 -56 -57 81 72 86 -61 -62 88 -64 -65 78 -67 -68 -69 77 -71 -72 75 -74 -75 -76 -77 87 -79 -80 -81 -82 -83 -84 -85 -86 -87 -88 -89 -90
leaf_value=0 -0.016542996624907869 0 -0.0076071566111851844 -0.033413122004409941 -0.026476262202950789 -0.012215318341735951 0 -0.00033714246976473391 0.10444484914752895 -0.02615210490563244 0.11956396946186136 0 0 0.9749766189996617 0.018080780740697331 -0.027495429080034873 0.11788592801260149 -0.0071555944591253232 0.40584742441876626 0.11529235098843621 -0.010606166884402718 0.011586444180471986 0 0 0 0 0.35731356822736254 0.52615608180449469 0.31596350286332897 -0.036715333829711413 -0.032697210399002294 -0.026206570851857257 0 0 0 0.67802609736672814 -0.059649598049366342 0 -0.10664120529000273 -0.019653403845618037 -0.42415831980027818 0.34008041005046907 0.06688081095955685 0 0 0.37983729491897916 -0.19792990598392241 0.033963459721157711 0 -0.087060890559917836 0.078997168458250208 -0.0087357434432723952 -0.3653460267423812 -0.024189145563781413 0.12059242095061923 0.16882771592674534 -0.09647622882033613 0.22348041314162509 -0.033172077674011306 -0.033933272841979722 0.20377140650121664 -0.033184802285713522 0.49619407756006939 -0.00099075553391940571 0 -0.018753335073459696 -0.036325017249636223 0.11016451814777653 0.085010353103847511 0.072232844594095402 0 0.16518556291901598 0.092843477360186111 0.11696825001793425 0.008900590126924816 0.081767840046544041 0.027812195156856543 -0.013319540886736016 0.10838525626150435 -0.31055469135510472 0.076548927960904331 0 -0.0089230858865922153 -0.034484263810989645 -0.035040715751479899 -0.05388911813444288 -0.098553040467930203 0.0080787750061009234 0
leaf_weight=3.7340843796264371 21.834795985370874 18.648935826262459 13.505028808023779 72.789786707842723 42.081337347626686 17.294496843125671 2.9418169402051744 9.0242703109979612 7.1831631755921981 27.54878437705338 5.3759276857599607 8.5434806162957084 7.7532352274283758 9.3487634756602365 29.154709414113313 58.029295735992491 19.524386374978349 12.93083812412806 56.550275787943974 19.956114906584844 13.888011449947951 37.466819174587727 4.2303495639935127 7.2252318097744128 7.3781815054826465 1.1274293197784562 25.384146168362349 19.317125006578863 53.202147187199444 397.54055656632408 99.410731564974412 39.381076432298869 7.8177264761179712 1.6060813772492135 4.3948512191418549 13.500475455541162 34.668750473996624 2.9950064721051595 22.505192305892706 14.744052622467281 23.870470266789198 50.254737809998915 12.292329842457546 5.130689908983185 3.1519300846848628 23.576120269717649 19.873861966887489 24.866356740007177 2.4036921397782853 29.64799639582634 10.085901873186229 12.014841293683277 16.233626227825884 5.4733440205454853 32.552263395860791 13.063045211136339 25.561658462509513 112.05664556287229 120.18898341502063 8.1369893625378591 282.08276490820572 19.977242182474583 82.919263880467042 8.5614383905194682 6.1926793896127474 21.907661084085703 34.010689123300835 6.6170993149280539 9.3053965340368467 11.286189802922307 48.104977179318666 288.78945479425602 39.537468104623258 5.9936350171919903 52.048455446958542 62.780442925868556 479.38113113120198 14.677949667442588 6.7958925885614008 10.626672673970459 10.610081061255185 28.508132259594277 28.963796943891793 45.468149285763502 17.321470750961453 46.817386762239039 9.6379452426917833 121.80245009437203 3.0890281721949604
leaf_count=1035 4203 112 3082 2190 511 4199 408 1555 102 4838 102 1507 2177 204 87 13018 123 2596 1330 63 1324 32 850 1489 153 323 471 580 698 72572 16404 3710 2266 434 1134 438 139 497 131 43 414 641 205 795 570 774 215 107 157 142 23 340 276 26 110 18 147 196 18476 36 333 403 1803 867 573 1787 3355 13 20 36 69 670 217 77 53 334 330 227 70 184 92 52 77 127 3398 649 128 142 10
internal_value=0.076751 0.0403025 0.0971763 0.169936 -0.0301994 0.0313516 0.258563 0.175898 0.232822 0.131504 0.0541167 0.258495 0.550949 0.7548 0.152812 0.0146843 0.107232 0.308579 0.189536 0.211775 0.110538 -0.00433388 0.333063 0.361401 -0.0623774 0.913658 0.18508 0.471509 0.249802 -0.0109677 0.0423315 0.129729 0.256415 0.39954 0.522852 0.628636 -0.0974408 0.361104 -0.138087 -0.173556 -0.314862 0.226353 0.371169 0.288721 0.389724 0.398587 -0.142504 0.155538 0.407389 -0.0927338 0.414723 0.135755 -0.252399 -0.186071 0.260382 0.0553601 -0.089703 0.179066 -0.0306506 -0.300826 0.232951 0.0395657 0.432493 0.251564 0.307438 0.0478156 0 0 0.141771 -0.0105894 -0.0378347 0.147587 0.197894 0.0433973 -0.0178261 0.153375 0.019667 0.0265187 0.0650884 -0.267377 0.0303012 -0.044917 -0.0623481 -0.0109138 0 -0.0398187 -0.0458973 0.0245097 -0.0284456
internal_weight=3625.79 2661.91 1474.21 691.776 1187.69 782.437 44.0937 963.882 404.038 559.843 249.036 362.844 21.9635 14.2103 113.833 738.344 157.398 195.634 310.807 283.258 496.142 967.253 182.129 63.7755 283.135 10.4762 99.3685 22.2589 67.3571 580.946 183.405 83.9947 44.6136 27.3191 19.5014 15.1066 221.373 163.205 220.439 154.973 46.3757 340.881 158.974 58.3328 146.682 143.53 134.656 219.483 140.535 108.597 138.131 412.066 31.7488 30.8441 57.9364 61.7615 102.907 176.46 135.203 24.3706 332.338 43.0224 128.045 45.1261 36.5647 41.432 41.1939 48.6984 398.178 84.076 77.753 374.195 151.594 18.9245 86.7172 351.57 684.119 23.9833 12.9886 16.1 22.6249 83.0336 54.5255 82.935 46.4762 65.4663 129.827 601.184 23.0663
internal_count=186894 143325 139234 17377 4091 121857 5191 43569 9677 33892 25239 6220 3739 1562 6533 116666 15509 12144 8653 3815 5233 2321 9062 2819 1690 527 2491 988 3048 101157 28585 12181 8471 4272 2006 872 1148 6389 1770 1009 545 2481 5539 1493 5334 4764 956 996 4267 464 4110 3007 465 253 581 542 491 520 18706 312 974 476 4087 2284 1417 1910 3457 524 1683 2226 211 1436 413 2673 192 1004 631 247 643 210 432 276 224 159 3485 761 18604 472 413
is_linear=0
shrinkage=0.0357526


Tree=3
num_leaves=95
num_cat=0
split_feature=9 0 11 17 0 22 13 8 0 9 11 17 0 6 5 9 28 21 1 15 15 9 29 1 2 11 18 2 8 18 15 4 4 9 27 27 2 9 21 11 26 12 26 23 4 14 27 4 5 19 17 10 18 11 28 29 18 22 25 10 19 4 11 18 18 1 0 13 11 8 25 17 12 1 9 9 14 4 17 29 12 15 15 27 13 6 15 14 27 12 19 4 4 12
split_gain=8020.94 7313.06 4192.88 2520.35 2216.37 1777.91 1660.86 1510.44 1249.1 981.184 887.901 785.055 943.693 1600.13 1072.1 945.368 784.899 1122.77 1189.69 1151.83 862.549 759.096 744.464 697.679 671.026 898.668 644.896 603.367 623.349 597.809 570.953 552.152 538.529 497.962 460.553 481.09 445.613 414.496 402.533 527.766 488.967 774.88 591.076 432.068 347.817 342.637 320.786 301.39 640.761 290.46 259.814 256.526 248.561 237.605 235.182 210.305 205.325 205.154 424.566 161.676 217.289 156.253 148.843 300.09 285.664 134.658 120.83 115.632 108.273 159.119 249.614 172.763 103.731 87.6018 82.5494 151.868 82.5183 81.9763 66.8552 60.0627 287.135 57.399 72.2813 50.9271 49.6402 44.5406 42.4168 24.4711 15.0192 12.58 4.99542 4.10281 56.8807 2.65497
threshold=-1.0750000000000026 92.90000000000002 13.025000000000006 -8.6229166666666632 157.23500000000004 -105.95499999999991 32.015000000000008 15.595000000000001 0.67500000000000016 29.845000000000077 6.3000000000000407 -1.6380381944444433 48.545000000000009 33.465000000000011 72.056193093834764 -5.8250000000000002 1.5000000000000002 4959.7212500000005 25.905000000000005 18.050000000000004 24.850000000000005 -36.714999999999989 2.5000000000000004 20.535000000000004 917.36000000000013 11.525 0.90000000000000135 22.415000000000003 9.4650000000000034 -1.0999999999999999 32.550000000000004 20.750260416666674 27.320156250000007 14.030000000000017 5.5000000000000009 19.500000000000004 34.105000000000011 4.980000000000012 7886.1425000000008 12.240000000000004 601.6999999999997 19.739999999999995 -306.77000000000038 138.02180000000001 18.76661458333334 1.1749999999999992 19.500000000000004 27.802187500000006 152.03706656735707 -4.0291109636574856 -16.872916666666665 2.6349999999999989 2.3999999999999999 2.7349999999999981 1.0000000180025095e-35 1.5000000000000002 -1.4000000000000008 -308.0950000000002 8077.5400000000009 -7.1474999999999858 39.150000000000013 205.18239583333337 114.05 1.0000000000000007 -0.80000000000000238 953.11000000000013 87.065000000000012 353.17500000000001 12.104999999999984 13.674999999999999 10519.680000000002 -8.6229166666666632 -0.64000000000000024 39.835000000000008 3.1349999999997107 0.71500000000000352 -1.4400000000000006 50.054791666666667 -16.872916666666665 9.5000000000000018 1.0000000180025095e-35 28.650000000000002 32.45000000000001 15.500000000000002 957.74000000000012 101.71500000000002 7.0500000000000007 -58.444999999999993 18.500000000000004 7.9700000000000024 -4.6903602110590414 31.572812500000008 53.471458333333338 -3.7850000000000015
decision_type=8 8 10 2 8 2 2 10 10 10 8 2 10 10 10 10 2 2 10 2 2 10 2 10 10 10 2 10 10 2 2 10 10 8 2 2 10 10 2 10 2 10 2 2 10 8 2 10 10 2 2 10 2 10 2 2 2 2 2 10 2 10 10 2 2 10 10 2 10 10 2 2 8 10 10 10 10 10 2 2 10 2 2 2 2 10 2 10 2 10 2 10 10 10
left_child=8 2 3 5 38 31 22 26 -1 10 51 27 13 -13 30 -16 17 18 19 -5 23 87 37 -21 25 47 29 28 -10 -8 34 44 -31 59 -15 36 52 -4 39 90 41 42 -41 -44 -2 -25 79 -23 -49 72 -7 61 55 -30 -38 -36 -9 76 81 -12 68 -6 63 64 -58 84 -20 83 -61 71 -71 -70 -18 -43 75 91 -57 86 -29 89 -81 -59 -83 -35 85 -27 -11 -14 -79 -34 -3 -66 -93 -92
right_child=1 4 6 16 9 50 7 56 11 77 33 12 21 14 15 -17 49 -19 66 20 -22 24 -24 45 -26 65 -28 78 53 32 -32 -33 46 67 35 -37 54 -39 -40 40 -42 73 43 -45 -46 -47 -48 48 -50 -51 -52 -53 -54 -55 -56 57 62 58 -60 60 -62 -63 -64 -65 74 -67 -68 -69 69 70 -72 -73 -74 -75 -76 -77 -78 88 -80 80 -82 82 -84 -85 -86 -87 -88 -89 -90 -91 93 92 -94 -95
leaf_value=-0.024184603483461287 0 0 -0.011984892960326676 -0.011352667354554549 -0.026162622338256815 0.17007369235628636 -0.00031859601399496256 -0.0052127646696271636 -0.016059578992109254 0.01134743571135885 0 -0.018506256509055588 0.20426860291840385 0 0.62099093005601247 0 0.19508129193275636 -0.032657151929937858 -0.027554649362195059 0 0 0.13119007175490061 -0.032043265628734989 0.44945808457437258 0.30555342893283066 0 -0.0035121090845892551 0.016743052323619875 0 0 -0.0036647497689229129 0 0.3129632495250651 -0.0059297274362553661 0 0 0.14972712550305883 0.17085658421135355 -0.0032042939825814081 -0.034775975252268679 0.00098199510169456991 0 -0.3368167640192638 -0.0091248798154504335 0.38723832778813233 0 0 -0.031572071142465165 0.16047223018725265 -0.036973198635984139 -0.024869137523569559 0.15177436561674632 0 0.20397441189020996 -0.010285288978453476 0.12550480710909592 -0.013200130503159989 0.31675900816444064 0 -0.0026234871658510112 0 0.10406146192013599 0.18402333997733888 -0.015401671366453252 0.10867659014632573 0 0.0794961543525535 0.0061541830654778971 -0.13989441584926501 -0.26424332812342016 -0.040237836184438228 0 0 -0.1023586012806834 0.13404469171249794 -0.013976628642716862 0 0.02753740960041056 -0.048319946785861247 0.19215960585953334 -0.0014408374009491612 0 0.12214674375260268 -0.096562970668858231 0 -0.1699961496484961 -0.032526362587800638 0.13907432219189958 0.0078639594228463363 0.077378032556065721 0 -0.0080214341372597878 0.070637085506720459 -0.036261821666052511
leaf_weight=44.07336590369232 2.6367351026274255 3.1800284234341225 16.847738457145169 16.360766011290252 41.176890656352043 2.44807254243642 8.7952418262138945 10.246547975577412 22.573326280340552 37.066360756754875 11.938181000296025 26.825963970739394 175.37292568269186 8.0597005609888566 12.017419988987966 3.2635983973741522 1.3094441073480991 99.789128955686465 43.880474317586049 4.7611530928406856 7.8231756805907926 117.98986408370547 92.679795839823782 28.138522332767025 9.9099706229753775 4.9928353757131907 10.324661005521191 28.184408833272755 5.7886331707704803 7.2952249655500045 10.738902012351899 4.8164400295354417 148.53970532072708 24.36975755286403 2.7519995735492548 7.8990789747331283 15.136878895340489 43.560843921732157 35.57797796651721 17.779013425111771 14.136448785662649 25.801972426474094 59.084715686738491 8.3114845231175405 38.5949989289511 1.9705046073067958 4.1808855044655493 57.087940889410675 24.789631965570152 411.53967998013832 38.353308835299686 14.886774182319639 3.3596803089603773 54.395283329300582 14.93503258563578 18.247211348731074 14.777195307658983 153.28983268234879 4.7810176128987214 9.5178337218239886 12.2246751349885 7.2190838754177085 79.280129883438349 16.970136887859553 35.601109994575381 12.706915307790039 10.083683850243686 57.1095947958529 22.00323436036706 38.655814848840237 15.517537731677292 23.033253990113735 3.4888343589846036 24.448532354086637 289.05672193551436 15.116928347386418 5.0631634043529621 467.15704432874918 28.96327287890017 30.033368289703503 8.6321661872789246 5.53663316904567 5.5387219639960676 20.829130940139294 4.692468481604009 12.483317553531377 46.941985748708248 175.71233848272823 120.89419002458453 10.409584078006445 2.9409232796169809 11.325064799981194 11.496586864115669 46.369630232919008
leaf_count=12275 714 17 2913 3904 511 188 1382 541 5159 32 22 6338 100 1834 443 761 39 17050 3674 1301 1729 216 14026 556 62 66 1196 34 403 760 2126 778 2121 50 392 2098 190 393 65 59 11 46 710 25 304 497 672 876 36 73501 6247 18 848 267 1410 106 403 2339 684 213 30 13 294 436 176 14 12 64 156 401 57 39 701 135 784 274 559 330 2808 783 519 564 19 116 16 370 127 156 142 65 15 150 151 687
internal_value=0.0693424 0.0369761 0.0874471 0.0224894 -0.0289513 0.194236 0.140123 0.163003 0.151953 -0.00428129 -0.0576198 0.15991 0.172696 0.228974 0.2545 0.529304 -0.00287789 0.0512525 0.125257 0.225692 0.310257 0.14136 0.0288326 0.373408 0.0857067 0.06519 0.240915 0.0710878 0.128823 0.253649 0.221029 0.328749 0.265446 -0.0895472 0.231985 0.240824 0.250057 0.119724 -0.124917 -0.143847 -0.177389 -0.197282 -0.260858 -0.306041 0.364595 0.424426 0.276025 0.0950299 0.0321727 -0.0317645 0.00642471 0.0531705 0.270747 0.18339 0.0764176 0.275822 0.122229 0.280111 0.297511 -0.133873 -0.145536 0 0.125704 0.109698 0.116374 -0.0839028 0 -0.0234169 -0.160544 -0.171314 -0.218905 -0.083268 0.132282 -0.0626611 0.122707 0.0652654 0.0992783 0.0193334 -0.013145 0.282367 0.149215 0.306778 0.0761464 -0.0621458 -0.125215 -0.145032 -0.0103358 0.176424 0.0242015 0.303991 -0.031949 0.0898718 0.0291987 -0.0344742
internal_weight=3866.5 2789.34 1581.16 715.995 1208.17 86.8496 865.17 712.081 1077.16 970.541 298.482 1033.09 893.183 297.445 270.619 15.281 629.145 212.807 113.018 59.0541 42.6934 595.738 153.088 34.8702 244.653 234.743 228.211 139.905 82.7572 217.886 255.338 46.0482 209.091 235.199 244.599 236.539 228.64 60.4086 237.631 202.053 149.562 135.426 85.1752 67.3962 41.2317 30.109 201.796 199.867 81.8776 416.338 40.8014 63.2827 198.568 60.1839 30.0719 195.209 483.87 192.457 169.146 132.891 120.952 48.396 473.624 394.344 377.374 34.8755 53.9642 102.308 108.728 99.2098 54.1734 45.0365 4.79828 50.2505 362.596 73.5397 23.3104 672.06 57.1477 197.615 38.6655 164.365 11.0754 45.1989 22.1686 17.4762 84.0083 351.085 588.051 158.949 52.4906 58.4228 22.8217 49.3106
internal_count=186894 143325 139234 111195 4091 8231 28039 10707 43569 2321 1690 31294 22623 20711 14373 1204 102964 28723 11673 7987 4083 1912 17332 2354 1656 1594 7498 8671 5829 6302 13169 1796 4920 1148 11043 9209 7111 3306 1770 1705 986 975 794 735 1018 1053 4160 1128 912 74241 6435 542 5511 670 1600 4663 3209 4271 3606 918 896 524 2668 2374 1938 466 3686 230 866 653 458 195 740 181 1535 751 665 631 2842 3488 1302 2922 583 166 452 436 159 256 472 2186 719 477 301 702
is_linear=0
shrinkage=0.0357526


Tree=4
num_leaves=95
num_cat=0
split_feature=9 0 11 0 19 13 3 12 20 0 8 15 29 9 11 8 4 0 11 0 11 5 10 8 18 18 4 14 27 27 3 20 9 16 4 11 26 1 15 3 18 18 27 16 28 21 14 5 13 15 18 11 15 18 27 0 9 4 13 9 6 29 5 11 16 14 5 11 16 10 2 2 7 4 13 13 19 0 4 27 5 19 4 23 11 19 15 18 18 18 1 27 0 12
split_gain=6475.83 6420.07 3291.92 1913.94 1817.34 1215.04 1029.8 988.293 1231.53 888.057 818.595 721.931 653.72 640.661 723.71 633.387 581.661 655.808 813.658 1152.01 1054.17 557.595 632.839 514.397 437.883 401.282 388.463 384.072 373.514 392.217 373.145 368.085 443.169 408.976 357.563 334.908 471.668 444.324 332.883 328.556 325.781 821.772 715.647 293.83 283.891 249.459 285.296 241.357 242.673 235.945 237.141 362.888 267.267 226.766 210.283 210.076 238.559 163.549 158.407 155.018 144.643 423.154 326.294 132.493 128.438 122.371 114.886 107.814 92.803 92.739 87.4789 172.554 84.4761 83.1706 66.3797 65.7974 39.5032 33.137 32.5436 253.625 28.3426 27.907 25.5268 23.1172 17.0541 16.9976 15.4183 11.6941 14.5862 28.8813 1.56157 1.20247 1.15551 1.08843
threshold=-1.0750000000000026 92.90000000000002 13.025000000000006 229.16500000000002 -1.8969537905964853 32.015000000000008 6.7674999999991661 1.2500000000000009 4487.6350000000011 31.465000000000003 15.595000000000001 0.95000000000000007 2.5000000000000004 39.375000000000007 6.3000000000000407 59.275000000000013 12.69671875 48.545000000000009 14.065000000000003 68.285000000000011 144.01000000000022 72.056193093834764 -5.6450000000000138 21.455000000000002 0.90000000000000135 -1.0999999999999999 34.147552083333345 17.935000000000006 4.5000000000000009 19.500000000000004 43.513749999999156 5802.7250000000013 0.26999999999999985 19.250000000000004 27.320156250000007 12.515000000000002 601.6999999999997 39.835000000000008 32.550000000000004 852.88874999999928 1.2999999999999998 1.3999999999999992 10.500000000000002 14.550000000000002 3.5000000000000004 7886.1425000000008 -95.289999999999992 5.4023576048644086 11.385000000000003 38.95000000000001 1.9000000000000041 13.775000000000002 -0.44999999999999996 0.60000000000000109 19.500000000000004 92.90000000000002 -7.5449999999999982 9.4201562500000016 139.77000000000004 -62.464999999999989 338.75000000000006 10.500000000000002 25.142645789283886 34.89500000000001 8.0500000000000025 -22.634999999999994 7.5913123524241781 12.240000000000004 7.9500000000000011 11.643749999999942 34.105000000000011 87.02500000000002 53.750000000000007 16.30151041666667 39.995000000000012 120.30000000000003 3.5318059940529127 61.405000000000008 58.602447916666677 10.500000000000002 357.10940423954281 38.150000000000013 66.697031250000023 26.674550000000004 12.104999999999984 -7.6863082742197149 5.1500000000000012 0.50000000000000044 -0.6999999999999994 -0.80000000000000238 83.140000000000015 18.500000000000004 122.98500000000001 11.664999999999985
decision_type=8 8 10 8 2 2 10 10 2 10 10 2 2 10 8 10 10 10 10 10 10 10 10 10 2 2 10 10 2 2 10 2 10 2 10 10 2 10 2 10 2 2 2 2 2 2 10 10 2 2 2 10 2 2 2 10 10 10 2 10 10 2 10 10 2 10 10 10 2 10 10 10 10 10 2 2 2 8 10 2 10 2 10 2 10 2 2 2 2 2 10 2 10 8
left_child=6 2 4 15 11 12 23 40 9 43 24 64 30 14 53 35 -8 21 27 20 -20 26 -23 -1 25 -7 28 55 -18 38 -4 67 33 -33 -27 90 37 -37 47 59 -6 42 -42 -9 -13 46 69 74 -49 50 51 85 -53 -5 78 56 -19 83 76 -21 61 62 87 77 68 -58 -63 -16 -2 84 -50 -72 -11 -29 -30 -64 -34 -62 -36 -80 93 -61 -15 -43 -17 -48 -71 88 89 -12 -3 -84 -75 -60
right_child=1 3 5 13 7 10 16 8 -10 72 60 44 -14 82 31 45 17 18 19 39 -22 22 -24 -25 -26 34 -28 73 29 -31 -32 32 58 -35 54 36 -38 -39 -40 -41 41 57 -44 -45 -46 -47 49 48 70 -51 -52 52 -54 -55 -56 -57 65 -59 80 81 63 66 75 -65 -66 -67 -68 -69 -70 86 71 -73 -74 92 -76 -77 -78 -79 79 -81 -82 -83 91 -85 -86 -87 -88 -89 -90 -91 -92 -93 -94 -95
leaf_value=-0.028572422247359074 0 0 -0.01303066181081482 -0.0147263516559312 -0.036510301314520176 -0.00031271775621464321 -0.017874345855155425 0.29717788619697594 -0.030025672084905128 -0.018389818665977168 0 0.28873412109713636 -0.031815792725440641 0.0026478202072172038 0 -0.0095573765926123388 -0.0033374595753690697 0.12734978222952581 -0.0061564300392743191 0 0.43522418151880909 0.42069111484131166 0 0.1677326781930428 -0.0034479714782470763 0 -0.0056130166936559107 0.072615040702648806 -0.0043707532675333546 -0.0028112295373976452 0.15497362361258693 -0.25826309408475329 -0.0037465898090181635 -0.0088927345502125641 0.23803617161435559 0 0 -0.28745011875042886 0 0.0066561664677549327 0.34227734102538554 0 -0.0039958903426955562 0 0 0.0081220916638191851 0 0 0.218571086665519 0 0 -0.016941495048069952 -0.22120403632528055 0.11763615771796064 0 0.1716018045279073 0.071426774843804844 -0.032519488534029119 -0.031345700815088438 -0.21708691083683704 0.05472322469919124 0.072418915050620439 -0.023644149077815965 0.15491724861203232 -0.017250388552188592 -0.020462921096428659 -0.030093759449126112 -0.24271829728187597 0.16299962399463502 0.0074211712803492376 -0.0050452775926816702 0.13686045493674351 0.075026763102545385 -0.020359851494657202 0.083806597476605446 0.053715372532643885 -0.11547180380700414 -0.0015078761265930349 -0.0038896620174322773 0.1617817149344285 0.0050864513790367851 -0.025647953228190086 0.03072776891146094 0.096735804474234494 -0.11158955846908235 -0.038832529203812603 -0.017909705445386694 0.035374319716499632 0.13115105224215348 0.058156726256125474 -0.028583367566562594 0.013115885700360597 0 0
leaf_weight=73.440627415198833 4.2746556177735355 5.3874614220112589 17.752412327798083 18.190913707017899 397.51392037584446 8.7927023961674404 22.872159170219675 37.858008360490203 58.677227564388886 20.807577575556934 6.0897843493148711 39.030943118501455 90.109647134551778 91.033472046256065 4.2093651129398522 13.624448977410795 10.671949443873016 246.39211561158299 10.488701337715613 8.574759353417905 5.8836904002819201 20.790753646753732 4.5125013818033031 13.212591641116886 10.292163718724622 7.2952249655500045 11.810454664519055 10.990337543655185 11.194191952468829 10.528794479090719 47.334773474605754 14.880593586247413 13.191019132733347 18.755620933370665 197.52162630762905 7.8084210455417624 9.3262725025415403 46.853990841656923 8.3825949286110681 45.493867016397417 9.3015178870409745 2.0679588622879219 10.069235063390805 3.6990949416067442 3.7068749526515594 43.314111452549696 6.1592383079696438 5.3539210278540841 247.68962284713052 19.732131898170337 16.352996800094843 15.091428782790898 57.137469731271267 33.833667948842049 4.1808855044655493 282.09978428995237 30.094142943853512 96.97527244174853 29.123321865918115 9.5106488089077192 14.500261365436016 11.031614867737515 25.48172809719108 157.41951220622286 21.811331459786743 22.778691222658381 43.196760918712243 11.806377768516539 2.804043844807893 38.246474202722311 11.276595956878738 16.73320501553826 10.71499474020675 20.924988830694932 9.5990237256046367 14.602530790725721 17.726491561857983 8.3500147059094179 10.578702606027944 35.650758598232642 103.89143498660997 8.3394570383243245 375.55024204030633 7.9311134221497923 9.928428113460539 27.611488889204338 49.714468736201525 20.155113838613033 204.54903249978088 13.568808392854406 16.031473281560466 97.030486300587654 4.2229058444499961 22.264260454336181
leaf_count=18754 625 47 3041 228 80162 1382 3279 333 6301 802 286 587 14026 119 110 193 2392 278 246 23 29 372 999 108 1196 760 2058 8 2224 2834 265 206 31 49 2131 11 8 505 1824 51 357 673 1113 880 396 44 4 626 4823 37 40 41 482 155 672 321 86 15460 93 244 162 10 583 540 3422 393 698 158 57 38 891 88 14 375 158 57 133 204 952 405 130 64 233 13 78 421 109 174 438 57 246 97 21 45
internal_value=0.0631518 0.0341348 0.0796003 -0.0274683 0.0214573 0.123282 0.133474 0.00133791 0.0863408 0.177454 0.141162 0.182659 0.0274254 0.00219227 -0.0401103 -0.0930352 0.142811 0.146641 0.122119 0.0148002 0.230777 0.189098 0.358984 0.00971359 0.194033 0.202803 0.167649 0.136551 0.17477 0.181623 0.108332 -0.0673013 -0.048673 -0.15576 0.210832 -0.177919 -0.216219 -0.251598 0.188818 -0.0486988 -0.0204191 0.0269327 0.202361 0.272351 0.264864 -0.0634687 -0.0768142 0.194908 0.204083 -0.110117 -0.12756 -0.145807 -0.1886 0.0701907 0.217949 0.143575 0.112265 -0.0140234 -0.021957 -0.132619 0.11004 0.0888603 0.105871 0.142562 0.0208428 0.0290383 0 -0.207174 0.106213 -0.027069 0.208635 0.0824022 0.013996 0.0105879 0.0371539 0.00207235 -0.086838 0.0286366 0.222165 0.122951 -0.00337502 -0.176154 0.0246313 0.0815931 -0.0804255 -0.0277021 -0.00380671 0.120993 0.125784 0.0362076 -0.024502 0.0280719 -0.0178179 -0.0243206
internal_weight=4093.37 2909.51 1675.7 1233.81 727.244 948.454 1183.86 655.616 131.757 73.0797 793.257 71.6278 155.197 851.487 287.873 382.32 1097.21 1074.34 705.794 88.2911 16.3724 368.544 25.3033 86.6532 274.312 264.02 343.24 617.503 331.43 320.758 65.0872 235.848 219.833 33.6362 255.227 85.4076 63.9887 54.6624 310.229 71.9187 523.859 126.345 19.3708 41.5571 42.7378 296.913 253.599 301.847 281.053 142.085 122.353 106 72.2289 52.0246 247.932 581.365 299.265 106.974 186.197 26.4249 518.945 338.675 284.447 180.27 28.89 52.8728 54.2284 16.0157 7.0787 111.514 275.699 28.0098 31.5226 36.1382 20.7932 40.0843 30.9175 22.8503 243.751 46.2295 155.279 17.8501 563.614 9.99907 23.5529 33.7707 87.9609 244.363 224.208 19.6586 21.4189 472.581 25.1479 51.3876
internal_count=186894 143325 139234 4091 111195 28039 43569 106108 8330 2029 10707 5087 17332 1787 1338 2304 24707 21428 2139 657 275 19289 1371 18862 7498 6302 17918 1482 15860 13468 3306 955 687 255 4920 817 524 516 10634 382 97778 17616 1470 1213 983 1487 1443 8810 6428 1025 988 948 523 383 4160 1078 757 16146 432 331 3209 2303 1595 906 4104 479 708 268 682 418 5802 979 816 404 2382 640 164 366 3488 1357 268 308 449 686 271 425 147 955 781 343 293 330 396 138
is_linear=0
shrinkage=0.0357526


Tree=5
num_leaves=94
num_cat=0
split_feature=9 0 5 14 12 0 1 11 19 23 28 20 5 26 25 4 0 12 5 20 11 6 0 20 10 18 15 10 11 9 9 13 14 2 3 8 9 2 11 17 11 16 0 25 11 15 19 3 7 2 1 21 11 14 18 17 13 13 2 18 4 14 21 10 10 28 10 2 0 16 0 13 15 12 8 0 11 18 16 29 23 26 3 2 29 23 1 18 11 3 10 16 7
split_gain=7198.24 5623.4 2884.3 5555 2304.01 1289.2 1250.13 1056.13 1310.99 881.881 826.677 1440.15 993.255 738.409 635.679 629.182 618.429 1238.69 1425.9 1000.96 678.675 667.032 598.988 1312.93 843.746 659.949 615.76 577.462 1079.09 709.881 571.921 561.685 523.458 519.326 496.513 484.909 465.639 497.039 414.402 347.156 333.776 320.866 316.606 312.961 383.937 363.436 306.371 263.375 346.774 225.349 199.263 195.127 192.327 188.789 176.783 172.904 162.448 159.654 358.502 159.233 155.786 150.76 128.743 119.082 344.435 271.266 115.546 111.744 111.538 103.032 102.816 88.1337 77.28 81.8433 70.7528 89.3689 67.0255 130.152 58.4944 52.7777 76.4007 50.1296 36.303 35.3238 33.6511 22.1446 15.6703 13.0068 11.5424 7.9996 6.97426 1.46365 0.993252
threshold=-1.8899999999999999 92.90000000000002 132.3812257320491 -22.634999999999994 1.2500000000000009 122.98500000000001 6.9650000000000007 39.910000000000046 -1.8969537905964853 19.501900000000003 1.0000000180025095e-35 1.0000000180025095e-35 4.3409014533457499 62.070000000000171 4795.5150000000003 24.138072916666673 47.525000000000013 8.480000000000004 17.964552990150924 4487.6350000000011 6.46 258.24500000000006 48.545000000000009 3557.8550000000005 -16.946250000000038 0.4000000000000013 26.950000000000003 24.311249999999969 6.3000000000000407 9.9550000000000018 -13.994999999999997 32.275000000000013 -429.97999999999996 14.625000000000002 43.513749999999156 24.665000000000003 -4.649999999999987 31.505000000000006 13.775000000000002 -3.8769444444444443 28.650000000000002 13.550000000000002 11.215000000000002 11081.250000000002 12.104999999999984 -0.44999999999999996 24.050000000000004 80.427499999999526 23.164999999999999 29.555000000000003 230.88500000000002 10180.177500000002 0.37999999999999995 0.76999999999999991 -0.30000000000000243 6.3328125000000011 170.38500000000002 60.895000000000003 25.115000000000006 2.3000000000000003 9.4201562500000016 -1.1799999999999986 4171.8812500000013 -0.029999999999999135 -0.077500000000001221 1.5000000000000002 24.311249999999969 12.805000000000001 229.16500000000002 18.350000000000005 65.735000000000014 13.745000000000003 33.750000000000007 5.3600000000000021 21.455000000000002 49.655000000000008 51.099999999999987 1.0000000180025095e-35 21.150000000000002 3.5000000000000004 100.39705000000002 -40.070000000000157 196.19874999999959 18.095000000000002 8.5000000000000018 26.674550000000004 364.36500000000007 -0.70000000000000184 13.345000000000006 62.011249999999173 -7.1474999999999858 10.950000000000001 -292.60999999999996
decision_type=8 8 10 10 10 8 10 10 2 2 2 2 10 2 2 10 10 8 10 2 10 10 10 2 10 2 2 10 8 8 10 2 10 10 10 10 10 10 10 2 10 2 10 2 10 2 2 10 10 10 8 2 10 10 2 2 2 2 10 2 10 10 2 10 10 2 10 10 10 2 10 2 2 8 10 10 10 2 2 2 2 2 10 10 2 2 10 2 10 10 10 2 10
left_child=6 2 4 -4 7 43 35 8 9 -2 11 12 15 60 71 -10 17 19 -19 46 -18 40 23 26 62 42 30 28 33 32 -8 -16 72 -7 -22 -1 39 -38 88 -24 -20 -11 -26 44 -3 -46 -6 57 -49 52 -5 63 -44 -43 78 84 -53 58 83 -35 85 -54 -25 64 -12 69 -21 -63 79 -66 -33 -9 73 -30 75 -41 77 -56 -31 -29 82 -76 -81 -36 -45 -13 -79 -70 -34 -59 -39 -89 -77
right_child=1 5 3 50 16 27 22 14 10 41 51 13 -14 -15 31 -17 20 18 21 66 34 -23 36 24 25 -27 -28 68 29 54 -32 70 38 59 47 -37 37 90 -40 74 -42 53 49 55 45 -47 -48 48 -50 -51 -52 56 61 -55 76 -57 -58 89 -60 -61 -62 67 -64 -65 65 -67 -68 -69 87 -71 -72 -73 -74 -75 81 92 -78 86 -80 80 -82 -83 -84 -85 -86 -87 -88 91 -90 -91 -92 -93 -94
leaf_value=-0.029151960338257472 -0.021472789288016329 -0.02179314187567194 0.87563786456027815 -0.017129362950588273 0.26722783506968029 0.1575820591858178 0.10886021658084369 0.059394912318141119 0 0 -0.030307064772374742 0 0 0.24886873695850975 -0.016408504374629911 0.55912117403398054 -0.027532414294453605 0 0.88151113865059305 -0.022094164869172182 -0.022766189780522954 0 0.031824556292051165 0.052144996699622526 -0.0086460694231001479 -0.025111818326165526 0 0.0048581018218740498 -0.088813354268893974 -0.12727773735620768 0.41656211716297098 0.17413495478325342 -0.037850845341415786 -0.028865410494513025 0.025193090837625897 0.15744883710494573 0.10085669778289157 0 -0.22517387253802273 0.091661372130176305 0 0 0 -0.14211373802822241 -0.015795150233646481 -0.23703146037727549 0 0.11111225084917889 0.33906300303857434 0 0.15285109434231678 0 0 0.23614590197112223 0.0015263689838310843 0 0.19075787685626108 0.13275121254331607 -0.026941829334933283 0.097549729623603865 -0.032911481520060876 0 0.24696118542834128 -0.037125674086593154 0 -0.0038715212990627058 0.085763428763343336 0.18707185902231246 0.0022756556654460946 0.22351817375436575 0.036295451985395237 -0.027149204208364117 0.0013469059081114626 0 0.21226869648859772 0 0.013180235310429255 -0.10423301077636543 -0.0072465520389777219 -0.094455495769551201 0.0012418286563532822 0.13737840869250756 -0.0048197772321836837 0.11451024279797477 -0.023013421254408029 0.091266309278786248 -0.011533318713963429 0.010146015860827227 0 0.056414152079521995 -0.063621568582572896 0.026863345008898653 -0.0088443949404862048
leaf_weight=77.506826087133959 28.331624460406601 29.490022457903251 8.8192836465314013 23.291664198739458 42.306833353592083 36.185527436435223 21.03908041678369 13.110845400020478 2.6975115193054098 6.8250836720690122 77.735988061176613 2.1759011526592049 7.0285085220821193 7.201467133825644 21.452844374580309 6.6772441486828029 39.306973670842126 4.1919621150009325 1.4926100603770471 34.862844307906926 24.742310618748888 1.2707143423613159 50.699001827742904 14.57709904341027 14.292718105716629 43.34760860633105 5.6574261160567394 76.599372271448374 32.686222048942 16.029592140112072 50.047410851810127 123.75817902712151 13.620179655496031 53.09724934399128 23.595405632862821 14.146620559738947 53.954586387146264 3.5963156474754205 60.355351429432631 24.015234995400533 0.53478514146991063 3.4277674150653175 6.2496914905495933 12.950659987982364 16.630751550197601 51.611538682132959 4.7260228861123315 48.911795615917072 15.036379888653753 8.3588786353357118 3.3769244211725882 7.542816784931345 4.3787893180269739 55.750052340095863 58.178571212803945 51.197294143261388 1.4869830608367918 213.42379272985272 33.91972614498809 7.9200728535652152 95.469730638666078 3.015164371347054 84.220398659585044 422.38332409900613 2.2264785508159557 10.57175262342207 9.2355716652236861 88.507931476924568 74.596860971301794 8.7180048676673323 19.144044053042307 43.167023316258565 25.445318554993719 14.358735199784858 60.121711977291852 5.7394046306144437 103.62702437490225 15.1327968291007 16.075794213684276 17.683528311550617 28.015157826244831 496.19504021643661 19.705099657177925 61.114140666788444 17.535910232458264 8.5521372174844146 15.47957999166101 92.058866236358881 9.4756537452340126 35.495364918839186 28.490085993427783 362.78955494239926 8.1208698544651252
leaf_count=17994 3753 460 250 4725 930 57 63 190 775 1036 16645 716 1323 111 2529 10 839 1062 154 7896 335 206 114 143 3217 5537 635 87 159 120 572 788 237 654 224 113 120 38 513 26 96 372 1170 122 42 466 1066 221 60 1100 79 2266 529 416 76 81 1 245 622 15 13775 422 917 76434 380 2501 20 1721 97 166 120 2664 52 19 129 5 98 108 37 101 30 633 40 147 53 33 42 101 10 222 516 263 324
internal_value=0.0631175 0.0329221 0.077836 0.367947 0.0692126 -0.0212406 0.138041 0.0344558 0.0134062 0.132525 -0.00452121 0.0730497 0.322456 0.0151774 0.102015 0.467321 0.124499 0.209992 0.528653 0.139457 0.10373 0.736165 0.148795 0.192143 0.144552 0.0858022 0.324206 -0.00670451 -0.0366225 -0.0640634 0.350081 0.136068 -0.12114 0.0643522 0.116024 0.00684095 0.126086 0.0378969 -0.179742 0.136736 0.833055 0.198142 0.125959 -0.108287 -0.151337 -0.194788 0.241223 0.124997 0.201362 0.145516 0.0256479 -0.0249141 0.159351 0.222121 -0.0201793 -0.0441336 0.0908824 0.106783 0.0599125 0 -0.014351 0.17112 0.227401 -0.0288944 0.00325782 0.110625 0.00406587 0.180286 0.0142826 0.192901 0.160768 0 -0.038336 -0.06275 0.144597 0.0581832 -0.00396419 -0.0267648 -0.0888608 -0.0119118 -0.0343545 0.148983 -0.0636565 0.0975173 -0.101281 0.076582 -0.0780069 0.0219882 -0.0229096 0.125257 -0.0588539 0.0244208 0
internal_weight=4099.9 2933.62 1605.09 35.4879 1569.6 1328.53 1166.28 975.435 754.802 94.3345 660.468 129.803 16.4033 113.399 220.633 9.37476 594.167 98.6213 7.49007 91.1313 495.546 3.29811 1074.62 343.692 266.948 168.151 76.7439 1149.12 477.668 380.465 71.0865 164.355 155.941 97.2028 456.239 91.6534 730.932 86.041 83.4512 644.891 2.0274 66.0029 124.803 179.416 97.7323 68.2423 47.0329 431.497 63.9482 110.51 26.6686 530.665 102.152 59.1778 224.523 81.6839 9.0298 367.548 118.629 61.0173 106.198 95.9019 98.7975 521.636 99.2522 21.5162 44.0984 91.5231 671.448 10.9445 142.902 56.2779 72.4903 47.045 594.192 37.8755 192.418 88.7909 32.1054 142.003 65.4038 556.317 37.3886 84.7095 30.4866 10.728 30.6124 529.445 23.0958 248.919 32.0864 454.848 13.8603
internal_count=186581 150543 146403 5054 141349 4140 36038 127004 120713 5577 115136 16743 2108 14635 6291 785 14345 11430 1518 9912 2915 456 17931 16026 14756 13696 1270 2916 2197 1471 635 3437 990 726 2076 18107 1905 674 760 1231 250 1824 8159 1224 968 508 1996 1741 281 4942 4804 98393 3842 788 481 256 2267 1460 993 669 14524 2672 1060 96126 19692 3047 7916 2143 719 546 908 2854 230 178 1117 355 324 226 157 258 171 762 141 371 175 749 150 461 247 467 554 364 329
is_linear=0
shrinkage=0.0357526


Tree=6
num_leaves=96
num_cat=0
split_feature=9 0 9 5 0 16 27 0 13 15 11 4 0 16 13 14 8 27 10 8 28 18 4 0 20 2 13 11 9 2 17 9 19 11 9 2 3 11 18 27 10 29 29 2 4 17 25 11 15 17 21 11 20 26 9 17 17 8 17 19 28 16 0 17 13 18 11 15 26 28 14 18 27 5 4 10 7 7 6 18 18 18 16 0 22 13 18 2 16 6 9 2 26 29 28
split_gain=5920.42 5103.12 2197.54 1951.17 1131.21 1082.84 996.548 1374.88 1498.07 1458.49 972.17 941.33 941.28 863.605 696.368 598.091 729.116 526.656 662.285 493.951 479.684 471.797 441.182 461.435 588.552 406.569 485.243 387.931 1066.4 403.866 387.413 949.194 452.05 385.727 364.71 459.363 355.287 315.642 292.147 284.437 288.089 329.503 279.023 277.447 265.758 250.987 244.978 300.31 208.255 205.126 197.3 196.374 186.877 186.174 184.758 176.715 293.937 172.386 164.06 159.294 153.258 176 152.385 145.171 143.082 142.313 142.056 138.011 133.674 130.801 126.199 123.342 120.8 104.196 101.529 82.7847 110.017 149.388 66.8182 73.9702 82.9347 65.8297 65.4607 64.6862 63.3759 59.4662 56.3318 49.5745 49.3396 41.6054 44.1698 35.79 29.3181 26.2051 25.5727
threshold=-1.8899999999999999 92.90000000000002 2.8299999999999996 97.778901140282713 122.98500000000001 12.15 7.5000000000000009 29.475000000000005 21.445000000000004 25.150000000000002 51.099999999999987 205.18239583333337 8.1750000000000025 10.450000000000001 100.295 1.1749999999999992 1.6199999999999999 19.500000000000004 55.146249999999974 24.665000000000003 1.5000000000000002 0.39999999999999908 12.69671875 48.545000000000009 3557.8550000000005 30.905000000000005 47.415000000000006 6.3000000000000407 9.9550000000000018 14.625000000000002 6.861059027777781 -11.814999999999996 26.250000000000004 0.12999999999999726 -4.649999999999987 31.505000000000006 313.34500000000008 2.7349999999999981 0.75000000000000011 17.500000000000004 2.1599999999999726 4.5000000000000009 8.5000000000000018 12.805000000000001 30.642708333333335 -3.8769444444444443 6391.8850000000011 12.104999999999984 -0.44999999999999996 -7.7168055555555553 4065.6337500000004 51.099999999999987 4400.4750000000013 -255.51000000000019 0.26999999999999985 5.6308333333333325 4.6498958333333338 46.980000000000011 13.640086805555557 39.150000000000013 4.5000000000000009 18.350000000000005 31.155000000000005 6.9825173611111131 11.385000000000003 2.3000000000000003 12.240000000000004 4.3500000000000005 -379.13999999999936 1.5000000000000002 38.315000000000005 2.2000000000000011 19.500000000000004 97.778901140282713 50.054791666666667 -15.578750000000019 18.775000000000006 -37.289999999999992 96.825000000000017 -0.60000000000000009 0.50000000000000044 1.0000000180025095e-35 7.1500000000000012 72.955000000000013 -1220.5099999999995 46.57500000000001 -0.19999999999999998 93.15000000000002 5.8500000000000005 47.085000000000008 -7.2849999999999984 25.625000000000004 -382.92000000000002 11.500000000000002 1.0000000180025095e-35
decision_type=8 8 10 10 8 2 2 10 2 2 10 8 10 2 2 10 10 2 10 10 2 2 10 10 2 10 2 8 8 10 2 8 2 10 10 10 10 10 2 2 10 2 2 10 10 2 2 10 2 2 2 10 2 2 10 2 2 10 2 2 2 2 10 2 2 2 10 2 2 2 10 2 2 10 10 10 10 10 10 2 2 2 2 10 2 2 2 10 2 10 10 10 2 2 2
left_child=12 2 6 25 46 -5 -2 8 58 13 -7 14 19 73 68 20 -17 27 66 -1 54 42 -14 24 30 39 -27 29 36 -6 37 -32 -33 -26 45 -36 -29 -24 52 40 41 -4 55 -35 -28 -25 47 -3 -49 -46 -45 81 -18 -42 -15 56 -16 -13 -8 -41 61 -38 -55 82 -52 -31 -19 -66 92 -54 71 72 89 -10 87 83 77 -77 79 -64 -81 94 -48 -47 -22 -53 91 -51 -76 90 -69 -71 -9 -60 -30
right_child=1 4 3 5 17 10 7 11 9 -11 -12 57 22 15 21 16 38 18 -20 -21 84 -23 23 34 33 26 44 28 51 65 31 32 -34 43 35 -37 60 -39 -40 59 53 -43 -44 50 49 75 63 48 -50 74 64 85 69 62 -56 -57 -58 -59 93 -61 -62 -63 78 -65 67 -67 -68 70 -70 86 -72 -73 -74 -75 88 76 -78 -79 -80 80 -82 -83 -84 -85 -86 -87 -88 -89 -90 -91 -92 -93 -94 -95 -96
leaf_value=-0.028844507126075961 -0.034210851039253753 -0.021217620599197108 0.32933916889916864 0 0.14422109554197848 0 -0.02999467930118031 0 -0.019207463829642148 -0.025368488013474303 0.55246147446125438 0 -0.015098146244318546 0.38254805636649386 0 -0.017366436612549531 0 -8.383864839946897e-05 0 0.16040365952129143 0.09750743139175691 -0.022865549991873305 0 0.031284133405517681 -0.011552973321316707 -0.029726850361144058 -0.019472926045161324 -0.16672252147031943 0.010294880920829842 -0.027349496232493734 0.13055005256081512 0.73548399234131667 0 -0.0036669756301118549 0.09490836455866733 -0.05877280902591004 -0.12754659800601859 0.19701089748468928 0 -0.020900571176489281 -0.0028009436350379816 0 -0.0040365345526845653 0 -0.011878450399411461 0.10356408546684447 -0.0018264392182802383 -0.019036577358770953 -0.21156440391558576 0.12556465193280969 0 -0.0068481209617535389 0 0 0.076474342028751432 0.073188013387941481 0.32956663131645414 0.35760718889623233 0 0.087221787456733882 0 0 0 0 0 0.092293622169304992 -0.206612309132787 0.078930559319566371 -0.038192606414581012 0 0 0 0 0.084079589068872834 0.058195892788564026 0.1024379534027863 0.10563726304705848 -0.025828323563368224 0.14811280349419581 0.099673218278313921 0 -0.060016266612005688 -0.11141652435907676 0.15811052731060257 0 0.022930805182300638 0.25684768751245352 0.027715827163608802 -0.012184647006167185 0.18270969316142438 0 0.11713087978324555 0.06661723518504549 0.10361151255337492 -0.023592978119073158
leaf_weight=76.480882622301579 192.13117392128333 28.368695969693363 15.775460119592028 6.4411324567627188 39.102685905992985 4.099766833009201 94.833921990357339 4.8060134588740775 27.991401705425233 48.816454044310376 18.072586745256558 1.6464933692477632 19.987723452504724 44.289818744407967 3.2907844095025203 24.813709158217534 4.3004533308558157 8.3497716076672059 60.526417423039675 13.927783960476516 7.8601326190400851 27.918627254897729 8.3213567044585925 49.885780662065372 16.130815129494295 46.851904128212482 19.701013871934265 46.486328032566234 43.766396207036451 45.682210445404053 17.552177441306412 3.3092531454749432 1.0617349632084367 10.561848222743718 56.012778678908944 31.048725776141509 32.09388744039461 65.7340254180599 7.5484000938013187 24.266219235258177 8.7720082092564535 3.5889802908059201 9.3774366013240051 6.9773120547179124 13.300044238800181 165.7572095983196 16.369958814233541 14.549099776893852 51.313995029777288 158.08989279251546 4.8464911251794538 77.486412148922682 2.7834727452136567 7.2424450798425815 10.646852911449967 29.322711367858574 9.8206521701067668 3.0314262069296092 2.1195695269852859 24.843797634122893 58.071652886457741 22.881588000338525 6.7625596362631759 47.336206668289378 4.5073719304054967 8.5223899856209737 32.857271872460842 10.233406150015073 274.59332789271139 2.1758454584050915 3.9605816190596661 3.7597084667067966 3.5954609082546076 9.5084442109800857 13.032815913669767 8.8906301949173194 129.30508190067485 23.705276001244783 230.35882799327374 68.079786783549935 6.3657665757928035 43.184117070166394 32.545977518893778 307.57302565942518 7.4523649152833968 598.15028167143464 51.217740292428061 21.802812504582107 13.63154680887237 207.66071175597608 6.6733351591974488 33.06629695603624 11.768415347207338 7.2142299227416515 43.004901747917756
leaf_count=20044 47051 450 124 481 46 187 29256 241 7406 13612 196 287 2184 841 202 7104 1150 124 92 38 48 828 592 114 1932 2318 350 440 36 573 48 76 199 1293 112 550 243 168 1890 2117 497 246 218 779 316 182 32 40 422 437 609 136 611 1608 188 235 63 26 711 7 103 41 447 76 533 15 286 165 18830 624 327 631 855 238 31 29 224 413 750 688 215 168 204 250 2071 500 693 104 469 2636 1055 367 4 20 113
internal_value=0.0585878 0.0311121 0.0728885 0.120375 -0.0202882 0.3822 0.0364515 0.054859 0.101498 0.143307 0.472076 0.00486628 0.12361 0.179564 -0.00456856 0.208672 0.140871 -0.00644381 -0.0810001 0.00780618 0.298875 0.0830456 0.132188 0.135125 0.171897 0.104567 0.0664875 0.0009782 -0.00565509 0.0677687 0.25542 0.400747 0.669793 0.135614 0.115254 0.036339 -0.0879447 0.173124 0.181101 0.129411 0.141121 0.281008 0.140925 0.145926 0.0869778 0.12427 -0.099262 -0.140989 -0.18019 0.0982996 0.153362 0.0109545 0.197247 0.125292 0.345867 0.174915 0.272151 0.306897 -0.0111344 0.0327109 -0.0438691 -0.0824705 0.129795 -0.0475063 0.158629 0 -0.178267 0.162449 -0.031249 0.207554 0.166133 0.169493 0.172778 0.0101303 0.107093 0.130579 0.0907936 0.0145895 0.133558 0.078924 0.0887951 -0.0271637 -0.0859318 0.141752 0.0549904 0.0189982 0.214743 0.117146 0.0183935 0.176003 0.0480753 0.109434 0.0453388 0.0866638 -0.00364672
internal_weight=4273.54 3016.08 1665.43 711.079 1350.65 28.6135 954.346 762.215 386.639 282.471 22.1724 375.576 1257.46 233.655 370.898 196.155 125.906 1160.17 101.733 90.4087 70.2492 79.7302 1167.05 1147.06 374.886 682.466 286.41 1058.43 965.126 93.3073 95.9785 21.9232 4.37099 278.907 772.179 87.0615 159.533 74.0554 101.092 396.056 346.946 19.3644 51.8116 262.776 239.558 685.117 190.484 94.2318 65.8631 219.857 252.214 805.592 93.5438 327.581 54.9367 42.4341 13.1114 4.67792 104.168 49.11 113.047 54.9755 318.809 96.2521 245.237 54.2046 41.207 240.391 291.168 89.2434 235.883 231.923 228.163 37.4998 206.557 635.231 161.901 32.5959 311.567 81.2081 74.4456 129.955 48.9159 473.33 15.3125 675.637 86.4599 179.893 26.6644 224.567 16.9067 35.2421 16.5744 9.3338 86.7713
internal_count=186581 150543 146403 11588 4140 864 134815 87764 66830 36843 383 20934 36038 23231 20621 15587 12439 2916 502 20082 3148 1546 15956 13772 11898 10724 4025 2414 1780 634 1083 323 275 10815 1874 662 827 760 5335 6699 4575 370 718 8883 1707 1212 1224 912 462 1357 7590 953 3445 4205 1029 500 265 313 29987 2124 387 284 3708 312 6811 588 410 6202 19075 2295 5669 5342 4711 7644 1041 1098 666 442 2100 1350 903 317 236 432 2119 636 1684 541 500 3856 1220 991 245 731 149
is_linear=0
shrinkage=0.0357526


end of trees

feature_importances:
spread_max_96=57
temp_delta_1h=48
lmp_lag1=46
spread_lag1=37
lmp_mean_96=36
temp_2m=30
hour_of_day=28
lmp_lag96=27
wind_speed_10m=27
lmp_ramp_4h=25
dam_lmp_current_hour=25
temp_anomaly=25
spread_mean_4=23
dam_rtm_gap=21
lmp_std_96=19
spread_ramp_1h=18
wind_chill=16
lmp_lag4=14
month=14
lmp_mean_4=12
prc_mean_1h=12
day_of_week=12
lmp_max_96=11
lmp_ramp_1h=11
system_lambda_lag1=9
wind_gen_lag1=9
wind_forecast_error=9
prc_lag1=8
prc_ramp_1h=7

parameters:
[boosting: gbdt]
[objective: binary]
[metric: binary_logloss,auc]
[tree_learner: serial]
[device_type: cpu]
[data_sample_strategy: bagging]
[data: ]
[valid: ]
[num_iterations: 2000]
[learning_rate: 0.0357526]
[num_leaves: 96]
[num_threads: 0]
[seed: 0]
[deterministic: 0]
[force_col_wise: 0]
[force_row_wise: 0]
[histogram_pool_size: -1]
[max_depth: -1]
[min_data_in_leaf: 66]
[min_sum_hessian_in_leaf: 0.001]
[bagging_fraction: 0.532743]
[pos_bagging_fraction: 1]
[neg_bagging_fraction: 1]
[bagging_freq: 5]
[bagging_seed: 3]
[bagging_by_query: 0]
[feature_fraction: 0.970061]
[feature_fraction_bynode: 1]
[feature_fraction_seed: 2]
[extra_trees: 0]
[extra_seed: 6]
[early_stopping_round: 0]
[early_stopping_min_delta: 0]
[first_metric_only: 0]
[max_delta_step: 0]
[lambda_l1: 9.11499]
[lambda_l2: 8.10984]
[linear_lambda: 0]
[min_gain_to_split: 0.498862]
[drop_rate: 0.1]
[max_drop: 50]
[skip_drop: 0.5]
[xgboost_dart_mode: 0]
[uniform_drop: 0]
[drop_seed: 4]
[top_rate: 0.2]
[other_rate: 0.1]
[min_data_per_group: 100]
[max_cat_threshold: 32]
[cat_l2: 10]
[cat_smooth: 10]
[max_cat_to_onehot: 4]
[top_k: 20]
[monotone_constraints: ]
[monotone_constraints_method: basic]
[monotone_penalty: 0]
[feature_contri: ]
[forcedsplits_filename: ]
[refit_decay_rate: 0.9]
[cegb_tradeoff: 1]
[cegb_penalty_split: 0]
[cegb_penalty_feature_lazy: ]
[cegb_penalty_feature_coupled: ]
[path_smooth: 0]
[interaction_constraints: ]
[verbosity: -1]
[saved_feature_importance_type: 0]
[use_quantized_grad: 0]
[num_grad_quant_bins: 4]
[quant_train_renew_leaf: 0]
[stochastic_rounding: 1]
[linear_tree: 0]
[max_bin: 255]
[max_bin_by_feature: ]
[min_data_in_bin: 3]
[bin_construct_sample_cnt: 200000]
[data_random_seed: 1]
[is_enable_sparse: 1]
[enable_bundle: 1]
[use_missing: 1]
[zero_as_missing: 0]
[feature_pre_filter: 1]
[pre_partition: 0]
[two_round: 0]
[header: 0]
[label_column: ]
[weight_column: ]
[group_column: ]
[ignore_column: ]
[categorical_feature: ]
[forcedbins_filename: ]
[precise_float_parser: 0]
[parser_config_file: ]
[objective_seed: 5]
[num_class: 1]
[is_unbalance: 0]
[scale_pos_weight: 61.8434]
[sigmoid: 1]
[boost_from_average: 1]
[reg_sqrt: 0]
[alpha: 0.9]
[fair_c: 1]
[poisson_max_delta_step: 0.7]
[tweedie_variance_power: 1.5]
[lambdarank_truncation_level: 30]
[lambdarank_norm: 1]
[label_gain: ]
[lambdarank_position_bias_regularization: 0]
[eval_at: ]
[multi_error_top_k: 1]
[auc_mu_weights: ]
[num_machines: 1]
[local_listen_port: 12400]
[time_out: 120]
[machine_list_filename: ]
[machines: ]
[gpu_platform_id: -1]
[gpu_device_id: -1]
[gpu_use_dp: 0]
[num_gpu: 1]

end of parameters

pandas_categorical:[]
