tree
version=v4
num_class=1
num_tree_per_iteration=1
label_index=0
max_feature_idx=30
objective=binary sigmoid:1
feature_names=lmp_lag1 lmp_lag4 lmp_lag96 lmp_mean_4 lmp_mean_96 lmp_std_96 lmp_max_96 lmp_ramp_1h lmp_ramp_4h spread_lag1 spread_mean_4 spread_max_96 spread_ramp_1h dam_lmp_current_hour dam_rtm_gap temp_2m wind_speed_10m temp_anomaly temp_delta_1h wind_chill prc_lag1 prc_mean_1h prc_ramp_1h system_lambda_lag1 rtordpa_lag1 wind_gen_lag1 wind_forecast_error hour_of_day day_of_week month is_weekend
feature_infos=[-31.899999999999999:9300.3500000000004] [-251:9310.4899999999998] [-32.5:9300.3500000000004] [-34.995000000000651:9252.1249999999982] [-20.650833333333335:9025.4766666666674] [0.042426406871190689:4487.0278425177448] [-4.96:9310.4899999999998] [-8948.5799999999999:6955.1899999999996] [-9001.7600000000002:8998.2100000000009] [-1645.45:509.58999999999997] [-1145.9125000000001:367.54500000000007] [-26.690000000000001:509.58999999999997] [-1267.45:1080.3400000000001] [-13.41:9000.0100000000002] [-7719.3800000000001:8479.4200000000001] [-15.9:44] [0:63.899999999999999] [-23.935868055555552:23.390347222222225] [-13.800000000000001:8.1000000000000014] [-23.492817113170894:44] [0:16581.779999999999] [0:16437.190000000002] [-5270.3600000000006:5249.3999999999987] [-31.863700000000001:9001] [0:7177.0160999999998] [0:31981.5] [-8336.4900000000016:15709.1] [0:23] [0:6] [1:12] [0:1]
tree_sizes=6634

Tree=0
num_leaves=63
num_cat=0
split_feature=0 0 8 8 10 11 6 11 29 12 10 11 25 19 8 12 4 3 12 15 17 17 23 25 8 23 6 4 4 12 13 7 3 28 11 10 2 12 11 13 0 0 10 13 28 14 20 10 16 2 17 3 3 22 17 17 6 6 17 2 13 19
split_gain=2.51344e+07 1.63306e+06 810469 575479 560112 294546 275605 252619 249033 242151 192759 612706 186659 181332 267356 171082 168650 157266 155782 144710 138814 129262 125795 138793 115076 112613 188263 184403 111846 110013 165065 104830 103246 99761.5 98746.2 215533 130043 97981.6 112116 184751 93588.4 156293 111244 90985 82594.5 124412 111889 80212.7 79016.3 73112.5 71942.3 70688.2 79220 69084.9 64708.7 58185.2 57890 55458.1 173904 70600.3 53049.7 51276.3
threshold=47.525000000000013 92.90000000000002 5.110000000000003 10.980000000000004 -1.9700000000000262 59.950000000000166 33.465000000000011 21.190000000000005 4.5000000000000009 34.68 -2.9025000000000265 12.104999999999984 7860.1600000000008 -1.8969537905964853 1.6199999999999999 2.485000000000007 27.320156250000007 44.414999999999722 2.670000000000003 1.3500000000000003 -9.5629861111111101 -0.82607638888888768 41.283800000000006 8077.5400000000009 -6.9699999999999962 20.747050000000005 507.16000000000003 47.313750000000006 32.127343750000001 -0.23999999999998775 69.175000000000026 29.995000000000005 41.014999999999546 1.5000000000000002 12.835000000000006 -0.44500000000002909 32.165000000000006 2.0700000000000012 59.950000000000166 170.38500000000002 20.925000000000004 19.385000000000002 7.3862499999999498 45.165000000000006 1.0000000180025095e-35 -0.9399999999999985 4080.0800000000004 -0.34500000000000036 10.350000000000003 24.795000000000005 -1.2613888888888887 19.905000000000008 7.3474999999999655 -262.95499999999987 3.8048437500000003 12.412100694444446 344.81000000000006 70.265000000000015 8.1385416666666686 15.595000000000001 170.38500000000002 -2.3618016884988671
decision_type=10 10 10 10 10 10 10 10 2 10 10 10 2 2 10 10 10 8 10 2 2 2 2 2 10 2 10 10 10 10 2 10 10 2 10 10 10 10 10 2 10 10 10 2 2 8 2 10 2 10 2 8 10 2 2 2 10 10 2 10 2 2
left_child=2 3 5 8 6 9 -4 15 48 13 -5 18 -10 14 -1 44 -9 21 -12 32 -17 -7 23 28 -23 -15 33 47 53 -18 -31 -22 -16 40 35 -3 43 38 39 55 41 -27 -42 -37 45 46 -6 -28 -2 -20 -43 52 -26 -8 -52 -13 -14 58 -55 -59 61 -46
right_child=1 34 4 10 7 17 22 16 12 -11 11 37 56 25 19 20 29 -19 49 -21 31 24 -24 -25 51 26 27 -29 -30 30 -32 -33 -34 -35 -36 36 -38 -39 -40 -41 42 50 -44 -45 60 -47 -48 -49 -50 -51 54 -53 -54 57 -56 -57 -58 59 -60 -61 -62 -63
leaf_value=-5.7165252943786999 -5.7165252943786999 8.1686212619537564 -4.5765033955559282 7.3792510327517373 4.8478049154604737 -5.7165252943786999 -5.7165252943786999 -5.7165252943786999 -5.7165252943786999 5.9387120789325376 -5.7165252943786999 -5.7165252943786999 -5.7165252943786999 -5.6881799704840201 -5.7165252943786999 6.9940236048904119 5.8606655054118892 5.8824420777314863 6.5418999341778523 7.3060261115558216 -4.3813697024383425 -5.7165252943786999 7.2155672008832745 -5.7165252943786999 -5.7165252943786999 -5.7165252943786999 7.8719692516814046 -5.7165252943786999 -5.7165252943786999 -5.7165252943786999 6.3918595203673245 7.695483190756379 6.9100445854724519 -5.7165252943786999 8.5866515604629328 -5.7165252943786999 -5.7165252943786999 7.0807575456086553 6.7433577985822204 7.5809516101080341 -5.7165252943786999 -5.7165252943786999 4.9822185070223046 6.6604708460904849 -0.98707878147474837 -5.7165252943786999 -5.7165252943786999 -5.7165252943786999 6.4224491833455808 -5.7165252943786999 7.2952308379573587 -5.7165252943786999 6.3657622508050782 -5.7165252943786999 -5.7165252943786999 5.9629952739788195 6.6228484227571585 -5.7165252943786999 6.6682834571695278 6.5717567185864443 4.1766252713749523 -5.7165252943786999
leaf_weight=19.179883411386982 1.5602341997437168 45.786529116332531 12.674251491902394 47.443063115468249 8.2062510154210013 14.310165655799208 1.7629959129262704 7.4746902741026124 26.939814739627764 4.9587747685145578 18.162638206267733 7.7255649361759442 1.1925138046499331 509.74630967853591 5.5329891224391785 5.683831739472228 13.728560712188484 7.4742468644399187 4.7147733848541966 8.8762478574644756 10.82190295960754 5.1240290568675873 16.759380885865539 5.0003100454341611 1.5808540349826188 7.0279271772597012 7.443243209971115 5.6360882986336938 3.2751171637792131 6.8595318561419827 4.7731962513644248 2.1546249792445442 2.2886539082974195 84.314506291877478 706.12271347944625 1.8145455010235298 4.6428995679598293 48.549660939956084 12.75599181675352 5.4329570773988953 24.183630096027631 1.6358402622863639 2.7010506130754939 8.1718107217457128 6.1101967059075823 11.303106350125747 3.6084711668081573 1.2715565063990633 9.5223360282834602 1.6392769014928488 7.7731605737935734 1.9279545948375023 9.5670123379677516 4.763181940186767 1.0894146284554151 1.2371162127237765 4.6838436319958419 1.2371901143342281 6.9999906539451331 21.164930643746629 1.460497761145233 92.366551952669397
leaf_count=5581 454 652 3400 1422 660 4164 513 2175 7839 291 5285 2248 347 148039 1610 214 827 447 220 279 2861 1491 557 1455 460 2045 150 1640 953 1996 237 51 90 24534 4172 528 1351 1744 544 141 7037 476 210 362 1202 3289 1050 370 467 477 246 561 480 1386 317 72 211 360 309 975 137 26877
internal_value=1.62737 7.38872 -3.99472 3.25938 -1.52487 -4.83026 2.13217 -3.06765 -1.76682 -5.0708 4.75364 3.51067 -3.95533 -5.15007 -1.68926 -3.98325 0.883974 -0.657411 -3.35912 2.93662 0.477964 -2.16096 3.5269 2.12838 0.634703 -5.34026 -4.10073 1.33129 3.12899 2.82933 -0.748155 -2.37613 -2.02192 -4.70631 8.42066 6.48054 1.19719 5.73553 3.33014 0.305684 -2.78842 0.0543575 -4.64164 4.41154 -4.65976 -1.96645 1.62123 5.8893 4.71349 3.37936 3.91754 3.12356 4.6524 3.93532 5.69579 -4.1044 4.11877 4.43337 1.65339 5.89312 -5.28279 -5.42308
internal_weight=1939.93 958.098 981.832 191.56 248.189 733.644 73.6373 174.551 43.8987 693.659 147.661 100.218 32.8162 688.701 35.8778 141.715 32.836 39.9843 24.5167 16.6979 18.6604 32.51 60.9631 44.2037 18.1999 652.823 143.076 14.3509 39.2034 25.3613 11.6327 12.9765 7.82164 128.726 766.538 60.4158 14.6293 75.7013 27.1516 14.3956 44.411 17.5263 26.8847 9.98636 123.055 23.1178 11.8147 8.7148 11.0826 6.35405 10.4984 13.0758 11.1479 35.9283 8.86258 8.96268 5.87636 34.1653 11.7632 22.4021 99.9372 98.4767
internal_count=280538 28536 252002 21471 51484 200518 9908 41576 9318 192915 12153 10731 8397 192624 7560 36341 5235 7603 5982 1979 3126 7156 6508 5951 2992 185064 37025 2160 4496 3060 2233 2912 1700 34865 7065 2893 2241 4749 3005 2461 10331 3084 7247 890 33215 4999 1710 520 921 697 1039 1501 940 3543 563 2320 558 3030 1695 1335 28216 28079
is_linear=0
shrinkage=1


end of trees

feature_importances:
temp_anomaly=6
spread_mean_4=5
spread_max_96=5
spread_ramp_1h=5
lmp_lag1=4
lmp_mean_4=4
lmp_max_96=4
lmp_ramp_4h=4
dam_lmp_current_hour=4
lmp_lag96=3
lmp_mean_96=3
wind_chill=2
system_lambda_lag1=2
wind_gen_lag1=2
day_of_week=2
lmp_ramp_1h=1
dam_rtm_gap=1
temp_2m=1
wind_speed_10m=1
prc_lag1=1
prc_ramp_1h=1
month=1

parameters:
[boosting: gbdt]
[objective: binary]
[metric: binary_logloss,auc]
[tree_learner: serial]
[device_type: cpu]
[data_sample_strategy: bagging]
[data: ]
[valid: ]
[num_iterations: 2000]
[learning_rate: 0.05]
[num_leaves: 63]
[num_threads: 0]
[seed: 0]
[deterministic: 0]
[force_col_wise: 0]
[force_row_wise: 0]
[histogram_pool_size: -1]
[max_depth: -1]
[min_data_in_leaf: 50]
[min_sum_hessian_in_leaf: 0.001]
[bagging_fraction: 0.8]
[pos_bagging_fraction: 1]
[neg_bagging_fraction: 1]
[bagging_freq: 5]
[bagging_seed: 3]
[bagging_by_query: 0]
[feature_fraction: 0.8]
[feature_fraction_bynode: 1]
[feature_fraction_seed: 2]
[extra_trees: 0]
[extra_seed: 6]
[early_stopping_round: 0]
[early_stopping_min_delta: 0]
[first_metric_only: 0]
[max_delta_step: 0]
[lambda_l1: 0]
[lambda_l2: 0]
[linear_lambda: 0]
[min_gain_to_split: 0]
[drop_rate: 0.1]
[max_drop: 50]
[skip_drop: 0.5]
[xgboost_dart_mode: 0]
[uniform_drop: 0]
[drop_seed: 4]
[top_rate: 0.2]
[other_rate: 0.1]
[min_data_per_group: 100]
[max_cat_threshold: 32]
[cat_l2: 10]
[cat_smooth: 10]
[max_cat_to_onehot: 4]
[top_k: 20]
[monotone_constraints: ]
[monotone_constraints_method: basic]
[monotone_penalty: 0]
[feature_contri: ]
[forcedsplits_filename: ]
[refit_decay_rate: 0.9]
[cegb_tradeoff: 1]
[cegb_penalty_split: 0]
[cegb_penalty_feature_lazy: ]
[cegb_penalty_feature_coupled: ]
[path_smooth: 0]
[interaction_constraints: ]
[verbosity: -1]
[saved_feature_importance_type: 0]
[use_quantized_grad: 0]
[num_grad_quant_bins: 4]
[quant_train_renew_leaf: 0]
[stochastic_rounding: 1]
[linear_tree: 0]
[max_bin: 255]
[max_bin_by_feature: ]
[min_data_in_bin: 3]
[bin_construct_sample_cnt: 200000]
[data_random_seed: 1]
[is_enable_sparse: 1]
[enable_bundle: 1]
[use_missing: 1]
[zero_as_missing: 0]
[feature_pre_filter: 1]
[pre_partition: 0]
[two_round: 0]
[header: 0]
[label_column: ]
[weight_column: ]
[group_column: ]
[ignore_column: ]
[categorical_feature: ]
[forcedbins_filename: ]
[precise_float_parser: 0]
[parser_config_file: ]
[objective_seed: 5]
[num_class: 1]
[is_unbalance: 0]
[scale_pos_weight: 288.978]
[sigmoid: 1]
[boost_from_average: 1]
[reg_sqrt: 0]
[alpha: 0.9]
[fair_c: 1]
[poisson_max_delta_step: 0.7]
[tweedie_variance_power: 1.5]
[lambdarank_truncation_level: 30]
[lambdarank_norm: 1]
[label_gain: ]
[lambdarank_position_bias_regularization: 0]
[eval_at: ]
[multi_error_top_k: 1]
[auc_mu_weights: ]
[num_machines: 1]
[local_listen_port: 12400]
[time_out: 120]
[machine_list_filename: ]
[machines: ]
[gpu_platform_id: -1]
[gpu_device_id: -1]
[gpu_use_dp: 0]
[num_gpu: 1]

end of parameters

pandas_categorical:[]
