tree
version=v4
num_class=1
num_tree_per_iteration=1
label_index=0
max_feature_idx=30
objective=binary sigmoid:1
feature_names=lmp_lag1 lmp_lag4 lmp_lag96 lmp_mean_4 lmp_mean_96 lmp_std_96 lmp_max_96 lmp_ramp_1h lmp_ramp_4h spread_lag1 spread_mean_4 spread_max_96 spread_ramp_1h dam_lmp_current_hour dam_rtm_gap temp_2m wind_speed_10m temp_anomaly temp_delta_1h wind_chill prc_lag1 prc_mean_1h prc_ramp_1h system_lambda_lag1 rtordpa_lag1 wind_gen_lag1 wind_forecast_error hour_of_day day_of_week month is_weekend
feature_infos=[-40.240000000000002:9902.1399999999994] [-181.31999999999999:9902.1399999999994] [-53.969999999999999:9902.1399999999994] [-33.470000000000091:9714.4975000000013] [-20.940833333333334:9121.2156249999989] [0.042426406871190689:4516.9496482765117] [0:9902.1399999999994] [-8968.3600000000006:6955.1199999999999] [-9063.4499999999989:9060.5699999999997] [-707.07000000000005:2086.46] [-706.98249999999985:1593.8325] [-1.0199999999999996:2476.9500000000003] [-2363.8600000000001:1791.8199999999999] [-3.8100000000000001:9052.5300000000007] [-7718.1199999999999:8488.4300000000003] [-15.199999999999999:41.5] [0:57.100000000000001] [-25.823333333333331:19.075451388888887] [-12:6.3999999999999986] [-22.271290117265281:41.5] [0:16581.779999999999] [0:16437.190000000002] [-5270.3600000000006:5249.3999999999987] [-31.863700000000001:9001] [0:7177.0160999999998] [0:31981.5] [-8336.4900000000016:15709.1] [0:23] [0:6] [1:12] [0:1]
tree_sizes=7429 7506 7525 7562 7555 7552 7568 7551 7598 7594 7587 7581 7590 7593 7615 7590 7601 7646 7592 7615 7614 7616 7590 7590 7608 7613 7619 7612 7623 7660 7665 7636 7570 7633 7643 7583 7657 7598 7641 7542 7601 7675 7636 7650 7584 7667 7654 7634 7618 7621 7659 7630 7618 7671 7675 7670

Tree=0
num_leaves=70
num_cat=0
split_feature=0 3 10 10 11 11 13 16 2 10 12 15 19 8 2 4 2 6 11 29 15 15 4 23 11 16 11 17 8 11 23 10 4 16 8 2 10 8 17 16 4 4 13 11 29 11 6 4 13 16 11 12 23 13 3 23 0 11 11 15 29 23 16 11 13 15 13 8 11
split_gain=6.88787e+06 201313 97066.5 102975 69622.2 62886.5 38788.3 26144.7 22130.4 21715.7 29332.2 16718.3 20578.2 14205.5 14061.6 13153.9 12647.7 11719.1 11624.8 11599.8 10572.4 10472.2 10359.4 9984.89 9461.31 8960.47 7746.58 6656.12 6562.7 10473.9 9176.39 6525.54 6297.01 5828.23 5800.63 5542.05 4983.48 4695.25 4438.85 5698.56 6168.62 10951.6 4789.65 5545.11 5570.54 4058.15 3974.8 7285.72 10437 4749.2 3501.67 3448.38 5035.69 3806.39 3064.54 2986.68 2970.6 2829.35 13780.5 12532.8 7565.21 2695.28 2655.83 2257.97 2237.52 2353.27 2191.64 2085.56 1989
threshold=88.925000000000026 37.562500000001371 5.0675000000000114 -6.237499999999975 12.995000000000006 494.05000000000001 33.105000000000011 23.950000000000003 20.125000000000004 -1.5550000000000008 1.0399999999999998 33.750000000000007 5.4635748852601358 -2.8499999999999983 25.065000000000001 70.199062500000011 33.82500000000001 372.85000000000008 0.10000000000000499 9.5000000000000018 32.550000000000004 23.450000000000003 25.837291666666669 18.160350000000005 11.175000000000002 20.950000000000003 10.835000000000001 7.5476562499999966 1.1800000000000008 95.225000000000037 19.637650000000004 0.050000000000026808 23.868802083333339 11.850000000000003 -29.444999999999997 51.285000000000004 -0.31749999999997208 3.1400000000000028 -4.2179861111111112 7.8500000000000005 19.504739583333336 19.775364583333339 27.215000000000003 0.75000000000000056 6.5000000000000009 1.1399999999999986 112.89000000000001 29.541927083333338 37.57500000000001 13.15 0.2850000000000002 -0.31000000000000177 24.805300000000003 44.195000000000007 26.502500000000008 11.700950000000002 46.335000000000008 12.509999999999996 14.000000000000005 25.350000000000005 8.5000000000000018 30.877650000000006 14.950000000000001 207.88000000000002 35.445000000000007 22.850000000000005 64.875000000000014 2.6200000000000032 184.04500000000002
decision_type=10 10 10 10 10 10 2 2 10 10 10 2 2 10 10 10 10 8 10 2 2 2 10 2 10 2 10 2 10 10 2 10 10 2 10 10 8 10 2 2 10 8 2 10 2 8 10 10 2 2 10 10 2 2 10 2 10 10 10 2 2 2 2 10 2 2 2 10 10
left_child=1 5 3 21 18 6 28 13 -7 14 46 12 16 63 22 -10 23 36 -2 20 25 -3 -8 33 -15 31 -19 64 57 38 -31 -12 -26 -5 -28 -33 66 -32 39 -30 -41 -42 -40 44 54 50 51 48 49 -48 -43 52 -11 -54 55 -44 -29 -1 59 -59 -61 -55 -57 -4 65 -14 -13 -52 -49
right_child=4 2 7 11 -6 8 9 -9 15 10 19 17 27 24 -16 -17 -18 26 -20 -21 -22 -23 -24 -25 32 -27 34 56 29 30 37 35 -34 -35 -36 -37 -38 -39 42 40 41 45 43 -45 -46 -47 47 68 -50 -51 67 -53 53 61 -56 62 -58 58 -60 60 -62 -63 -64 -65 -66 -67 -68 -69 -70
leaf_value=-5.3587891167270474 -5.3407992267478797 -4.7711582097191823 -5.3471043578098874 -5.3407992267478797 1.4094839214566379 -5.3493478400358763 -5.0558279389450771 -5.3464963716728171 -2.0019987122178819 -5.3619317545611569 -5.3407992267478797 -3.8863976441339956 -5.3605322585675328 -5.3407992267478797 -4.9812118866239334 -5.3407992267478797 -5.3520776180818199 -5.3407992267478797 -1.4596424924331486 -5.3498876559111794 -5.3446557000838029 -1.5833735086267668 -2.1916566476779638 -5.3432082718990657 -4.9827286807831195 -5.3407992267478797 -5.3407992267478797 -5.3449715362382504 -5.3669998140867321 -5.3515112110294396 -3.0785514450949685 -2.3293122294959558 -1.4854108708253571 -2.5890765528501225 -2.4372394525113976 -5.3407992267478797 -5.3597805661830673 -5.3407992267478797 -5.3437262293426002 -5.2558345767870636 -3.1355185135380945 -5.3487047603680358 -5.3407992267478797 -5.2416957528626131 -5.3532678307610286 -5.3618230333200074 -3.1883057479284993 -5.3669552591923626 -5.3542019247109662 -5.3407992267478797 -5.3407992267478797 -5.3719972453487896 -5.3465339570415065 -3.644172442194904 -5.3407992267478797 -3.3573718375919785 -4.0477742312961933 -5.355670173010286 -5.325628156847265 -5.3407992267478797 -2.8711207726949555 -5.3407992267478797 -5.3407992267478797 -4.2319588919980085 -5.3724081477409182 -4.662375478777121 -5.3407992267478797 -3.8763641168120189 -4.6849047638792847
leaf_weight=410.68207211326808 0.93504865374416368 3.2757828980684272 3.1706218309700516 0.9920059321448188 250.4399228123948 3.8113912129774681 2.9953732509165985 3.0139893153682342 7.7243657335638982 11.306019762530925 1.0204845713451529 1.7861401699483397 9.8536091633141059 0.82588053680956619 7.3244961043819785 1.5663251560181377 4.7559327464550725 1.4808892384171475 28.499711816199124 3.9822630481794468 2.5773168476298443 12.336855794303117 4.9031319776549935 2.2687982562929392 1.6331450091674948 1.6849861526861776 0.88283781521022309 2.6485134456306687 20.523605983704329 4.5423429524525982 2.579904712736607 8.2793295029550755 24.662000538781285 5.4106313483789563 4.9075087225064635 0.75943037867546159 9.1796147022396344 1.2625530045479534 143.80837447196245 15.222202347591518 2.7555229878053087 3.6167871784418804 1.2388208052143435 29.988746467977762 5.2400696128606796 11.182612325996162 3.9567419691011292 20.395452107302848 5.6577563211321831 1.3907068809494374 1.3052709633484481 55.044463134370744 3.0234821951016775 2.2326752124354248 1.6992254722863434 3.5339391259476542 4.226179956458509 6.393454500474034 87.629512209445238 1.8083935892209408 2.9077787585556507 1.2910316437482832 0.8685984956100582 1.6623630383983252 62.700470639392734 8.4359024232253415 1.4713963586837051 3.2484133439138532 2.3264949247241011
leaf_count=86332 197 562 668 209 3616 803 567 635 474 2382 215 120 2076 174 1415 330 1002 312 2352 839 543 805 200 478 280 355 186 558 4324 957 95 655 1992 371 265 160 1934 266 30170 3143 132 762 261 6190 1104 2356 321 4297 1192 293 275 11597 637 150 358 296 570 1347 18334 381 100 272 183 158 13210 1521 310 364 362
internal_value=-3.64145 -4.89844 -3.82492 -4.30365 1.15874 -5.10593 -5.14678 -2.27632 -3.04299 -4.62627 -4.81698 -4.70956 -4.92668 -2.01884 -3.52662 -2.39007 -3.84737 -3.87169 -1.5681 -3.67876 -3.31639 -1.98036 -2.78748 -3.28817 -1.71794 -2.98613 -3.03614 -5.15464 -5.24609 -5.10336 -4.1276 -2.70624 -1.61929 -2.84673 -2.69367 -2.50241 -4.83262 -3.4336 -5.15764 -4.90303 -4.6702 -4.34925 -5.24515 -4.94122 -4.43733 -4.89603 -5.07013 -4.78107 -4.19392 -3.50277 -4.46688 -5.22855 -4.8636 -4.33122 -4.0159 -3.7841 -4.36176 -5.3184 -5.15609 -4.20191 -3.37201 -3.92894 -3.55821 -4.62787 -5.26891 -4.97313 -4.17535 -4.09675 -5.20572
internal_weight=1366.75 1086.87 171.581 136.613 279.875 915.292 902.19 34.968 13.1021 140.152 124.929 121 101.292 31.954 15.223 9.29069 13.4274 19.7084 29.4348 18.3038 14.3215 15.6126 7.89851 8.67144 27.121 11.7442 7.27124 87.8647 762.038 252.617 8.3848 10.0592 26.2951 6.40264 5.79035 9.03876 12.4372 3.84246 244.232 57.8544 37.3308 22.1086 186.378 42.5694 12.5807 19.3531 106.625 33.7272 11.0052 5.34745 8.17047 72.8977 17.8532 6.54719 7.34058 5.64136 6.87469 509.421 98.7391 11.1096 4.71617 3.52371 4.40254 4.83298 80.99 18.2895 3.25754 4.55368 22.7219
internal_count=220350 214185 28396 24489 6165 185789 184182 3907 1607 26452 24270 23122 19995 3272 2182 804 2060 3127 2549 2767 1928 1367 767 1058 2446 1385 763 17935 157730 51236 1318 1030 2272 580 451 815 2364 361 49918 11356 7032 3889 38562 8392 2202 3757 21503 6465 1806 614 1401 15038 3441 1059 1098 740 1128 106494 20162 1828 481 422 479 826 16807 3597 430 639 4659
is_linear=0
shrinkage=1


Tree=1
num_leaves=70
num_cat=0
split_feature=0 27 9 28 2 21 15 2 6 6 23 9 15 1 6 16 16 13 8 6 8 0 12 1 18 15 9 27 8 29 27 13 27 9 1 27 6 6 15 15 21 16 2 20 18 9 16 2 28 29 0 28 18 2 6 8 15 13 29 18 22 15 1 8 18 21 2 15 27
split_gain=19723 6761.99 3695.56 4299.72 3329.85 2777.38 2447.16 2622.83 2435.42 2378.78 3146.81 2292.9 2056.86 3527.73 3016.21 2793.01 2311.88 1662.56 2158.56 1639.03 1630.42 1561.79 1539.63 2152.76 1535.55 1442.69 1383.33 1366.9 1347.91 1417.94 1341.62 2985.96 1325.73 1183.56 1173.87 1083.05 1070.57 999.707 1037 1927.37 974.445 962.779 957.5 900.481 834.889 833.193 1052.85 924.968 904.635 1148.35 946.603 791.193 745.689 740.012 706.465 697.237 675.883 668.932 668.762 665.095 621.793 620.346 581.14 580.119 557.102 548.382 517.837 580.755 517.646
threshold=88.925000000000026 4.5000000000000009 -0.060000000000001379 4.5000000000000009 19.385000000000002 5648.0600000000004 8.1500000000000004 21.625000000000004 97.450000000000003 42.95000000000001 19.269950000000005 -8.8850000000000033 23.550000000000004 20.985000000000003 158.33000000000001 6.3500000000000005 6.2500000000000009 117.21000000000002 -35.804999999999986 34.835000000000008 24.845000000000006 39.085000000000008 -0.13000000000000209 22.905000000000005 0.75000000000000011 27.150000000000002 26.314999999999969 6.5000000000000009 4.1400000000000023 10.500000000000002 14.500000000000002 62.985000000000007 9.5000000000000018 0.0099999999999998441 28.765000000000004 10.500000000000002 83.945000000000007 114.69500000000001 23.650000000000002 15.950000000000001 6412.1562500000009 21.250000000000004 24.655000000000005 8076.5200000000013 -0.79999999999999927 -5.410000000000001 7.8500000000000005 22.335000000000004 1.0000000180025095e-35 3.5000000000000004 45.375000000000007 1.5000000000000002 0.75000000000000011 30.175000000000004 455.29500000000002 1.1800000000000008 32.850000000000001 152.95500000000001 7.5000000000000009 -1.0000000180025095e-35 1.0000000180025095e-35 26.750000000000004 52.895000000000003 4.2600000000000042 -0.49999999999999728 5964.4575000000013 24.655000000000005 26.050000000000004 11.500000000000002
decision_type=8 2 10 2 10 2 2 10 10 10 2 8 2 10 10 2 2 2 10 10 10 10 10 10 2 2 10 2 10 2 2 2 2 10 10 2 10 10 2 2 2 2 10 2 2 10 2 10 2 2 8 2 2 10 10 10 2 2 2 2 2 2 10 8 2 2 8 2 2
left_child=1 -1 5 4 28 9 7 32 -7 10 -3 54 27 14 19 16 21 36 -19 -14 -5 24 23 -12 -15 40 43 -8 -4 62 31 37 -6 65 -24 -10 -17 -11 39 -39 63 45 -32 57 60 -37 -47 -48 50 -50 -49 59 -51 -26 61 -41 68 66 -22 -9 -29 -2 -30 -21 -59 -31 67 -13 -38
right_child=11 2 3 20 6 8 12 51 35 30 22 26 13 15 -16 17 -18 18 -20 25 58 -23 34 -25 53 -27 -28 44 29 33 42 -33 -34 -35 -36 41 56 38 -40 55 -42 -43 -44 -45 -46 46 47 48 49 52 -52 -53 -54 -55 -56 -57 -58 64 -60 -61 -62 -63 -64 -65 -66 -67 -68 -69 -70
leaf_value=-0.034403408575912564 0.033217976733720525 -0.021763393133955283 -0.033513538783460264 -0.019635855570983171 0.5963068282846804 0.0056323628371566827 0.1930765010483774 0.065784996850941385 -0.028002525366214812 0.12221927093661777 0.81013417386301523 -0.028099132754071877 -0.014926894224366575 0.091369795218674651 0.042076441018508583 -0.014701038616970157 0.91112500611017866 0.79945735248444627 0.18249219344618794 0.7270537430147479 -0.031330450993495976 0.093494939919256573 -0.019992497714378634 -0.0094159667228972555 -0.011734445036868499 0.23561547146617376 0.038548741044864811 0.17808899382486462 -0.031444094783562117 -0.00024614228266811643 0.2100079869750707 0.93889932573320278 0.23126739495678625 -0.015101891878502175 0.45779030979855884 0.16848492660242573 -0.029674480545840203 -0.014778115859457982 0.24929039411577292 0 -0.0023420910828901545 -0.028084753222231557 0.011779689184516018 0.15594830851146133 -0.035340307193350316 0.05998732585100236 -0.016324461130531865 0.77247052564738983 0.7097397160110972 -0.02261054293832743 -0.00190681734603802 0.10393577658994788 0.28383541539841911 0.42159639668288412 0.061678166574717731 0.72683557585843572 -0.032919305497923927 -0.095579253858472421 0.17546213191163573 0.32808765633497011 -0.029148973352115266 0.13900577092263441 0.14137695246116427 0 0.022795630153937013 0.60867196105821764 -0.049144656921520397 0.084368959346765929 0.14213583208615158
leaf_weight=238.62261133082211 88.251525892876089 11.89492888515815 136.44617999019101 270.99782374594361 38.534542285371572 101.89875060971826 73.504269991535693 18.189229105133563 20.757869355846196 51.807412163354456 30.415248541161418 139.25560907740146 6.3689440470188847 30.748651427216828 24.718592260964215 102.30153768789023 2.906399500090628 3.8794892546720794 86.941111978609115 37.14059686427936 21.337670897133648 63.291391642298549 10.05037713609636 4.0403611538931719 4.4823688557371488 20.797945640049875 6321.1205939054489 47.556155332364142 40.559148621279746 1.7883862280286873 104.47565219458193 5.0197415370494118 29.452538359444588 5.9723245110362759 9.5377371441572887 125.06326649896801 20.681504463311285 5.7704479871317771 97.366699679289013 1.5522929695434893 2.2527246032841495 15.688101437874137 41.628153741359711 40.927271544933319 120.01610819483176 19.268895459827036 6.5960949496366075 9.722565505653618 4.8657698328606775 10.053862912580369 1.9762338958680619 74.45776693103835 58.881374783348292 74.37311691371724 767.39312345348299 16.478693095501512 32.005149482749403 45.728167312219739 89.623950940091163 57.512327454052866 23.749697057530284 343.75600083358586 45.477773700840771 1.2348421178758133 971.962058480829 9.8019295176491124 441.16313855769113 84.786500601097941 267.3834634590894
leaf_count=45910 120 2333 27145 38771 591 10994 2524 718 2532 2078 1140 523 1248 1378 1594 11392 101 143 995 1082 826 1369 1972 677 550 842 1425 1323 5734 307 2445 152 487 815 315 544 1773 672 855 320 463 714 2438 11 15890 824 787 182 163 746 114 2472 470 431 283 475 2250 233 575 689 3155 189 275 198 1141 153 2065 176 6073
internal_value=0.0624864 0.141394 0.15727 0.130588 0.156879 0.221897 0.179285 0.285788 0.15128 0.287187 0.478851 0.0377573 0.155936 0.184239 0.38281 0.155264 0.273795 0.112588 0.244658 0.496194 0.0262714 0.240747 0.583562 0.722075 0.318446 0.547644 0.0310533 0.0705588 0.037504 0.129216 0.242207 0.307317 0.462335 0.379927 0.250738 0.204504 0.0818492 0.266173 0.320885 0.52814 0.667928 0.224043 0.15591 0.00350401 0.0199381 0.241239 0.313042 0.360267 0.389409 0.308971 0.672521 0.194737 0.239585 0.396877 0.0823982 0.673951 0.112688 -0.000556315 0.135466 0.272813 0.110512 0.118083 0.0616034 0.705003 0.0170329 0.536223 -0.0274963 0.0149791 0.129329
internal_weight=12134.3 2889.92 2651.3 1886.49 1504.53 764.811 1264.48 218.146 374.773 390.038 65.9387 9244.34 1046.33 781.508 92.5136 688.994 175.802 513.192 90.8206 67.7951 381.959 172.896 54.0437 34.4556 109.604 61.4261 8044.94 264.826 240.046 103.6 324.099 177.995 67.9871 17.5626 19.5881 272.874 422.372 172.976 121.168 23.8014 40.6282 252.116 146.104 1723.82 191.322 236.428 111.365 92.0959 85.4998 73.801 11.6988 150.159 68.9352 78.8555 1199.4 18.031 320.07 1682.9 110.962 75.7016 71.3059 432.008 86.0369 38.3754 1017.69 11.5903 665.205 224.042 288.065
internal_count=220350 214184 168274 134332 94160 33942 59731 4957 18070 15872 6437 6166 54774 31882 5427 26455 3829 22626 1138 3833 40172 3728 4104 1817 2359 2585 5574 22892 34429 7284 9435 4552 1078 1275 2287 7076 21488 4400 2322 1467 1743 4544 4883 4149 20368 3830 3286 2462 1675 1379 296 3879 1216 981 592 795 10096 4138 1401 1407 4478 309 6009 1280 1374 460 2764 699 7846
is_linear=0
shrinkage=0.0346294


Tree=2
num_leaves=70
num_cat=0
split_feature=0 13 8 17 20 6 9 1 6 28 13 7 17 9 17 8 18 15 15 15 13 5 8 17 10 10 13 17 0 1 1 10 18 21 21 17 20 18 28 5 15 15 21 6 17 13 10 15 5 17 9 28 10 18 1 17 5 28 18 29 10 15 17 17 1 17 6 13 20
split_gain=14371.1 4109.31 3417.59 3150.23 2454.24 3151.42 2080.3 1818.75 1852.57 1743.2 1510.82 1476.58 1471.02 1352.71 1308.21 1241.12 1614.82 1250.33 1155.19 2101.44 1023.97 1005.19 1453.65 940.238 939.774 934.857 946.674 920.261 883.852 830.73 821.847 1438.72 814.12 1005.51 1768.15 797.496 776.107 759.679 716.914 677.475 944.425 642.144 1712.87 1219.53 1195.51 621.973 589.693 573.405 558.73 555.929 800.887 555.366 542.067 511.127 497.136 487.48 691.009 485.559 637.336 484.079 443.794 443.456 441.678 439.887 531.858 429.102 424.282 412.57 352.434
threshold=88.925000000000026 19.525000000000002 4.8800000000000026 -6.3634201388888902 5092.8400000000011 112.89000000000001 -8.8850000000000033 21.755000000000006 27.335000000000004 1.5000000000000002 43.625000000000007 -0.60999999999999843 2.5905381944444472 26.314999999999969 13.944097222222224 -21.995000000000001 -0.19999999999999948 29.150000000000002 28.850000000000005 28.650000000000002 23.205000000000002 11.214086631635316 4.1400000000000023 4.3858680555555551 4.1037500000000291 6.4375000000000151 29.905000000000005 8.3377604166666703 21.615000000000006 35.805000000000007 24.465000000000003 1.0000000180025095e-35 0.70000000000000207 3188.4087500000005 3074.9137500000002 -7.231805555555554 8076.5200000000013 1.3999999999999992 1.5000000000000002 214.5177303267503 29.050000000000004 23.350000000000005 4455.6900000000014 146.22500000000002 -4.919184027777777 152.95500000000001 -0.6549999999999534 28.250000000000004 4.0824759610023342 7.1015625000000018 1.0000000180025095e-35 4.5000000000000009 -16.152500000000003 -0.49999999999999728 42.775000000000013 -10.03190972222222 25.524807250665635 3.5000000000000004 1.6999999999999977 11.500000000000002 26.232500000000005 26.850000000000005 -8.4797916666666637 4.2493055555555577 26.885000000000002 -12.33876736111111 1184.325 80.185000000000016 3994.1350000000007
decision_type=8 2 10 2 2 10 8 8 10 2 2 10 2 10 2 10 2 2 2 2 2 10 10 2 10 10 2 2 10 10 10 10 2 2 2 2 2 2 2 10 2 2 2 10 2 2 10 2 10 2 10 2 10 2 10 2 10 2 2 2 10 2 2 2 10 2 10 2 2
left_child=1 2 -1 35 7 14 39 8 -3 15 18 60 59 36 21 16 -7 -18 19 23 -21 22 -6 29 28 26 -24 32 -17 -9 31 46 61 34 -34 -4 45 41 -35 40 -2 42 -10 48 62 49 -14 -26 -43 65 -51 54 -46 -47 -28 -30 -57 58 -25 -13 -11 -12 -44 64 -58 -8 -39 -16 -31
right_child=6 4 3 -5 5 9 13 10 37 11 27 12 30 -15 67 24 17 -19 -20 20 -22 -23 25 57 47 -27 51 -29 55 68 -32 -33 33 38 -36 -37 -38 66 -40 -41 -42 43 44 -45 52 53 -48 -49 -50 50 -52 -53 -54 -55 -56 56 63 -59 -60 -61 -62 -63 -64 -65 -66 -67 -68 -69 -70
leaf_value=-0.034234250705560833 0.055550469811858481 0.019625477105060744 -0.0057948576100887153 0.046800311446519957 -0.0078472485258556067 -0.020221304747460391 0.021058091005513192 -0.011210824716504378 -0.028087253236823654 -0.019589836514595699 0.21583621788027099 -0.011068876414155826 -0.0064690452975979069 0.038120545304539045 0 -0.026196765702483096 0.23764970568008006 0.75624501097804664 -0.0082609864917428631 0.80837629278098044 -0.0026179128530927531 -0.026723481378112278 -0.027898689787518 0.15935345646303267 -0.034343755036079081 -0.034804493764051016 0.22687099484485934 -0.028714915030526356 0.33983668756129237 0.022360639565573732 0.15052276980816287 -0.021531769224915759 -0.014372601805962523 0.26894907696741904 0.68145389434554515 0.56663881201321975 0.13917856043702248 -0.023968913059126819 -0.021845763354760562 0.03674061754367057 0.12937825005763037 -0.0074039039620888781 -0.0013625020192594231 0.111806536064157 0.23392086553339567 -0.089260091157361929 0.47914331608663169 0.13003026084546063 0.41348951686611984 0.089245261543491952 -0.062073168511029793 -0.022890122922585607 -0.023782567792609864 0.022244905020686392 -0.02145280037153257 -0.025464730119216659 0.17699877189141511 -0.024504171035694692 0.41508123735337238 0.11842563904994718 0.10520600163949698 0.090355828439786096 0.49327755667364342 0.24690508365142205 -0.027498958020816477 -0.05951864172585352 0.19525246353540998 0.55532706196465675 0.16043877465543027
leaf_weight=314.6776646845974 400.23842497635633 38.426855532452464 2.9409037460573044 49.75305516878143 164.61177809350193 9.1077270866371673 94.286577150225639 94.595382672734559 25.08070178097114 125.10354195069522 110.2874611876905 85.632986762560904 2.9135696296580162 6173.4051138460636 1.7403507023118425 16.703630861826241 20.571303678210828 10.015683205798267 80.820132638327777 3.7937953267246476 2.1884936462156475 195.98615631693974 26.05138052906841 208.34435159014538 27.803863581269979 33.37422593170777 131.45030447421595 16.577505718916655 43.622984807938337 33.069415394682437 253.49192861374468 10.147548880893735 5.2370632067322758 69.076964737847447 14.646817516069857 21.973520206753165 44.718378528952599 14.538832901977001 10.623885123990474 335.08287569880486 464.7944202227518 3.4461587178520849 2.0346031542867449 25.960809582378715 20.802968878298998 47.542500948533416 26.435490786097944 152.66409004712477 115.77300300169736 98.829287411179394 66.342991579789668 11.996805556118487 14.161204956006257 961.82064964435995 9.1481207194738072 14.386035289615391 58.368565246462822 13.235578249674289 10.810684756841509 52.219228502828628 41.996949858032167 64.892743695061654 25.603955439291894 152.97791591892019 18.092964248731732 411.20593635039404 24.819702302105725 3.4550802195444703 84.917686537373811
leaf_count=66170 238 6515 472 5619 26704 1025 72 13238 4279 10254 1102 7701 204 1425 253 1960 364 125 9527 31 255 16127 4770 2438 624 988 3142 702 185 1497 2047 1156 469 572 159 208 11 2275 1241 91 263 597 297 863 4 233 426 475 2350 190 297 1526 2314 1141 740 1442 755 1570 238 710 121 1808 577 670 1747 2205 50 4 502
internal_value=0.0593511 0.122152 0.0162753 0.220158 0.136629 0.109671 0.0370489 0.176426 0.249015 0.143455 0.147795 0.101556 0.13518 0.0305491 0.0433675 0.189898 0.374617 0.48193 0.111231 0.132659 0.62898 0.0362674 0.0691424 0.119855 0.171458 0.12817 0.159064 0.211718 0.209168 0.0647523 0.178683 0.325278 0.22667 0.309338 0.525759 0.506051 0.00338455 0.280354 0.230307 0.079509 0.0957381 0.30479 0.209125 0.354423 0.300775 -0.000540686 0.434424 0.104154 0.400979 -0.0263304 0.0280617 0.191274 0.136814 0.0165722 0.21012 0.223247 0.196573 0.16789 0.180041 0.0396516 0.0132703 0.173003 0.459635 0.210978 0.128947 -0.0443143 0.118475 0.447276 0.124413
internal_weight=12321.4 3223.18 389.345 74.6675 2833.84 1700.07 9098.27 1133.77 310.649 1122.26 823.118 597.941 430.841 7898.15 577.814 524.315 39.6947 30.587 531.776 450.955 5.98229 572.619 376.633 444.973 484.62 212.021 178.647 291.342 304.152 212.582 292.989 39.4966 274.765 99.5847 19.8839 24.9144 1724.75 272.222 79.7008 1200.12 865.033 232.863 87.6834 145.18 62.6027 1680.03 29.3491 180.468 119.219 670.665 165.172 152.595 34.9642 1009.36 140.598 287.448 243.825 232.391 219.155 137.852 167.1 175.18 27.6386 229.439 76.4615 505.493 39.3585 5.19543 117.987
internal_count=220350 214184 72469 6299 141715 86245 6166 55470 20121 31991 35349 22619 12244 5574 54254 9372 1514 489 29296 19769 286 53997 37870 19483 7858 11166 10178 6053 6759 15237 3833 1786 5351 2441 628 680 4149 13606 1813 592 501 11281 7471 3810 3192 4138 630 1099 2947 2764 487 5408 2318 1374 3882 4799 4614 4246 2676 8411 10375 2910 874 3172 2502 2277 2325 257 1999
is_linear=0
shrinkage=0.0346294


Tree=3
num_leaves=70
num_cat=0
split_feature=4 9 4 8 8 15 30 8 13 6 11 16 11 6 11 16 20 15 11 11 6 6 8 1 4 7 16 11 1 16 11 11 1 27 4 27 11 15 11 14 15 15 11 9 9 22 15 15 22 9 17 7 17 13 8 11 16 4 13 27 9 16 27 9 21 11 17 13 13
split_gain=5417.51 3232.18 1837.33 2493.61 2450.76 1638.92 1350.98 1119.2 1686.39 1070.37 1287.09 1033.32 993.06 1414.23 971.414 970.102 912.389 1239.69 1124.44 882.694 880.627 847.777 766.253 757.7 755.59 716.505 682.408 677.164 668.719 605.849 575.221 661.691 570.676 936.235 684.721 1028.61 967.778 544.444 543.776 484.678 475.521 528.232 492.728 460.029 627.994 610.727 457.95 442.052 436.017 694.099 413.605 412.969 411.255 399.738 397.636 393.896 689.308 391.804 390.404 405.199 387.914 375.296 369.176 878.989 362.205 335.811 328.091 319.086 542.865
threshold=42.627656250000008 -0.089999999999998068 18.674531250000005 58.275000000000013 2.0900000000000012 26.250000000000004 1.0000000180025095e-35 50.594999999999999 19.825000000000003 146.22500000000002 12.995000000000006 12.250000000000002 14.409999999999933 41.155000000000008 4.3600000000000083 8.5500000000000025 3091.4400000000001 23.550000000000004 0.90000000000000402 0.25000000000000183 158.33000000000001 50.655000000000008 15.41 41.165000000000006 41.48515625000001 13.279999999999999 25.050000000000004 61.590000000000011 60.910000000000004 15.050000000000002 12.759999999999993 0.11000000000000833 21.505000000000006 11.500000000000002 33.136822916666681 17.500000000000004 10.835000000000001 7.1500000000000012 22.434999999999921 27.055000000000007 27.350000000000005 29.250000000000004 12.759999999999993 -4.285000000000001 5.2900000000000027 -68.090000000000131 26.650000000000002 6.2500000000000009 -60.67999999999892 0.69999999999999962 8.0532812500000031 -78.254999999999967 2.5905381944444472 23.005000000000006 50.594999999999999 16.045000000000002 13.350000000000003 19.571354166666669 23.205000000000002 17.500000000000004 26.314999999999969 12.950000000000001 19.500000000000004 71.355000000000032 3154.3575000000001 58.455000000000005 6.3768750000000036 19.905000000000005 33.935000000000009
decision_type=8 10 10 8 10 2 2 10 2 10 10 2 10 10 10 2 2 2 10 10 10 10 10 10 10 10 2 10 10 2 10 10 10 2 10 2 10 2 10 10 2 2 8 10 10 2 2 2 2 10 2 10 2 2 10 10 2 8 2 2 10 2 2 10 2 10 2 2 2
left_child=1 7 -3 4 5 48 12 8 -1 -2 11 30 13 -6 -9 53 17 -15 -19 -10 21 -18 29 37 46 -8 32 43 -13 -23 31 -11 -21 -34 35 50 -36 47 -14 67 60 42 -42 -25 45 -45 -17 -12 49 -4 64 -30 -39 -7 66 -38 -57 -51 -55 -60 -5 -46 -29 -64 -35 -43 -54 -40 -69
right_child=9 2 3 40 6 15 25 14 19 10 23 28 38 16 -16 24 20 18 -20 26 -22 22 -24 27 -26 -27 -28 62 51 -31 -32 -33 33 34 36 -37 55 52 39 -41 41 65 -44 44 61 -47 -48 -49 -50 57 -52 -53 54 58 -56 56 -58 -59 59 -61 -62 -63 63 -65 -66 -67 -68 68 -70
leaf_value=-0.030847764134937023 -0.043784516034304617 -0.025945395638008888 -0.029804089802955149 -0.076749941391538651 -0.029393916324249657 -0.017226340276342435 -0.035635161581965141 0.12622333856328843 0.014601788964918858 0.11705199013608678 -0.033730485578163133 -0.030942050464766103 0.00076638202077950303 -0.015568604671995959 0.021150234484020938 0.12740902955274142 -0.026267324390994908 -0.0088871625254683846 0.60628537186899756 0.23781453892119495 0.019933818482154475 0.26185312330081595 0.081500540561620968 0.041445502859985522 0.17877798880330437 0.10561789144517673 -0.026536279863514454 0.041495154803230273 -0.029946269431197332 0.10269249354511838 0.12955611683547766 -0.038964944897773857 -0.029037033314499711 0.28658801176505599 -0.022701706889911286 -0.031047553425958344 0.2229778884640197 0.00045493822685408906 0.20289290999535348 -0.03667909909395204 0.14845821700685452 -0.043191539943602759 0.021201543864025611 0.011397914673287652 -0.081455116476340989 -0.12686493806193025 -0.033830259962282588 0.22233691087445709 -0.034558412098156813 0.34999238530326449 -0.025868082121175966 0.14357359067434322 0.15037337473737658 0.40857553676417185 0.042637502527772188 -0.0059684061535460568 0.55302556697018734 0.065239766237759775 0.20625978488763458 -0.021902054086277021 0.016564508745662662 0.025906807467390137 -0.12534531199606985 0.03489844922308525 0.15739450482551934 0.037099655674343687 -0.029322798338103626 0.0036938630665100006 0.13171130592982203
leaf_weight=48.303666888270527 170.35917569510639 223.4533414770849 37.273872708901763 75.91075730510056 32.071527963038534 7.6867109457962206 78.798620836809278 353.00915598031133 39.520951893180609 38.517076028976589 7.8604014674201599 28.909890967886895 48.8956518471241 6.3450599750503924 154.75608215481043 23.350381573662162 16.968645251821727 3.8938107173889902 16.861858757678419 240.00484381662682 36.67378345457837 228.053065772634 51.248740024399012 267.72043997049332 37.143188931513578 85.343461333308369 16.065078243613243 6440.5165347787552 15.186689478345214 43.16787520237267 48.013646844774485 131.88321854965761 26.796499136835337 37.565280973911285 9.8265377087518555 31.669792870990932 38.794340137392282 84.173200738150626 69.636952204164118 19.208204740192741 89.7660549771972 71.825547409709543 64.38080730009824 61.621300920378417 40.494390124455094 91.03554465668276 84.579033500980586 47.180177563801408 237.84612618479878 7.5538556594401598 10.633444120176135 357.48530566273257 112.96125918859616 11.052157996688036 123.67653105640784 2.7051344905048635 14.854420678224413 17.896233147475872 51.030939111951739 9.7051863078959268 154.59503186587244 294.10676020383835 50.245499690528959 161.02885667979717 233.04716050764546 340.23552717780694 11.530571168288587 47.064402668736875 303.75758594134822
leaf_count=9889 7632 43726 7327 602 5041 1549 8498 460 3371 539 534 3251 1813 779 315 1180 1924 616 452 7078 3623 4284 1732 196 158 825 1562 3110 177 1300 51 6469 3431 370 743 3472 103 5397 528 371 80 394 50 106 222 2117 13764 95 44410 195 509 888 1261 38 59 183 188 1389 652 1400 135 460 784 45 2890 123 524 1678 1233
internal_value=0.0565561 0.0904605 0.068406 0.0772118 0.10194 0.0398864 0.131556 0.136199 0.163466 0.0411441 0.0428927 0.0909133 0.147808 0.186644 0.0947716 0.10975 0.204111 0.397132 0.506735 0.177043 0.18568 0.202928 0.21537 0.0390165 0.0530947 0.0382593 0.186489 0.0364902 0.123692 0.23876 0.0291298 -0.00131334 0.192026 0.162575 0.176458 0.150671 0.280765 0.0862213 0.111746 0.123818 0.0267861 0.0437879 0.0977358 0.00528028 -0.014652 -0.0718761 0.00405741 0.184912 -0.0129169 0.0651413 0.171515 0.136073 0.0675234 0.204337 0.0896242 0.332566 0.47987 0.190443 0.22852 0.1698 -0.0147452 0.0118537 0.0400173 -0.00466873 0.179785 0.0226495 0.132814 0.131597 0.114969
internal_weight=12475.3 3890.83 2633.27 2409.82 1613.11 525.118 1087.99 1257.55 749.787 8584.51 8414.15 619.996 923.847 435.284 507.765 224.548 403.213 27.1007 20.7557 701.483 376.112 339.438 322.47 7794.15 145.073 164.142 661.963 7406.77 401.582 271.221 218.414 170.4 645.897 405.893 379.096 312.916 66.1804 387.382 488.563 439.667 796.714 566.208 154.147 754.978 487.258 152.657 107.929 55.0406 300.57 62.724 281.246 372.672 332.342 79.475 248.168 56.3539 17.5596 25.4501 71.7883 60.7361 230.506 334.601 6651.79 211.274 270.612 412.061 124.492 420.459 350.822
internal_count=220350 186433 151869 108143 106759 72062 34697 34564 33789 33917 26285 11375 25374 19751 775 18741 14710 1847 1068 23900 12863 9240 7316 14910 15102 9323 20529 7040 4316 5584 7059 7008 18967 11889 8458 7241 1217 7870 5623 3810 1384 647 130 3101 2905 2223 14944 629 53321 8911 3769 1065 7241 3639 1844 474 371 1584 2090 2052 737 682 3939 829 3260 517 1785 3439 2911
is_linear=0
shrinkage=0.0346294


Tree=4
num_leaves=70
num_cat=0
split_feature=0 27 11 9 4 9 27 30 9 11 9 27 4 6 6 21 19 19 6 23 27 1 6 11 4 29 18 1 29 4 4 12 14 6 29 11 20 18 8 11 18 9 14 18 6 11 9 6 11 8 11 8 6 1 12 9 9 23 25 1 27 21 27 6 12 19 11 14 0
split_gain=8657.96 3519.09 1905.59 1836.77 1420.46 1327.5 1140.62 869.431 1205.02 1025.8 852.207 1005.79 842.992 1154.72 1159.92 1238.27 974.063 1270.45 1023.09 862.365 730.698 769.508 1370.07 683.701 681.972 616.144 600.318 630.399 533.54 515.095 540.069 1092.15 486.491 480.177 461.369 458.614 541.395 456.995 554.068 454.301 452.752 589.522 562.284 451.726 448.126 439.08 436.677 405.826 404.997 398.458 349.876 343.403 334.857 334.061 333.457 482.679 367.447 333.252 324.828 297.701 289.336 281.959 274.844 267.48 260.202 234.597 229.837 228.504 216.73
threshold=88.925000000000026 4.5000000000000009 4.3600000000000083 -8.8850000000000033 18.674531250000005 -0.47000000000000147 21.500000000000004 1.0000000180025095e-35 -0.060000000000001379 24.875000000000011 26.314999999999969 19.500000000000004 20.078697916666673 39.170000000000009 42.95000000000001 3917.2375000000006 5.4635748852601358 24.350000000000005 194.97500000000002 66.567100000000011 9.5000000000000018 35.335000000000008 269.5750000000001 1.1000000000000012 27.948802083333337 7.5000000000000009 -0.60000000000000087 37.32500000000001 6.5000000000000009 22.569791666666671 24.890572916666674 -0.060000000000001823 -11.819999999999993 87.845000000000013 11.500000000000002 12.759999999999993 6412.1400000000003 -0.39999999999999897 -21.995000000000001 2.1599999999999988 0.69999999999999762 -7.349999999999997 27.055000000000007 0.19999999999999754 516.71500000000003 0.75000000000000056 11.885000000000002 139.42000000000004 14.000000000000005 -0.54499999999999982 0.90000000000000402 1.0399999999999998 28.495000000000001 111.25500000000001 -2.969999999999998 15.630000000000001 -19.804999999999993 30.167350000000003 1775.1250000000002 50.615000000000002 13.500000000000002 4243.920000000001 17.500000000000004 39.535000000000004 -0.020000000000002235 38.750000000000007 0.66499999999999393 1.0549999999997477 185.72500000000005
decision_type=8 2 8 10 10 10 2 2 10 10 10 2 10 10 10 2 2 2 10 2 2 10 10 10 10 2 2 8 2 10 10 10 10 10 2 8 2 2 10 10 2 10 10 2 10 10 10 10 10 10 10 10 10 10 8 8 10 2 2 10 2 2 2 10 8 2 10 10 10
left_child=1 -1 3 -2 5 45 7 12 33 -10 11 35 19 -14 15 50 40 18 -18 23 -19 29 24 -6 -23 -11 51 -28 39 -22 31 -31 52 -9 -13 36 -4 -24 -39 -5 41 -16 57 -38 54 66 -8 -32 -29 -35 -15 62 -7 -26 -37 56 -56 -43 61 64 -27 -25 -20 -17 67 -58 -3 -51 -12
right_child=2 4 10 28 6 32 46 8 9 25 68 34 13 14 16 63 17 20 26 -21 21 22 37 58 53 60 27 48 -30 30 47 -33 -34 49 -36 44 43 38 -40 -41 -42 42 -44 -45 -46 -47 -48 -49 -50 59 -52 -53 -54 -55 55 -57 65 -59 -60 -61 -62 -63 -64 -65 -66 -67 -68 -69 -70
leaf_value=-0.034329695316105094 0.1252525287465753 -0.013791611209053745 -0.037980810536205403 -0.036716755774295159 -0.026037449970845155 0.40112328515019097 -0.033594642150134878 0.043952623557104227 -0.034875251401272213 -0.034553962347677249 0.016033836757884688 -0.12155609033676863 -0.031658549303298596 -0.00092123096962030569 0.47975297233853209 0.16304729380406197 -0.035178762451495781 -0.030508107951064848 0.22288062743879095 0.58565632063004069 -0.026392264501727904 0.090442511931196928 -0.029096452424643895 0.1300158221757976 -0.039509769104311102 -0.026253731205163326 -0.033893397582620215 0.13847187719408202 -0.040377358871294546 0.39237396631330174 0.063856565212674535 0.14619804749377169 -0.033839828944282259 -0.022177480771822727 0.02707116145768371 0.011331262130469547 -0.034954513718525683 0.25815956843673837 0.12865669801544152 0.10040998539821007 -0.024837767314988209 0.17955418450184488 -0.028375522557592181 0.10644717191084203 0.020107303410338982 0.02287859478308096 0.095484045924180652 0.15316986074040867 -0.031835551134640913 0.12506857246623801 0.4406644725688515 0.061108334260330459 -0.0080397536967028657 0.07964136505011285 0.030537083651389421 0.005902954703850891 -0.15447961339995356 -0.021998021301609848 -0.017007485906990177 0.052094718575417032 0.13243548034051503 0.23388751283938011 -0.013853746153210901 -0.02053696761140467 -0.012767788146457336 0.0050790245069840482 0.19777399406576465 0.26449826249149749 0.039415684253636091
leaf_weight=223.01557120075449 509.411306662485 5.5853858054615548 49.819292902946472 38.368031911551952 17.271559479646385 1.0436859959736455 85.20663561206311 49.427239576820284 142.86531106173061 37.345192460808903 541.18041495978832 90.177931509912014 57.106957463081926 1.9775684196501995 4.5898195710033169 40.185789718292654 116.53195545822382 34.861526357708499 55.883707809727639 3.072257943917065 17.080809325911105 163.79649183247238 16.434235553024337 74.218494244851172 114.13108016783372 13.121838112827389 70.105614630971104 69.814136301632971 122.19857464917004 32.635471709538251 83.138538221362978 80.12120626680553 183.3144670734182 9.8962526090908778 31.34041191637516 175.92593371123075 29.025947079062462 48.886493340134621 349.27019821456634 89.71807062625885 12.492688743863253 351.53605126217008 15.45124839292839 174.91167718172073 1450.6699535548687 34.02023879205808 43.979998332448304 469.08512203861028 19.078650964424014 36.245269439648837 28.865217915270478 40.539133693790063 3.5131558012217283 32.610024682246149 17.887729644775391 86.085620513185859 72.842864245176315 8.6306486679241043 7.4193294527940443 20.601848969236016 136.10337615315802 127.79789058538154 5.4266982346307477 10.225205144379286 4.8405094947665921 11.69717140495777 61.743470110464841 70.210485556628555 5339.5493878722191
leaf_count=45910 245 857 334 288 2451 5 13694 3065 22533 1737 456 538 9805 389 75 207 15053 5252 386 70 1971 1962 750 1028 4663 932 8377 769 973 940 4561 1882 36620 953 12 170 197 387 1909 136 979 1854 475 226 1068 3434 163 5775 554 305 396 1409 426 151 2 98 441 587 1134 264 607 3123 715 1604 471 13 65 500 969
internal_value=0.0541464 0.098277 0.0353985 0.0877599 0.10673 0.0323133 0.113321 0.117519 0.0752807 0.0340882 0.0304178 0.0119069 0.125878 0.119158 0.122993 0.251414 0.117766 0.106471 0.0488512 0.190874 0.121315 0.125203 0.0989172 0.174386 0.0427704 0.0868206 0.0865902 0.042078 0.0103709 0.152257 0.157081 0.229852 -0.0221591 0.1436 -0.0831101 0.01768 0.0609531 0.139946 0.147318 0.059 0.16821 0.174925 0.165614 0.085711 0.0114652 0.130659 0.0115462 0.140438 0.101462 0.175575 0.413927 0.150939 0.228282 -0.0110913 -0.0225967 -0.0541301 -0.10337 0.174348 0.191402 0.191108 0.117724 0.199558 0.201434 0.125977 0.213384 -0.132521 0.17957 0.224333 0.037288
internal_weight=12573.2 3742.35 8830.81 759.696 3519.34 289.22 3230.12 3100.93 520.657 329.436 8071.11 2190.38 2580.27 2350.49 2293.39 81.2538 2212.13 1819.43 377.38 229.78 1442.05 1407.19 725.129 226.707 310.538 186.57 260.848 158.998 250.285 682.061 664.98 112.757 187.871 191.222 121.518 2068.87 253.757 414.591 398.157 128.086 392.7 380.208 375.618 203.938 1815.11 101.349 129.187 552.224 88.8928 141.794 30.8428 101.85 4.55684 146.741 364.439 188.513 102.428 360.167 209.436 131.898 149.225 202.016 61.3104 50.411 111.296 84.54 67.3289 106.456 5880.73
internal_count=220350 214184 6166 1642 168274 41407 126867 113010 31367 25809 4524 3099 81643 73837 64032 2596 61436 57466 27263 7806 30203 24951 9822 7736 6776 3276 12210 9700 1397 15129 13158 2822 37051 5558 550 2549 757 3046 2296 424 3970 2991 2916 423 1792 4356 13857 10336 1323 2493 785 2510 431 4814 724 554 456 2441 5285 1540 1539 4151 1101 1811 1276 454 922 805 1425
is_linear=0
shrinkage=0.0346294


Tree=5
num_leaves=70
num_cat=0
split_feature=4 8 27 4 10 1 9 10 5 4 10 6 11 18 4 5 1 17 13 13 6 19 1 9 19 20 17 20 18 13 10 11 18 25 18 2 2 6 10 8 17 6 1 11 27 9 11 11 26 13 18 26 10 9 26 23 4 2 17 10 2 13 17 19 6 29 26 5 13
split_gain=4566.87 2329.64 2819.28 1763.2 1624.14 1067.04 1036.4 1008.73 1345.64 1039.26 1801.39 905.564 893.703 921.033 1718.99 1290.83 3314.77 2191.06 1118.2 1495.01 923.459 870.871 1228.3 1921.11 970.097 1449.64 892.865 3645.98 844.862 792.477 1140.49 792.186 871.885 784.411 766.864 1264.73 1214.75 710.731 733.552 1653.12 1121.52 672.69 636.331 573.743 565.31 551.293 545.354 512.59 512.509 501.564 490.959 477.7 496.045 940.6 529.298 459.691 458.028 430.318 424.297 413.332 394.638 394.134 392.231 940.439 524.248 522.457 373.726 365.783 357.333
threshold=42.627656250000008 74.600000000000009 4.5000000000000009 18.674531250000005 -9.0624999999999734 29.665000000000003 -0.47000000000000147 -0.0024999999999647522 5.0888403046655322 19.775364583333339 16.013750000000012 146.22500000000002 0.11000000000000833 -0.70000000000000184 26.380000000000003 4.1387254889918887 24.465000000000003 5.0459027777777807 20.455000000000002 20.045000000000005 68.985000000000014 26.850000000000005 39.805000000000007 -0.1299999999999972 5.4635748852601358 5293.5350000000008 9.2938368055555571 2908.8850000000007 0.14999999999999861 54.005000000000003 -4.6000000000000094 14.000000000000005 0.19999999999999754 4617.6000000000013 -0.14999999999999855 20.325000000000003 19.445000000000004 50.655000000000008 5.0675000000000114 22.075000000000006 5.0459027777777807 201.65500000000003 25.885000000000002 61.590000000000011 16.500000000000004 -4.285000000000001 0.75000000000000056 8.2750000000000039 -14.615000000000007 33.935000000000009 -1.0000000180025095e-35 62.070000000000171 -7.441249999999985 15.630000000000001 -834.36000000000047 13.186900000000001 24.314010416666672 37.015000000000008 7.9051215277777791 7.6975000000000122 24.395000000000003 44.195000000000007 -9.1436805555555534 22.850000000000005 133.89500000000001 11.500000000000002 -1.0000000180025095e-35 10.418633850015597 43.055000000000007
decision_type=8 8 2 10 10 8 10 10 10 10 10 10 10 2 10 10 10 2 2 2 10 2 10 10 2 2 2 2 2 2 10 10 2 2 2 10 10 10 10 10 2 10 10 10 2 10 10 10 2 2 2 2 10 10 2 2 10 10 2 10 10 2 2 2 8 2 2 10 2
left_child=1 2 -1 6 -3 28 46 12 -9 10 55 -7 -5 14 18 16 61 -18 19 -14 -20 24 23 44 49 41 37 -28 34 57 -31 32 -13 45 42 36 -36 -25 39 48 -41 56 -2 51 -23 -34 -4 -47 -39 -11 -32 52 -33 54 -54 -10 -26 62 68 -8 -52 -15 64 -64 -17 -66 -22 -51 -24
right_child=5 4 3 7 -6 11 59 8 9 21 -12 31 13 15 -16 29 17 -19 20 -21 66 22 58 26 25 -27 27 -29 -30 30 50 43 33 -35 35 -37 -38 38 -40 40 -42 -43 -44 -45 -46 47 -48 -49 -50 67 60 -53 53 -55 -56 -57 -58 -59 -60 -61 -62 -63 63 -65 65 -67 -68 -69 -70
leaf_value=-0.034197508901297892 -0.036497374470191447 0.095790731046597799 0.15823998906379094 -0.030983459487332367 0.0065057008991505835 -0.04363283910186843 -0.033947421808887483 -0.032670813857909986 -0.023860168268594131 -0.03105970809015899 0.67706061946059559 -0.018755286240608446 -0.005019036348055254 -0.022099921502735417 0.026729008455989006 0.13964341496695631 -0.0029581818207580022 1.1872797119199645 -0.021192388933099639 0.86468527824869112 -0.013347761339874639 0 -0.035352126159275576 -0.028785182869838943 -0.029133420190815405 -0.038185649779318424 1.0720599239109834 -0.021960623665266032 0.015067607558352807 0.026531364789140519 -0.023632818116714496 0.039231819168571352 0.10382652623395493 0.22270159612935383 -0.0074542234586476141 0.1644614304713623 0.81424505936142577 0.25957186682986294 0.090530516801715283 -0.0090755906911701746 0.70964589026576319 -0.03530283592774721 0.14080685293070277 0.038532664605900754 0.76324977163103935 -0.038450765501208413 -0.027623229471734484 0.075167828568260361 0.11624052637161092 0.19571002126729489 0.094096255634723569 0.16758194080565475 0.065412875546046023 0.023859182774442253 -0.094687983118480173 0.18528042355063443 0.12807632384242976 -0.01165651977436818 -0.027642121804662044 0.19465036902504074 0.35601214496019246 0.22278300197247916 -0.031764328836577246 0.12338637090209742 -0.00051420718779679995 0.62319083766902028 0.33236794722830287 0.096104829886811183 0.10181891420087166
leaf_weight=174.08420932246372 33.254648687317967 384.43801384558901 74.347996160853654 30.665784517303109 663.99081073212437 159.68316195812076 179.45922236843035 83.904035104904324 12.772510479670016 20.02168100932613 5.2874483908526591 99.378818325698376 2.8439330877736193 12.206195280887192 30.745923082809895 33.303353838156909 2.3012889991514376 3.1216770564205945 11.086183270439504 5.7887659505940974 3.3000544765964142 1.2175301066599775 21.806350452825427 25.008609975688159 22.553818963468075 174.24242228176445 1.8607938610948611 8.2459363164380175 82.430424343794584 28.309528804849833 4.5654927287250748 263.45606927666813 336.45308085717261 47.024827678222209 2.6378590054810038 65.235041801817715 3.7088095466606319 48.91704490641132 134.19196732761338 2.9558160663582367 7.8580209454521537 41.489260878413916 69.235458809882402 6542.4745383558329 4.2478999886661768 76.818818539381027 22.692924705334008 110.87427451973781 112.21909966506064 90.893994776066393 13.005082595627753 17.092148287920281 24.965025436365977 259.44596964120865 182.11939832032658 95.536790411919355 204.6065558292903 30.105519372038543 36.947175738401711 5.6613928163424125 53.056619863025844 13.299858653452246 48.901108785066754 534.43643719423562 1.8238998954184342 2.6538487207144499 50.644755518063903 123.43751710420474 303.73685584357008
leaf_count=38707 5088 178 917 3598 1437 7146 36666 15768 1934 1954 38 3776 567 1773 2098 387 306 95 1752 83 284 147 865 3472 3566 22027 31 677 3945 281 344 170 272 133 451 706 74 1871 865 259 158 4613 987 4964 148 2170 3315 467 6933 480 120 50 29 292 3324 1368 3353 1990 608 649 1127 49 6981 7722 185 52 662 885 1779
internal_value=0.0538138 0.0842408 0.0999826 0.108441 0.0395637 0.0392228 0.0256379 0.1177 0.100248 0.107797 0.20864 0.0369715 0.147193 0.153555 0.25223 0.138968 0.349482 0.898532 0.338839 0.667275 0.255432 0.0988657 0.125944 0.172703 0.0697973 0.0387974 0.156439 0.436047 0.10845 0.128251 0.220587 0.0386192 0.0746982 0.0910867 0.15088 0.236213 0.60222 0.142205 0.156583 0.204287 0.562567 0.0887724 0.0835389 0.0352494 0.663983 0.077433 0.11483 0.0285191 0.165782 0.126353 0.291509 0.00635637 0.00153053 -0.0197908 -0.0741453 0.160088 0.111942 0.112763 0.0795379 -0.0223386 0.314298 0.117267 0.118934 0.110135 0.228019 0.486558 0.310716 0.14167 0.0920963
internal_weight=12381.1 4004.8 2956.37 2782.29 1048.43 8376.29 282.162 2500.12 1583.96 1500.06 113.597 8119.79 916.165 885.5 104.41 781.09 30.929 5.42297 73.6637 8.6327 65.031 1386.46 709.213 346.723 677.245 442.892 341.257 10.1067 256.502 750.161 98.9367 7960.1 670.55 571.171 174.072 71.5817 6.34667 331.151 306.142 171.95 10.8138 268.65 102.49 7289.55 5.46543 524.146 97.0409 187.693 161.136 234.353 70.6272 747.079 729.986 466.53 207.084 108.309 227.16 651.224 362.49 185.121 66.0617 25.5061 621.119 583.338 37.7811 4.47775 53.9448 214.332 325.543
internal_count=220168 186124 184509 145802 1615 34044 41547 104255 73799 58031 3340 22793 30456 26858 5446 21412 2223 401 3348 650 2698 54691 17813 14561 36878 33559 14266 708 11251 19189 1872 15647 6818 3042 7306 1231 525 13558 10086 9221 417 11532 6075 8829 295 2909 4232 2637 8804 3319 1591 3865 3815 3645 3353 3302 6919 17317 3252 37315 1247 1822 15327 14703 624 237 946 1365 2644
is_linear=0
shrinkage=0.0346294


Tree=6
num_leaves=70
num_cat=0
split_feature=3 27 2 9 17 17 2 15 20 28 2 27 9 5 7 3 3 7 20 9 20 2 10 6 4 14 23 17 4 7 9 4 10 9 3 9 6 7 20 4 28 17 15 27 4 10 20 6 10 15 17 5 27 2 10 26 6 10 2 5 7 22 14 14 12 2 17 5 12
split_gain=4776.17 2804.55 1526.73 1399.69 1220 1301.26 1501.73 1176.26 969.973 875.825 856.967 812.229 815.712 786.19 669.991 3318.94 1528.01 1560.84 805.038 781.871 866.271 664.282 663.198 588.765 571.674 547.571 535.001 534.472 533.367 906.707 794.765 474.04 473.46 684.444 574.714 436.215 433.826 416.674 414.285 1156.84 405.971 446.402 394.176 393.914 476.656 436.384 390.009 561.492 380.481 377.885 361.415 653.46 334.783 377.098 329.781 704.129 334.692 298.822 296.88 368.965 295.658 294.64 292.713 559.629 689.978 969.572 469.845 781.962 292.442
threshold=55.60125000000059 4.5000000000000009 18.745000000000001 -3.1499999999999986 5.0459027777777807 5.1156076388888883 21.975000000000005 7.3500000000000005 6479.7100000000009 1.0000000180025095e-35 24.935000000000006 19.500000000000004 14.065000000000003 5.0339803732915396 6.7500000000000036 35.102500000001022 30.342500000000019 22.32500000000001 3091.4400000000001 -0.1299999999999972 10088.065000000002 34.215000000000011 -16.152500000000003 60.730000000000011 55.236250000000005 -11.819999999999993 30.167350000000003 -6.7067534722222222 19.775364583333339 25.465000000000003 4.9599999999999991 19.286822916666669 0.82000000000000606 0.7899999999999997 369.2112500000012 0.68000000000000005 60.730000000000011 -143.59999999999999 5293.5350000000008 88.75776041666667 1.0000000180025095e-35 -7.0993750000000002 37.050000000000004 13.500000000000002 57.867135416666677 1.5962500000000162 8595.1300000000028 162.09000000000003 -6.237499999999975 31.950000000000003 8.6765972222222292 41.629745180391723 15.500000000000002 22.155000000000005 8.7737500000000441 62.070000000000171 819.7700000000001 11.123750000000031 38.785000000000004 378.13960750717541 58.745000000000012 -951.59499999999969 -3.4899999999999962 -1.400000000000001 -0.029999999999996693 21.155000000000005 -4.2179861111111112 5.3319010375049318 -3.1650000000000023
decision_type=8 2 10 8 2 2 10 2 2 2 10 2 10 10 10 10 10 10 2 10 2 10 10 10 10 10 2 2 8 10 8 10 10 10 10 10 10 10 2 10 2 2 2 2 10 10 2 10 10 2 2 10 2 10 10 2 10 10 8 10 10 2 10 10 10 10 2 10 10
left_child=1 -1 7 24 8 6 -6 9 10 -3 13 28 -13 25 19 16 -16 -18 21 49 36 -17 -9 61 52 -4 31 -24 29 30 -5 -15 42 34 35 -34 -21 -25 39 62 -40 -42 58 44 -39 -45 47 -35 -43 50 -7 -52 -2 -54 55 56 -49 -20 60 -60 -30 -12 -33 64 65 -64 -65 -68 -27
right_child=3 2 4 11 5 14 -8 22 -10 -11 23 12 -14 26 15 18 17 -19 57 20 -22 -23 27 37 -26 68 -28 -29 32 -31 -32 38 33 46 -36 -37 -38 43 40 -41 41 48 -44 45 -46 -47 -48 54 -50 -51 51 -53 53 -55 -56 -57 -58 -59 59 -61 -62 -63 63 66 -66 -67 67 -69 -70
leaf_value=-0.034367068833001321 0.099013272902887167 0.28823077684417481 0.32175806146996283 0.077452975882444208 0.75873968269935521 0.14233522545759505 -0.012361386897724804 0.1175302123736006 -0.035576327793637147 0.025934899051482184 0.14077227967671307 -0.083530171217949936 0.020734734407081661 -0.026975884535414954 0.095557200225076119 0.087007394640984476 0.73473095616358763 0.12897550121478588 0.10516725252127081 -0.032041796580603903 0.37303094524424041 0.320168309415925 0.084363445511509358 0.19213174976305206 0.047622876704302715 0.14701063704193099 -0.035449777286503642 -0.035513681100134808 0.051651923173416402 0.00052939510639199287 0.48188351598699103 0.093861481744407921 0.098248366922577865 -0.022829465357656582 -0.03321723784480498 0.27520487284646372 0.076710905613270278 0.10021467055938039 0.15473367996429918 0.63212100006152272 0.12646384418485779 0.11686089900550922 0.050883544930595902 -0.035829458181783208 -0.033629760349412528 0.07394600297220047 0.08929274433632349 -0.063418658124411081 -0.033623972520714404 0.030347940326519329 0.15285794967713889 0.49304765234638137 0.10399162188556478 -0.0093001140590931626 0.038030421037347842 0.14958617564670137 0.011663922771335693 -0.040666971428106699 -0.066666824970248326 0.011822672442263382 -0.031680259902645204 -0.034001267953797973 0.16835304213385072 0.18765779780640746 0.11589952165195898 0.6297259637956294 0.16498845916685353 -0.030965336311049647 -0.03222964627757359
leaf_weight=202.65245680999942 683.06029840605333 30.41802900005132 2.2344730934128156 14.900153002701698 4.3011106168851239 189.85707406233996 4.2141933618113399 51.204381959047168 69.052587067242712 29.935590131906793 8.8505445141345245 133.17456645565107 255.33515739208087 18.572685664519668 13.393689726945011 29.847788705956191 19.185067655518651 9.6225151130929607 216.63430023822002 49.389336753403768 6.8969203857704988 39.447733756620437 50.449166690465063 34.170317812589929 839.36632699728943 8.3743717055767757 20.011731239035726 233.96883349632844 136.87540731742047 27.815110571216792 8.8957330738194305 91.448953417828307 167.91661217133515 196.54882466187701 31.598505549132824 17.228468687506393 259.13006011093967 363.14582007401623 121.46235141973011 2.5588587066158643 75.600995381129906 24.445699504110962 176.15525031415746 75.449029464740306 32.143647752003744 90.766376707935706 156.95859555341303 102.91351489187218 62.467983704293147 29.788013774435967 31.312432304956019 8.6201194131281209 55.20393385598436 82.595536098117009 5697.821046034107 30.903527859598398 206.07426106533967 15.374252388253806 156.94426929368638 125.3554747402668 75.401074472116306 88.465848904335871 17.752591739408675 133.50960105587728 25.067794040776789 9.3471939619630557 50.297017025761306 41.231032399926335 72.369159079622477
leaf_count=44717 394 482 46 120 123 1987 346 130 8726 2290 323 3068 246 3306 863 80 319 73 986 7739 187 72 3363 81 692 202 1593 45071 1657 93 12 704 510 1694 90 66 8320 9952 1279 124 856 71 351 8671 2839 1757 76 1051 8009 1633 756 96 120 362 2006 27 373 150 4396 237 399 11846 143 1471 701 140 230 5811 13464
internal_value=0.051727 0.0892657 0.0980812 0.0394197 0.108227 0.139991 0.496605 0.0342584 0.0887118 0.169542 0.0946813 0.0331655 -0.0153712 0.119879 0.134304 0.173773 0.44904 0.577551 0.129202 0.109495 0.0709173 0.231608 0.00789756 0.0657794 0.0682975 0.0172505 0.13188 -0.0130865 0.0357541 0.143081 0.281754 0.137137 0.0348999 0.0377148 0.0979831 0.120955 0.0588973 0.0786154 0.142032 0.167381 0.106662 0.0672753 0.00701108 0.0701799 0.0889269 0.0241017 0.0355961 0.0341731 0.0115447 0.154201 0.169129 0.268731 0.0890013 0.0374258 0.0360542 0.00268127 -0.0136726 0.0946691 -0.00879448 -0.0319411 0.0217195 -0.0121712 0.156692 0.175435 0.280741 0.394273 0.145914 0.0786447 -0.00636813
internal_weight=12443.5 3064.44 2861.79 9379.04 2465.81 927.015 8.5153 395.976 1538.8 60.3536 1469.74 7718.82 388.51 776.752 918.499 343.505 42.2013 28.8076 301.304 574.994 315.416 69.2955 335.622 692.992 1660.23 82.978 693.774 284.418 7330.31 51.611 23.7959 673.763 7278.69 6607.96 216.744 185.145 308.519 595.675 655.19 371.213 283.977 162.515 670.731 561.505 395.289 166.215 6391.22 6234.26 86.9137 259.578 229.79 39.9326 820.86 137.799 6037.71 339.891 308.988 232.009 494.576 282.3 212.276 97.3164 368.654 277.205 52.1676 27.0998 225.038 91.528 80.7435
internal_count=220168 202128 157411 18040 106075 23730 469 51336 82345 2772 73619 16472 3314 38150 23261 2543 1255 392 1288 20718 16246 152 48564 35469 1568 13712 24438 48434 13158 225 132 22845 12933 5893 666 576 16059 23300 19539 9324 10215 8936 7040 23219 12791 10428 5227 5151 8080 4472 2839 852 876 482 3457 1451 1424 1136 6689 4633 2056 12169 9200 8496 984 283 7512 6041 13666
is_linear=0
shrinkage=0.0346294


Tree=7
num_leaves=70
num_cat=0
split_feature=3 27 9 2 15 11 21 2 11 27 9 11 27 9 11 27 26 11 10 27 14 29 9 10 10 3 20 25 8 11 9 28 11 27 29 14 27 14 7 11 14 7 10 10 14 27 27 10 7 23 3 29 13 13 3 7 2 11 3 14 13 7 13 11 21 21 28 26 29
split_gain=3757.16 2393.03 1250.7 1225.49 948.198 910.399 991.271 1082.53 1059.85 967.802 838.655 810.493 772.483 770.501 716.945 642.642 627.131 625.561 592.167 525.885 834.476 644.819 533.343 660.087 578.924 508.601 508.483 476.015 1133.7 995.105 815.413 609.412 605.327 564.75 508.254 468.46 465.731 442.688 417.966 415.752 388.749 689.348 356.639 370.982 412.764 339.51 337.542 332.594 316.384 316.21 312.325 641.804 311.966 311.276 539.389 661.575 520.399 364.131 306.053 563.967 299.735 285.262 281.096 363.299 268.937 266.913 264.694 262.305 255.759
threshold=55.60125000000059 4.5000000000000009 -3.1499999999999986 18.745000000000001 7.3500000000000005 0.59000000000000041 3270.0975000000003 36.495000000000012 40.485000000000007 5.5000000000000009 -1.0000000180025095e-35 22.434999999999921 19.500000000000004 14.065000000000003 15.33 8.5000000000000018 -14.615000000000007 0.75000000000000056 -16.152500000000003 6.5000000000000009 16.735000000000007 8.5000000000000018 2.5500000000000029 -0.0074999999999998115 4.8524999999999734 19.607499999999934 2994.0400000000004 3101.3550000000005 58.275000000000013 38.890000000000008 6.4600000000000053 1.5000000000000002 14.000000000000005 16.500000000000004 7.5000000000000009 162.95500000000001 5.5000000000000009 -0.24000000000000107 58.745000000000012 24.875000000000011 18.61000000000001 1.9700000000000044 5.5425000000000297 -0.0074999999999998115 -487.61999999999995 15.500000000000002 21.500000000000004 -9.0624999999999734 -3.0450000000000013 43.586400000000005 78.507500000001372 2.5000000000000004 23.205000000000002 37.57500000000001 35.102500000001022 8.3149999999999995 20.815000000000001 6.2549999999999999 31.172500000000493 -11.819999999999993 23.105000000000004 -18.654999999999994 76.765000000000015 102.75000000000001 8778.9562500000011 3342.5500000000006 1.5000000000000002 -17.925000000000178 10.500000000000002
decision_type=8 2 8 10 2 10 2 10 8 2 10 10 2 10 10 2 2 10 10 2 10 2 10 10 10 10 2 2 10 10 10 2 8 2 2 10 2 10 10 10 10 8 10 10 10 2 2 8 10 2 10 2 2 2 10 10 10 10 10 10 2 10 2 10 2 2 2 2 2
left_child=1 -1 14 4 17 16 7 9 11 -7 15 -9 27 -14 45 -8 67 48 -6 37 22 25 23 -21 62 61 -11 29 30 32 31 33 34 -29 38 -35 68 58 65 -26 41 -23 43 -31 -45 -2 52 -34 -3 -18 51 -44 -17 57 55 56 -55 -54 59 -12 -28 -22 63 -24 -32 -4 -58 -5 -20
right_child=2 3 12 5 18 6 10 8 -10 26 19 -13 13 -15 -16 46 49 -19 36 20 21 40 24 -25 39 -27 60 28 -30 42 64 -33 47 35 -36 -37 -38 -39 -40 -41 -42 -43 50 44 -46 -47 -48 -49 -50 -51 -52 -53 53 54 -56 -57 66 -59 -60 -61 -62 -63 -64 -65 -66 -67 -68 -69 -70
leaf_value=-0.034320185031411841 0.097660729940217336 0.43543090646292032 0.1155477087304928 -0.020339212844030327 0.10824918217515014 0.51716424562152818 -0.030553460071270796 0.19210411747428147 -0.026618536694350842 0.096006940582790037 0.52062003119005329 0.66014993747062123 -0.081627772372796323 0.020284372166678954 0.041943918390100247 0.17841775065417204 -0.03367273177436484 0.023355437636825002 -0.026526451399989322 0.096318522188837394 0.40129234701530364 0.14236903044990121 0.041123111038209544 -0.017843771627393805 -0.037397039171186156 -0.0083442800037985716 0.30767480300697148 0.1333662127862299 0.036094428169713824 0.02919395624218913 0.033290749947168914 0.077690198160966381 0.049111365634586068 0.46083849048295383 -0.03566960804990827 0.15073260201954722 -0.035407454906223934 0.016681856979399317 -0.039318738537666591 0.060756754320971045 0.12752277943489268 0.59590436989589401 0.18397273269791378 0.0081176584259465071 -0.12909304304857602 0.036003068658402075 -0.0250226429301783 -0.069022057524884994 0.15047583162318384 0.081572451486068773 0.035063375173948239 0.033837072571988702 0.0017433918121343519 0.2772393828054327 0.1021200204361877 0.35242533291151085 0.12269000762178392 0.10686146570320207 0.11791862465869825 0.14859028832018306 0.14427558739818575 0.090779946162081807 0.27623072977492974 0.14757784277918673 0.10714420575057965 0.030577849257617321 -0.02549877107050676 0.16563560274433262 0.12100241703735175
leaf_weight=196.02344061341137 716.58422769838944 5.4193006600253275 80.192113783676177 9.6364782575983536 53.987496021669358 3.9946252361405632 29.359912305371836 15.736338605405765 6.5880944435484734 265.76536657521501 3.9395262449979773 8.7278134517837298 131.68646574462764 252.11878450028598 809.04911843803711 159.63848539674655 122.77932251640595 31.159242010675371 18.346783930901438 76.521454214351252 1.0412036965135509 20.782396165654063 76.319929257966578 238.78077940666117 65.035697221523151 72.011016650591046 21.979304033797234 70.968275797087699 2782.4703109508846 145.46302818111144 219.00643318565562 97.464765668846667 28.984447362832725 13.976412847172467 146.16750412620604 19.479691618587822 224.03558349935338 38.626037866575643 51.199321133783087 201.26608529710211 156.75004273699597 2.9490464117843684 49.154690037481487 54.054801717400551 44.617361814249307 137.87080435361713 14.749750246293841 219.61664150911383 31.569762265309691 32.406501631019637 2889.1543559285346 105.62410101317801 53.815316290128976 24.456268049776554 222.87834051903337 24.8314702892676 63.612729465821758 160.23138975678012 132.13551099807955 32.180718739284202 79.616134019335732 29.740575212752447 10.226360514992846 89.431396122323349 82.939329126849771 108.29623676510528 15.844596890965475 39.549779574852437 37.322883254149929
leaf_count=44717 459 32 402 1418 130 186 3381 552 175 6176 39 63 3068 246 620 2801 20226 2072 4042 2582 8 240 3899 32701 3441 3974 68 196 1009 248 287 524 27 109 3740 26 43864 3524 376 1513 1667 79 16 55 832 489 1915 2064 668 471 1126 233 4489 141 1828 233 555 2794 486 1273 890 551 22 214 36 1852 1488 12 528
internal_value=0.0498371 0.0820586 0.0385818 0.0896572 0.0326577 0.0982943 0.104231 0.154575 0.344305 0.134761 0.0938467 0.435375 0.032573 -0.01504 0.0658139 0.122652 0.0270088 0.146254 0.00769716 0.075671 0.0650195 0.115609 0.0454715 0.0105939 0.0698513 0.04303 0.124462 0.0351242 0.0448921 0.026884 0.0926333 0.146263 -0.0126798 0.20405 0.0143403 0.31988 -0.012842 0.126533 0.0451877 0.0363382 0.15463 0.284162 0.034544 -0.0054144 -0.0561298 0.0880168 0.128957 -0.0543952 0.234971 -0.00765195 0.0377726 0.0856191 0.132305 0.117925 0.138797 0.196432 0.145978 0.0812797 0.150335 0.242067 0.191343 0.151231 0.118127 0.101224 0.0550097 0.0688365 0.0925962 0.129323 0.072924
internal_weight=12477.9 3221.8 9256.14 3025.78 401.841 2623.94 2419.56 402.408 31.0522 371.355 2017.16 24.4642 7592.64 383.805 1663.5 769.418 204.372 68.1483 333.693 1247.74 1040.86 283.274 757.582 315.302 442.279 102.793 367.361 7208.83 3286.31 3922.52 503.835 201.889 634.456 104.424 385.855 33.4561 279.705 206.882 239.688 266.302 180.481 23.7314 3288.07 244.135 98.6722 854.455 740.058 248.601 36.9891 155.186 3043.93 154.779 725.309 565.67 351.623 128.745 103.914 214.047 168.256 36.1202 101.595 30.7818 175.978 165.751 301.946 188.488 79.4573 49.1863 55.6697
internal_count=220168 202128 18040 157411 51336 106075 83948 8110 790 7320 75838 615 16472 3314 1568 19625 22127 2772 48564 56213 50891 6519 44372 35283 9089 4533 7134 13158 2187 10971 1178 855 8461 331 6370 135 48434 5322 2630 4954 1986 319 2510 1135 887 948 16244 2091 700 20697 1375 249 14329 11528 4245 2417 2184 7283 1798 1312 958 559 4135 4113 323 2254 2043 1430 4570
is_linear=0
shrinkage=0.0346294


Tree=8
num_leaves=70
num_cat=0
split_feature=8 20 28 17 9 13 2 25 9 11 11 11 16 8 17 17 17 17 5 6 2 17 8 11 17 17 14 20 20 18 6 14 10 13 14 8 18 18 5 10 10 8 16 5 11 10 9 12 11 11 16 18 5 13 13 8 25 11 10 18 11 17 12 18 18 6 14 6 9
split_gain=1843.8 1797.67 1229.75 1147.68 1127.87 954.589 738.941 1105.47 976.484 735.194 718.037 716.091 860.035 712.864 699.505 1502.88 736.822 685.386 666.115 1004.97 556.501 527.785 509.022 487.77 484.863 678.245 469.249 472.416 456.689 454.018 424.286 415.697 405.481 533.179 392.626 505.971 582.795 375.567 370.434 358.265 821.832 567.946 593.388 426.538 350.13 344.288 314.923 314.424 309.948 576.906 342.055 301.627 359.487 515.343 355.298 292.189 291.788 289.551 283.556 262.419 261.631 257.426 257.158 245.008 633.614 454.663 236.493 231.167 226.146
threshold=58.275000000000013 5092.8400000000011 2.5000000000000004 5.1944618055555569 -13.529999999999998 19.525000000000002 55.035000000000004 4617.6000000000013 2.9200000000000093 4.3600000000000083 0.11000000000000833 42.580000000000005 11.15 -6.794999999999999 -6.3634201388888902 2.0923263888888912 7.5476562499999966 4.8235937500000015 17.657209354048444 136.81000000000003 18.795000000000005 4.9020486111111117 4.3800000000000026 11.909999999999984 9.5576388888888903 9.2938368055555571 -1.7599999999999987 5293.5350000000008 10088.065000000002 1.8500000000000016 1534.1150000000002 9.1800000000000068 -0.12500000000000219 130.36500000000004 36.225000000000009 6.0700000000000021 0.49999999999999739 1.0000000180025095e-35 96.749816150747321 -0.0024999999999999177 0.004999999999999922 -3.6150000000000015 9.4500000000000011 5.6741942539047381 2.1599999999999988 -11.384999999999994 0.69999999999999962 1.0000000180025095e-35 12.995000000000006 10.629999999999999 18.950000000000003 -1.1499999999999984 4.2631653139728796 31.575000000000003 23.105000000000004 40.405000000000008 3612.9150000000004 14.000000000000005 2.9587500000000109 -0.20000000000000009 207.88000000000002 5.6732291666666663 9.8450000000000024 0.14999999999999861 -0.19999999999999948 139.42000000000004 10.435000000000004 618.30500000000018 12.840000000000003
decision_type=8 2 2 2 8 2 10 2 10 10 10 10 2 10 2 2 2 2 10 10 10 2 10 10 2 2 10 2 2 2 10 10 10 2 10 10 2 2 10 10 10 10 2 10 10 10 10 10 10 10 2 2 10 2 2 10 2 10 10 2 10 2 10 2 2 10 10 10 10
left_child=1 5 6 26 9 -1 14 30 17 -2 -7 12 57 66 18 29 20 -9 19 22 -17 -14 -3 44 25 39 27 -4 32 -16 45 -19 37 61 38 36 -36 47 58 46 -41 42 -42 -43 -23 -8 51 -5 49 -29 -50 54 53 -53 -15 -28 -35 -6 63 -54 -45 -34 -25 64 -22 -66 -12 -20 -13
right_child=4 2 3 28 11 10 7 8 -10 -11 13 68 21 24 15 16 -18 31 67 -21 34 23 -24 62 -26 -27 55 48 -30 -31 -32 -33 33 56 35 -37 -38 -39 -40 40 41 43 -44 60 -46 -47 -48 -49 50 -51 -52 52 59 -55 -56 -57 -58 -59 -60 -61 -62 -63 -64 -65 65 -67 -68 -69 -70
leaf_value=-0.032018443136903066 0.094806697836865711 -0.026372630797865178 0.315345254904012 0.18192728145158865 -0.033661918884378195 -0.031856282991922717 0.040899306618716942 -0.045803697725126033 0.040333276399923935 0.039817182879384877 -0.03994209303854418 0.010318079294191502 -0.03243974406854485 0.22265433420169331 -0.026795480542182993 -0.031129777502562805 -0.0096901396009112951 0.068011427479954908 0.0039124350324865349 0.37136476386383144 0.12575337017133539 -0.035363974000875972 0.15551092413277212 -0.076340277330117681 -0.032061965861062199 0.32254247212927528 -0.037139592127590167 -0.032521377298222319 0.2432879106988883 0.072528419232297567 0.030902085037180897 0.26038496925214455 0.047212629996970998 -0.00057669762237071533 0.085390195195387195 0.054377741934605352 0.42263785774762919 0.048775841451237471 -0.043872744683731965 -0.03187095207186489 0.3249510615913454 -0.029465350469543777 -0.016373475524396816 0.10055773311111389 0.091669166212583364 -0.069838379139682036 0.26372833267923618 0 -0.066943380255678003 0.1056592038896281 0.023629674097136583 -0.021348041371945459 -0.027202699056741619 0.2183624584790784 -0.017961826473118728 0.050836007926379656 0.079711560488813268 -0.12962611045224723 0.060570419587860275 0.10373931067246193 -0.034192371957124622 -0.051161357336697598 0.021201338487302122 0.10005942222646461 -0.0074095094144038722 0.4008388070807139 0.069392706916798455 0.095571727789562813 0.037036531867225185
leaf_weight=68.362294946797192 595.76794697809964 19.355438560014591 2.3523994751740238 66.214245830196887 115.9735108318273 47.363519940990955 44.279019529931247 11.842670486541463 142.69932755711488 599.0654291799292 52.724326622439548 422.95736832288094 159.05841359356418 55.922390513587743 209.03869081451558 28.751855263952166 67.022079336922616 22.814334674738348 42.649369762977585 23.417163727805018 102.06633066292852 26.931188537972048 131.69199563725851 39.168852994218469 27.131709755631164 14.724028548225759 389.55446262937039 52.668017304269597 12.003942154580725 70.097312975442037 393.11774356896058 63.280076061375439 42.150640024803579 68.884816753678024 13.659790505655112 19.08280371921137 15.476107957772909 102.10516322846524 16.015763632953167 60.243170147994533 20.78186743659899 30.982758132973686 7.0897724481765172 621.04119972372428 190.17783253616653 106.21087489812635 18.282802890287712 14.288098911521955 70.73286747187376 97.863392117898911 144.75509445089847 11.292461669770999 16.51423748023808 65.724219164578244 7.1375122526660553 46.785573244327679 226.23119072569534 57.279814369976521 108.34919553296641 578.75436217174865 15.09743719967082 96.563619639724493 122.23899260303006 180.93659038166516 3.3433110802434411 16.424540541833267 36.154908162541687 175.59940477414057 4966.0340610025451
leaf_count=15931 206 3475 279 498 880 7635 123 558 388 274 6674 455 775 353 30912 5625 4034 74 1530 99 1857 197 1028 175 1930 208 57103 8691 342 1713 336 206 1250 323 166 163 97 1258 565 9914 418 5002 1180 9086 273 3676 131 417 3076 515 756 1614 1650 517 677 262 246 331 1148 7154 306 7754 84 2462 501 143 841 376 1272
internal_value=0.0480411 0.0637913 0.0491641 0.0244357 0.0367399 0.0923992 0.0665257 0.0397111 0.10084 0.0675317 0.0975474 0.0306545 -0.00192112 0.101398 0.0831971 0.0647946 0.0967797 0.182948 0.121741 0.172439 0.111021 0.0196739 0.131713 0.0418566 0.106852 0.109451 -0.00291264 0.0256178 0.059335 -0.000904376 0.0119541 0.215797 0.0539809 0.0349314 0.119954 0.215129 0.297889 0.0970447 0.107014 0.106414 0.0880847 0.0987057 0.245634 0.0909303 0.0752436 -0.0366161 0.124091 0.151914 0.0199239 0.0573474 -0.00654596 0.119012 0.110582 0.183174 0.195079 -0.0271571 0.0610228 -0.0681288 0.11344 0.0998314 0.0970519 -0.0203042 -0.00346335 0.131034 0.171527 0.340242 0.00501376 0.0783675 0.0349612
internal_weight=12510.4 5215.7 3460.38 1433.15 7294.65 1755.32 2027.22 784.244 240.636 1194.83 1686.96 6099.82 710.829 1639.6 1242.98 850.264 571.128 97.9371 392.713 174.465 504.106 537.575 151.047 378.517 1550.72 1523.59 804.712 368.372 628.442 279.136 543.608 86.0944 616.438 433.83 475.354 48.2187 29.1359 182.608 427.136 1508.86 755.236 694.993 27.8716 667.121 217.109 150.49 753.628 80.5023 366.019 150.531 215.488 735.345 672.285 77.0167 63.0599 436.34 295.116 173.253 411.12 595.269 636.139 138.714 161.408 302.771 121.834 19.7679 88.8792 218.249 5388.99
internal_count=220168 215246 144025 82770 4922 71221 61255 5361 1226 480 55290 4442 2715 47655 55894 49386 16761 838 6508 4602 12727 1504 4503 729 40140 38210 70682 13317 12088 32625 4135 280 11746 9573 7102 426 263 2173 6676 38002 25906 15992 1598 14394 470 3799 12096 915 13038 9206 3832 11965 10935 2131 1030 57365 569 1211 6111 8804 9392 9004 259 4963 2501 644 7515 1906 1727
is_linear=0
shrinkage=0.0346294


Tree=9
num_leaves=70
num_cat=0
split_feature=3 27 10 2 15 27 11 21 8 27 11 11 26 10 12 6 19 11 25 8 11 11 12 27 11 3 11 6 23 10 10 14 11 8 6 11 2 3 1 8 14 8 8 13 10 15 10 25 26 8 14 8 2 3 11 15 8 2 14 22 13 11 26 2 12 15 22 12 2
split_gain=2444.66 1834.59 930.275 852.011 696.762 675.65 634.975 628.712 589.397 575.354 528.709 1114.31 495.887 492.511 491.189 454.546 444.284 436.006 429.438 893.611 783.287 1015.5 663.898 399.91 374.144 352.769 347.218 433.798 335.243 331.731 360.505 363.711 329.799 385.843 321.753 575.429 328.483 282.389 457.069 382.534 286.552 279.891 278.347 274.4 268.06 350.806 265.101 260.323 251.651 250.922 242.829 238.332 233.316 220.717 353.667 219.032 196.103 195.697 326.66 193.561 191.342 190.732 190.639 190.325 189.169 199.574 185.497 240.573 173.229
threshold=55.60125000000059 4.5000000000000009 -7.441249999999985 18.745000000000001 7.3500000000000005 19.500000000000004 0.59000000000000041 3270.0975000000003 289.83500000000009 21.500000000000004 45.535000000000004 38.890000000000008 -14.615000000000007 -16.152500000000003 -0.13000000000000209 41.155000000000008 5.4635748852601358 4.3600000000000083 3101.3550000000005 58.275000000000013 38.890000000000008 14.000000000000005 1.0000000180025095e-35 5.5000000000000009 0.75000000000000056 37.562500000001371 8.2750000000000039 167.34000000000003 47.533350000000006 5.5425000000000297 -0.0074999999999998115 -487.61999999999995 4.4500000000000011 6.7600000000000042 366.49500000000006 86.545000000000002 38.135000000000012 29.827500000000146 22.905000000000005 -2.9299999999999984 5.1500000000000048 -500.16499999999996 3.0500000000000029 48.815000000000005 5.8250000000000108 18.850000000000005 -0.025000000000000241 4711.8250000000016 -300.81499999999954 1.3900000000000017 -11.819999999999993 2.3149999999999999 20.465000000000003 78.507500000001372 48.390000000000015 27.350000000000005 12.300000000000004 24.795000000000005 -58.949999999999996 -385.98999999999972 14.195000000000002 494.05000000000001 -17.925000000000178 20.195000000000004 -12.335000000000006 21.550000000000004 -714.8549999999999 18.309999999999992 36.495000000000012
decision_type=8 2 8 10 2 2 10 2 10 2 10 10 2 10 10 10 2 10 2 10 10 8 10 2 10 10 10 10 2 10 10 10 10 10 10 10 10 10 10 10 10 10 10 2 10 2 10 2 2 10 10 10 10 10 10 2 10 10 10 2 2 10 2 10 10 2 2 8 10
left_child=1 -1 17 4 24 18 12 10 41 14 11 15 62 -6 25 -8 42 -2 20 47 21 22 26 59 -3 34 27 28 -4 30 -22 -32 33 -18 35 36 37 38 39 40 -9 -7 -16 -14 45 60 -41 -20 -27 -39 -12 -37 -35 54 -31 -17 -46 58 -19 -15 -34 -36 -5 -47 -51 -66 -23 -68 -44
right_child=2 3 5 6 13 8 7 9 -10 -11 50 -13 43 23 16 55 32 57 19 -21 29 66 -24 -25 -26 48 -28 -29 -30 53 31 -33 44 52 61 51 -38 49 -40 46 -42 -43 68 -45 56 63 -48 -49 -50 64 -52 -53 -54 -55 -56 -57 -58 -59 -60 -61 -62 -63 -64 -65 65 -67 67 -69 -70
leaf_value=-0.034232921877051417 0.08267405363385967 0.17635872870271321 -0.031354208986229565 -0.02007867939431077 0.094517197041512527 0.0016438625181035517 -0.026418220731093105 0.2224575150603616 0.028186595158675748 -0.034279836671886471 0.082545667117395471 0.4016192056002309 -0.033925178696620817 0.10049935809889352 -0.024737960680267866 0.10659489585116552 -0.033321137423527034 0.030272784703330533 0.1891250185094322 0.035013323648811052 0.026579294433884643 0.019841842895489712 -0.041408476753021041 -0.035388642015824506 0.020544132657194875 0.14403184216684581 0.08921856659465903 -0.038996748546080338 0.12201345000626471 0.14049571549822004 0.007584062201319729 -0.11996375076089935 0.10301696497604752 0.10805449433294156 -0.026167013841583073 0.34828279897552245 -0.024638171605154531 -0.015665770900729094 -0.028405106140007349 0.10210684345309985 -0.014196423302895654 -0.085478658239904873 0.1283085412193255 0.070311769287447923 -0.035763923996138945 -0.026933526331085044 -0.026197170939905669 0.076895648199238956 0.063212024124074104 0.091868092040429034 -0.034175981397015644 0.14962498684441453 0.0044731222130852018 0.034246518086457414 0.033701926771108434 0.17402326405475363 0.047520620493118351 0.036253499298965389 0.12482944506320963 -0.026285655395045533 -0.033079204390532975 0.087309419687825282 0.13607667938011667 0.090933271392514919 0.078825837571352794 0.26105390641823567 -0.093323921158601636 0 -0.02212001804794729
leaf_weight=185.04085911810398 660.74153110338375 47.72061312245205 22.076750809326768 9.4324969570152444 58.29680442949757 65.041792395524681 19.187727277167141 47.716857251012698 202.54147870209999 48.666268075117841 94.492274362593889 16.3696194794029 117.71835195110179 42.272415212355554 14.494649596512316 171.94084084709175 94.250669000204653 96.24675084091723 25.220788113540038 2641.723710043123 178.19368567853235 24.495147378183901 127.0164122255519 213.07965250080451 32.163809260819107 55.693225048948079 146.18002456566319 81.775640290929005 49.18082845932804 59.893268787767738 53.361967325210571 46.965082983253524 11.913504843134431 54.408133595250547 17.567848454695195 19.244656416587532 16.191498012281954 6.3013983701821408 26.752915310207754 118.83176377485506 5.8292714746203265 124.1646349222865 201.13913656282239 35.835710406070575 38.186606449773535 14.314564277650787 20.1865261036437 528.26227816124447 353.94191691908054 28.649519363651052 23.79243371495977 31.437474539736286 49.985578033840284 2800.2159712945577 102.74036359693855 141.3454528292641 163.91502011846751 720.24435640918091 86.379079464823008 17.728767991065979 47.872572532854974 128.84397146641277 46.18386217020452 523.79062418523245 15.237132606329395 48.605846423422918 169.94843359687366 39.475139328744262 7.6413364110048851
leaf_count=44717 486 700 1417 1418 130 194 2772 665 157 7386 49 51 19405 560 1544 2565 15415 48 92 1037 300 17 2842 43864 2072 175 458 1685 111 40 55 839 204 562 1999 246 2199 760 3611 1960 873 3023 1166 1292 1673 2006 3610 1139 3249 59 894 189 4389 1146 210 1779 904 532 96 4010 6358 224 12 12862 461 646 2048 68 443
internal_value=0.0462924 0.0709654 0.0367592 0.0769219 0.0296451 0.0316351 0.0835783 0.0881259 -0.0124021 0.0800094 0.125333 0.146935 0.0244376 0.00674865 0.0826733 0.129211 0.0675369 0.0611048 0.0340809 0.0435422 0.0262766 -0.00798521 0.0237046 -0.0129424 0.11865 0.101862 0.0517491 0.0140882 0.0745884 0.0332753 -0.00260985 -0.0540117 0.0570776 0.0162818 0.121104 0.138255 0.118531 0.126246 0.0999686 0.118356 0.196469 -0.0558362 0.112067 -0.00793949 0.0669871 0.0787166 0.0828079 0.0835497 0.0757427 0.177328 0.0581759 0.247661 0.0611892 0.0366688 0.0760298 0.139171 0.0310591 0.0449314 0.0771874 0.062809 0 0.072915 0.109003 0.0874918 0.19124 0.226249 -0.0653747 -0.0758369 0.12217
internal_weight=12536.3 3484.21 9052.09 3299.17 411.262 7488.47 2887.91 2678.74 391.748 2211.61 467.128 348.844 209.17 331.378 2162.94 332.474 1221.91 1563.61 7096.73 3195.21 3901.52 660.148 426.23 273.081 79.8844 941.032 299.213 153.033 71.2576 3241.37 278.521 100.327 998.637 198.644 531.397 384.985 334.303 318.111 219.317 192.564 53.5461 189.206 223.275 153.554 799.993 597.891 139.018 553.483 409.635 98.7939 118.285 50.6821 104.394 2962.85 162.634 313.286 202.102 902.87 182.626 60.0012 59.7861 146.412 55.6164 538.105 92.4925 63.843 233.919 209.424 208.78
internal_count=220168 202128 18040 157411 51336 16878 106075 83948 3374 75838 8110 7167 22127 48564 68452 7116 47526 1162 13504 2268 11236 8646 6513 48434 2772 20926 3671 3213 1528 2590 1194 894 44373 20366 17502 15279 14844 12645 10719 7108 1538 3217 3153 20697 24007 21430 5570 1231 3424 1926 943 435 4951 1396 250 4344 2577 676 144 4570 6562 2223 1430 14868 1166 1107 2133 2116 1609
is_linear=0
shrinkage=0.0346294


Tree=10
num_leaves=70
num_cat=0
split_feature=0 27 0 27 28 15 15 11 18 17 17 27 4 16 6 15 2 16 10 15 4 6 23 16 4 7 11 7 10 10 10 17 13 17 7 11 6 12 17 11 12 13 2 18 10 17 7 11 25 17 10 10 17 25 27 10 0 15 16 11 11 6 15 27 1 6 12 4 6
split_gain=3495.06 1754.22 908.014 738.69 675.815 974.954 675.4 672.138 621.862 537.336 1274.39 878.459 798.246 636.848 1058.87 573.534 546.016 530.569 504.09 1069.4 488.146 487.506 476.172 411.743 377.642 380.18 401.649 347.572 408.448 728.591 1207.31 607.616 454.143 407.272 331.217 322.558 321.041 396.85 863.576 718.63 299.882 624.651 286.05 428.413 281.976 276.156 275.705 270.016 261.759 257.707 253.136 576.243 249.362 230.372 251.26 224.539 213.967 208.928 194.353 191.678 184.197 182.989 270.348 201.735 187.158 179.124 175.524 171.069 519.206
threshold=88.925000000000026 4.5000000000000009 137.65500000000003 21.500000000000004 2.5000000000000004 23.250000000000004 40.350000000000001 0.60999999999999976 -0.54999999999999882 -6.3634201388888902 -0.88592013888888654 5.5000000000000009 51.389166666666675 8.5500000000000025 238.05500000000004 24.950000000000003 25.955000000000002 21.250000000000004 -9.0624999999999734 37.250000000000007 25.162604166666672 416.18000000000006 24.940200000000004 23.850000000000005 26.616302083333334 1.3799999999999997 4.4500000000000011 -3.3400000000000016 5.0675000000000114 2.8399999999999892 3.3475000000000299 5.2784375000000008 22.335000000000004 5.428072916666669 22.32500000000001 893.85500000000013 182.52000000000001 0.079999999999998642 -9.4335416666666649 1.1700000000000006 6.6500000000000083 32.605000000000011 26.585000000000004 0.099999999999996106 7.6975000000000122 8.1890451388888916 -0.58000000000000085 0.25000000000000183 3304.9650000000006 5.0459027777777807 26.232500000000005 -4.6000000000000094 6.779340277777778 4617.6000000000013 18.500000000000004 19.467499999999998 19.485000000000003 37.45000000000001 21.050000000000004 12.995000000000006 11.630000000000001 42.95000000000001 27.050000000000004 10.500000000000002 20.035000000000004 112.89000000000001 -77.97999999999999 94.64838541666667 182.52000000000001
decision_type=10 2 10 2 2 2 2 10 2 2 2 2 10 2 10 2 8 2 10 2 10 10 2 2 10 10 10 10 10 10 10 2 2 2 10 8 10 10 2 10 10 2 8 2 10 2 10 10 2 2 10 10 2 2 2 10 10 2 2 10 10 10 2 2 10 10 10 10 10
left_child=1 -1 18 4 6 20 9 -4 -7 22 23 12 -12 15 16 -13 52 27 -2 34 -6 40 36 -11 25 26 -17 35 29 32 31 -31 -29 -30 65 -10 37 -3 -39 -40 58 -42 43 -22 -41 -26 -23 -34 -36 -28 51 60 56 54 67 -5 -15 -56 -16 -55 -9 62 64 -63 -49 -20 -44 68 -53
right_child=2 3 7 55 5 8 -8 50 17 10 11 13 -14 14 21 24 -18 -19 19 -21 42 46 -24 -25 45 -27 49 28 33 30 -32 -33 47 -35 48 -37 -38 38 39 44 41 -43 66 -45 -46 -47 -48 61 -50 -51 -52 53 -54 59 57 -57 -58 -59 -60 -61 -62 63 -64 -65 -66 -67 -68 -69 -70
leaf_value=-0.034138634054654456 0.046817748877705533 0.10771365579085621 0.08181209877022802 -0.03369599697330463 -0.033859308548898862 -0.014041419080740436 0.35892714522725311 0.073061519140971795 0.018645323842099996 -0.035701341014046623 -0.012871558294341076 -0.030593203454018628 0.46835192246529855 -0.027449715517390474 0.10586634522676651 0.13315785363738855 -0.025795661079185819 -0.034147464164744047 -0.0019508278410615683 0.033658568124962457 0.093257429307144174 0.07747743608097106 -0.031276811719184588 0.076164564881307489 0.079998258242021378 0.093324287245043769 0.19547135572361515 -0.029109419126178461 -0.03865164854373538 -0.00057683659574481313 0.13781516489632031 0.65517211392669761 -0.026201483950843138 0.073548911250483087 -0.057544310188810857 0.2421264519644982 0.086032758584247637 0.13689925068376063 0.6294623416501447 -0.01332821010114396 0.30565460377195797 0.10715381254675213 0.085965085626721296 -0.032414815088089681 0.25154859960159015 0.16430566892336998 -0.0064726244848150889 0.11483689064003573 0.0081831230544854826 0.43377807381639805 0.036652119954154239 0.04712968959779907 -0.031280465595298568 0.080500392945781096 -0.092174894230352439 0.064499467988367434 0.07562761275180345 0.020668314579806241 -0.026447314836598141 0.015523152971090392 0.033918011238935543 -0.024387404389893372 0.037894904541826972 0.097369485712625173 0.24009615763465408 -0.098630808969217762 -0.035203684063322041 0.014054408564043504 -0.057749672423605083
leaf_weight=186.14663883228786 208.85768581507728 144.2623249005992 344.55352033511735 97.278968347469345 159.75470556411892 86.174644576385617 7.2757792528718701 193.98086704313755 135.30741690704599 143.4888825470116 5.2608848777599624 29.47305111726746 9.2470990212168527 23.741954933851957 271.58807347621769 84.143210253678262 152.89503155229613 43.082071791635826 28.79857924580574 334.48139997571707 141.84412282309495 175.41835523350164 21.089217978063971 49.411488907877356 306.73940387787297 91.419696471421048 43.861229904694483 31.349211029708385 43.664173993747681 1.8040300512220699 57.806786669651046 5.5915971291251481 17.049481267109513 210.922389971558 133.01060861791484 4.0641249427571884 163.21316498727538 94.61023759492673 5.9755105173680958 4.9775671651586917 28.639789855806157 69.75109467911534 13.487554295919834 38.591345798689872 19.233379271347076 60.723271081224084 60.811384977772832 52.67726308805868 149.32080812007189 10.243603996932505 4690.9816727936268 82.597719475626945 32.770209221169353 67.735514380037785 60.167874664068222 34.056200712453574 233.49230290041305 25.166144236922264 11.574000705033539 252.37771151959896 663.99032270908356 14.44985711853951 25.962527473689988 464.41447170241736 36.42425418808125 149.52983550145291 67.605568224331364 501.95380231738091 157.40957264602184
leaf_count=45693 177 2966 273 18106 31791 7554 28 181 3672 18033 950 4167 89 5094 2256 849 8229 3889 86 235 3448 1431 1129 643 2021 726 230 6445 655 166 594 97 2581 506 644 27 1325 458 126 469 71 103 4 4331 31 112 1594 527 258 99 1103 87 4166 128 363 61 5784 17 724 212 206 1968 2076 8194 748 951 7268 536 834
internal_value=0.0438499 0.0689618 0.0303125 0.0736449 0.0762923 0.0588791 0.0883488 0.0347033 0.0744119 0.0868251 0.0782518 0.0877934 0.327626 0.0848614 0.0678341 0.112922 0.0264073 0.0811543 -0.000433941 -0.0131105 0.013058 0.0970422 0.121439 -0.00568509 0.120279 0.156602 0.193903 0.085837 0.0932893 0.107019 0.216558 0.548654 0.0944283 0.0537376 -0.0472019 0.0326936 0.12927 0.15349 0.200538 0.356006 0.121453 0.175987 0.0420392 0.0659079 0.201117 0.0958493 0.0558767 0.10103 -0.0229632 0.270443 0.0322187 0.0217601 0.0541184 0.00559917 -0.00401272 -0.0065236 0.0655762 -0.0588011 0.0999222 0.0303566 0.0431633 0.10495 0.147449 0.0933795 0.175463 -0.083779 -0.0109796 0.00250838 -0.0212023
internal_weight=12369.8 4324.84 8044.91 4138.69 4007.36 1652.03 2355.33 7040.91 1230.74 2348.06 1894.69 1701.79 14.508 1687.29 1060.68 626.603 442.899 1144.57 1004 795.141 421.283 617.783 453.361 192.9 597.13 229.668 138.248 1101.49 962.116 707.529 65.2024 7.39563 642.327 254.587 460.66 139.372 432.272 269.059 124.797 30.1865 381.553 98.3909 261.529 180.435 24.2109 367.463 236.23 610.978 282.331 54.1048 6696.36 2005.38 290.004 1147.41 827.295 131.335 257.234 85.334 283.162 320.113 857.971 593.928 115.064 478.864 89.1015 178.328 81.0931 741.961 240.007
internal_count=220595 214304 6291 168611 150444 86541 63903 3940 39699 63875 57371 38695 1039 37656 29452 8204 23273 32145 2351 2174 46842 6179 6504 18676 4037 1904 1178 28256 24557 23396 857 263 22539 1161 1939 3699 5375 4050 1084 626 3154 174 15051 7779 500 2133 3025 16094 902 329 3667 2564 15044 2177 1837 18167 10878 380 2980 340 387 13513 3351 10162 1275 1037 7272 1457 921
is_linear=0
shrinkage=0.0346294


Tree=11
num_leaves=70
num_cat=0
split_feature=3 27 27 5 3 21 17 14 27 16 28 28 2 17 28 5 9 21 4 9 4 27 27 4 3 4 23 2 12 28 3 18 3 21 5 9 12 4 14 21 4 3 12 2 9 28 9 9 6 29 4 9 16 17 23 8 2 16 6 18 12 26 8 3 28 17 16 6 4
split_gain=1832.4 1486.88 863.983 952.832 784.714 577.192 509.221 466.868 521.115 499.25 752.913 650.378 531.72 692.657 526.007 471.543 430.375 491.936 408.159 343.72 509.064 339.95 332.044 442.904 343.182 316.328 312.012 303.734 286.558 280.85 277.891 275.235 271.355 263.499 396.014 394.395 262.133 231.391 222.134 220.041 211.907 211.625 198.635 330.249 198.461 214.541 197.182 191.402 183.297 266.189 192.998 182.136 181.13 180.421 177.215 174.712 169.692 165.284 463.278 282.41 201.479 176.814 397.989 189.053 232.358 162.499 158.229 155.513 179.005
threshold=48.113750000000955 4.5000000000000009 18.500000000000004 89.626072700718296 19.394999999999968 6376.9737500000001 9.5576388888888903 16.735000000000007 17.500000000000004 23.950000000000003 2.5000000000000004 1.5000000000000002 25.495000000000001 2.9647222222222251 5.5000000000000009 3.5911664277328064 -13.529999999999998 3917.2375000000006 19.286822916666669 11.885000000000002 42.627656250000008 21.500000000000004 16.500000000000004 26.380000000000003 33.09625000000176 24.230156250000004 19.944400000000005 40.145000000000003 2.8300000000000041 5.5000000000000009 100.68125000000086 0.20000000000000198 18.552499999999938 8148.1112500000008 14.767260733672858 17.845000000000002 -35.564999999999991 19.775364583333339 40.189999999999998 6412.1562500000009 57.867135416666677 63.296250000001073 -21.804999999999996 34.215000000000011 38.310000000000002 1.5000000000000002 -19.804999999999993 -0.089999999999998068 41.510000000000012 7.5000000000000009 21.776510416666671 -0.30000000000000043 9.8500000000000032 5.6732291666666663 138.02180000000001 1.4600000000000029 5.1350000000000007 11.750000000000002 542.85500000000013 0.2999999999999981 5.4800000000000031 62.070000000000171 12.300000000000004 54.160000000001354 2.5000000000000004 8.6765972222222292 17.550000000000004 146.22500000000002 22.497135416666669
decision_type=10 2 2 10 10 2 2 10 2 2 2 2 8 2 2 10 10 2 10 10 10 2 2 10 8 10 2 10 10 2 10 2 10 2 10 10 10 10 10 2 10 10 10 10 10 2 10 10 10 2 10 10 2 2 2 10 10 2 10 2 10 2 10 10 2 2 2 10 10
left_child=1 -1 16 54 5 18 7 9 22 12 11 -11 15 14 -14 -6 40 31 56 20 -5 29 27 -24 28 -15 55 38 -25 39 -22 -18 -20 34 -19 -35 -29 -36 42 48 -2 52 -9 51 45 -43 -41 -16 49 66 53 -44 -33 -50 -4 -13 -3 58 59 60 -39 63 -63 64 -59 -7 -17 68 -65
right_child=2 4 3 19 6 65 -8 8 -10 10 -12 26 13 25 47 21 17 33 32 -21 30 -23 23 24 -26 -27 -28 36 -30 -31 -32 41 -34 35 37 -37 -38 57 -40 46 -42 44 43 -45 -46 -47 -48 -49 50 -51 -52 -53 -54 -55 -56 -57 -58 61 -60 -61 -62 62 -64 67 -66 -67 -68 -69 -70
leaf_value=-0.033967192116532888 0.069923293292497274 0.086317523648954272 -0.063121538448065173 0.09855875732961776 -0.030214761357644379 -0.033862590086745838 -0.035425223912867954 0.21613834638705653 -0.030877296799298893 -0.0214388719201195 -0.026670256743839871 0.46842713309754491 -0.03691624886431099 -0.032448300579390077 0.099557735153164503 0.15822940647445605 -0.051007604986418202 -0.046873244799349185 0.093138495827644885 0.033527149784983439 0.010098545121251796 0 0.087228353077250798 0.32823123816802974 -0.013682877593769941 0.075365764183349615 0.086357114300037785 0.095830343464096551 0.089770238398676427 -0.026945176529622777 -0.099970241787432385 0.079540397460370768 -0.027302692825166931 0.097937641206729126 0.11532159913580017 0.03455301166921039 -0.021647930626814773 -0.04789745344608088 0.022190131438283606 0.083570702658533613 0.040435359478378188 0.013732610787306743 -0.025988606350884777 0.20015031124004223 0.031489876996771402 -0.054197148401728963 -0.034164894019629098 -0.026711032460044165 -0.03388977449634939 0.028669778237269399 0.095799605498435331 0.098438909093102683 -0.037174153888068329 0.067487898794084997 0.0057089693922746819 0.20215906410763951 -0.031932940281150297 -0.032116915893001925 0.033977991113996756 -0.058913469324237605 0.041415215836101665 0.13530902165051512 0.024261502521504091 0.061108697885848468 0.1157926872695188 0.064639538038877717 -0.013003264318269139 0.037890972435442906 -0.04517397914894429
leaf_weight=168.9762903584633 708.2587587130256 13.793850378133355 220.4337744442746 26.969476726604626 39.638631304027513 150.86394708650187 43.333808715920895 30.650854690466076 27.045463494490832 10.193020580802111 18.379145168466493 9.2406923661474121 167.79103916091844 31.871125626144931 57.577254202216864 141.20528876711614 88.170295828487724 64.954700266709551 205.7223729188554 726.10243169637397 41.507110874168575 50.367574751377106 46.4497373807244 32.804730311268941 4.5862186311278483 466.64457271643914 13.999228392494841 42.468323742970824 13.169080712832509 21.004625500412658 68.372762660728768 80.631970508722588 22.328018044354394 210.80129867838696 41.596259311540052 287.14137771446258 40.507242067251354 38.500261452281848 29.681099633220583 29.759698271285743 565.51154875662178 110.0929617525544 12.694670382654293 42.669380274834111 154.66399866482243 103.74176784930751 29.695925496518612 15.77644245396368 25.348781543318182 28.926766528747976 733.02971693570726 180.5017673172988 16.106894220924005 70.101345321163535 53.145536156138405 24.069132805336267 68.255019049160182 12.789791637100278 1402.8597826277837 105.76960148918442 97.815743659855798 70.16047687176615 89.003269109409302 23.694902061019093 66.538208035985008 18.644863211549819 5.4055653153918675 3656.3796585167293 54.004835527390242
leaf_count=43906 414 347 4844 37 7539 32178 3801 27 2479 1238 2570 148 17198 3104 402 2600 1008 2909 7127 255 557 6253 723 270 263 7288 341 17 17 3513 496 266 3604 135 101 147 2068 1576 728 13 296 383 534 540 58 1007 3060 2124 3191 2535 14098 1955 494 844 93 135 15334 391 1362 1624 105 42 95 20 397 2136 902 3353 980
internal_value=0.04236 0.0650226 0.0344679 0.00611185 0.0706299 0.0294437 0.078329 0.0803893 0.110868 0.0724265 0.159099 0.217208 0.0686067 0.0449826 -0.00296545 0.0832113 0.0384584 0.0349175 0.0573081 0.0240198 -0.0254599 0.0873282 0.119256 0.178892 0.248443 0.0681277 0.267335 0.101988 0.274773 0.091397 -0.059032 0.00347447 0.0807862 0.0376997 0.0355186 0.0621245 0.0395263 0.0365105 0.118455 0.0938931 0.0570621 0.0143088 0.128417 0.113068 0.00193357 -0.0193556 0.0254485 0.0716137 0.0977572 0.132623 0.0896435 0.0895536 0.0587243 0.0396309 -0.0496429 0.323052 -0.00799561 0.0358274 0.0263408 -0.0174795 0.0150446 0.0397068 0.0758827 0.0380961 0.0907643 -0.0213263 0.151307 0.0368566 -0.0104804
internal_weight=12370.9 3185.17 9185.72 1136.53 3016.2 479.608 2536.59 2493.25 503.229 1990.03 75.8812 57.5021 1914.14 739.66 241.145 1174.48 8049.19 6775.42 310.099 862.952 136.849 1134.85 476.183 97.0098 50.56 498.516 47.3091 379.173 45.9738 1084.48 109.88 553.408 228.05 6222.01 5724.07 497.943 82.9756 5659.11 296.198 1063.47 1273.77 465.238 266.517 235.866 368.499 213.835 59.4556 73.3537 1004.02 175.538 828.48 193.196 96.7389 95.4501 273.579 33.3098 82.0489 5617.52 1644.95 242.086 136.316 3972.57 159.164 3813.41 79.328 169.509 146.611 3734.08 77.6997
internal_count=220595 197150 23445 6282 153244 60726 92518 88717 9621 79096 4432 1862 74664 30116 19724 44548 17163 16453 26412 1345 1090 37009 7142 1273 550 10392 624 5869 287 30756 1053 3216 10731 13237 12955 282 2085 10046 3784 27243 710 2208 3056 3029 1448 1390 3073 2526 24170 6037 18133 2489 760 4035 4937 283 15681 9945 4667 3305 1681 5278 137 5141 788 34314 3502 4353 1000
is_linear=0
shrinkage=0.0346294


Tree=12
num_leaves=70
num_cat=0
split_feature=0 27 0 3 22 11 19 9 19 28 6 27 3 14 22 7 17 20 19 11 11 11 12 27 11 6 9 7 12 9 9 6 0 12 25 17 19 14 9 20 1 25 1 17 4 20 4 11 20 4 17 28 27 9 11 11 12 17 20 9 27 12 0 17 4 4 19 7 3
split_gain=2434.21 1397.57 870.428 592.996 824.706 524.006 472.181 900.626 427.482 430.803 468.698 449.342 391.881 367.553 455.524 345.917 344.402 593.284 525.672 415.493 644.874 436.277 384.675 384.043 493.898 489.258 473.299 380.844 337.031 324.478 611.461 305.53 289.993 699.726 285.279 280.407 269.992 258.338 253.952 249.005 247.19 240.037 246.326 1176.61 238.471 227.626 306.986 280.167 208.676 200.009 199.825 193.267 191.1 262.477 189.079 188.465 240.596 178.542 276.947 217.97 164.861 270.241 162.376 160.683 154.157 156.902 151.947 151.167 144.54
threshold=88.925000000000026 4.5000000000000009 137.65500000000003 19.394999999999968 -252.4549999999999 0.60999999999999976 37.250000000000007 -7.349999999999997 40.250000000000007 1.0000000180025095e-35 60.730000000000011 5.5000000000000009 35.102500000001022 24.165000000000003 4.9100000000000827 22.32500000000001 2.0923263888888912 4747.2350000000015 5.4635748852601358 0.90000000000000402 1.2999999999999983 13.750000000000002 -15.765000000000002 14.500000000000002 14.000000000000005 39.905000000000008 -19.804999999999993 4.9700000000000024 -0.51000000000000101 26.314999999999969 -3.484999999999999 20.245000000000001 20.805000000000003 1.3600000000000001 3304.9650000000006 -0.60630208333333424 2.1534824549501934 -8.995000000000001 1.0000000180025095e-35 6085.2100000000009 18.575000000000003 11759.355000000001 19.805000000000003 2.2711284722222218 66.44192708333334 5884.4650000000011 352.69479166666673 12.995000000000006 3679.2600000000007 51.389166666666675 11.358576388888892 2.5000000000000004 13.500000000000002 -0.5299999999999957 3.0299999999999989 72.760000000000019 25.850000000000005 5.1156076388888883 4400.4750000000013 26.314999999999969 16.500000000000004 -1.8 39.085000000000008 -7.231805555555554 26.990625000000001 22.65697916666667 28.450000000000003 43.64500000000001 369.2112500000012
decision_type=10 2 10 10 2 10 2 10 2 2 10 2 10 10 2 10 2 2 2 10 10 10 10 2 10 10 10 10 10 10 10 10 10 10 2 2 2 10 10 2 10 2 10 2 10 2 8 10 2 10 2 2 2 10 10 10 10 2 2 10 2 10 10 2 10 10 2 10 8
left_child=1 -1 6 4 39 -4 7 67 9 10 31 35 13 32 -15 -9 17 19 36 -13 -21 -22 -20 41 26 -26 -25 -28 40 30 -7 -5 33 -12 -17 37 68 -11 50 -3 -6 42 43 -18 48 46 -40 -47 -14 -37 -32 62 -44 -54 -55 56 -49 58 -27 60 61 -59 -38 -23 65 -29 -62 -2 -19
right_child=2 3 5 8 28 29 -8 15 -10 11 12 16 44 14 -16 34 23 18 22 20 21 63 -24 24 25 57 27 64 -30 -31 38 -33 -34 -35 -36 49 51 -39 45 -41 -42 -43 52 -45 -46 47 -48 55 -50 -51 -52 -53 53 54 -56 -57 -58 59 -60 -61 66 -63 -64 -65 -66 -67 -68 -69 -70
leaf_value=-0.034044447378280419 0 0.091277571826385781 0.074542507979547187 0.098576425023343295 -0.028059221071952821 0.040350067976041924 0.031523875923010661 -0.084323904657680526 0.2553127719599374 0.12390465199462401 -0.014664869532238776 -0.030702251949509873 -0.032222799224824038 0.27189273839674272 0.079605577572299246 -0.060490590686684623 0.5699722880882615 -0.034902670581283088 0.063210898681258051 0.14250022275532509 -0.033318858848710262 -0.030288672812195782 -0.036714744125438264 0.093089219072329518 0.21818507103321083 0.06479357306034278 -0.036136797981750811 -0.025680742958445951 -0.034134996909083969 0.036167975264789862 -0.053039571028667569 -0.033411714644519031 0.095233705142642774 0.44490471690406008 0.0097647630829527255 -0.0049326144086935721 0.079358053314152827 -0.025401493662870821 -0.080686597673452362 -0.026572777555285292 0.099793540073279591 0.0038876226822774792 0.068445289076638022 0.049595550552861065 -0.033613166008663653 0.069902112831877278 0.026644461980117044 -0.057379009857264907 0.083672132248721567 0.28157149968275624 0.061526809641582685 -0.024534241964352846 0.011440944710326695 -0.019754701926699425 0.12361038760181302 0.01788693756649801 0.034053718209302204 0.068061812529021604 -0.037324963966722267 -0.035477310249815937 0.011050355886182627 -0.037429495663950901 0.2083202647111386 0.075531542829429088 -0.03063438739745979 0.095195352570399794 0.088107545202360596 0.062305432398976478 0.07982586657838163
leaf_weight=174.56475723884068 72.972014012746513 190.16785306413658 355.86272580199875 27.197508222656325 25.827814118936658 828.17370030283928 342.94727321714163 170.86207125848159 11.289916225709019 62.161626439774409 5.9048332709353399 43.905327899381518 16.519041352905333 39.127209789119661 31.613511763280258 118.51784958527423 3.2675395053811398 41.486682006390765 53.302048073383048 127.67134925443679 58.384013730334118 15.349037685431538 226.34908924298361 72.754248775541782 22.191276805475354 72.941487616160884 163.79188898787834 13.170645419275386 202.96307205269113 4627.9576155990362 143.41524342447519 58.427270510466769 321.20167593937367 5.2373386721592396 153.93597722798586 2.7178347345907268 82.077844726154581 15.083256751298903 69.562500990927219 21.364337193779647 43.087099687196314 41.802712414413691 398.74742180667818 20.869722464354709 20.670149832963943 93.995439663529396 52.199864268302917 98.137340873479843 427.12408573599532 17.082701859762892 16.67225057631731 12.856646473053841 33.072195275919512 9.5564774044323695 271.51892359415069 437.88302358239889 47.640916749835014 90.300647550961003 49.681893303524703 19.382901134900749 36.231833554338664 37.935902396216989 14.350865258369593 245.37940018880181 18.834280244540423 59.927436503348872 475.96346340514719 132.24808805296198 14.127770595252512
leaf_count=45693 117 5387 273 20 5225 461 255 1029 48 268 869 7293 600 92 251 606 55 2250 178 939 6992 530 26178 77 288 703 19053 1001 44312 1125 696 6927 3821 74 253 376 460 1934 455 4519 1283 1243 6606 830 809 235 25 306 2377 83 12 1149 516 1202 1389 342 10 247 1958 150 981 956 135 2499 1072 595 1808 91 3
internal_value=0.0410446 0.0611189 0.0292005 0.0649454 0.0281992 0.0336352 -0.00103843 -0.0184488 0.0694379 0.0686008 0.0892503 0.0617742 0.0968574 0.122499 0.19634 -0.0461486 0.0590586 0.0413113 0.0119713 0.0674282 0.0774132 0.0496205 -0.0167739 0.0675941 0.0541718 0.0687579 0.0178236 -0.00453951 -0.0115509 0.0313077 0.0186331 0.0105359 0.104274 0.261288 -0.0210364 0.134903 0.0602751 0.0941763 -0.000142822 0.0787888 0.052189 0.0866342 0.0911923 0.198174 0.0735371 0.00781393 -0.0348379 0.0157425 0.0789465 0.245799 -0.0394197 0.0908889 0.0863087 0.107547 0.11829 0.00646305 -0.0269581 0.0632634 0.0230607 0.0704411 0.0739611 0.0361759 0.107297 0.0686714 0.050195 0.0723837 0.0829169 0.0408046 -0.00104852
internal_weight=12329.5 4566.52 7762.98 4391.95 483.41 6771.5 991.483 648.536 3908.54 3897.25 953.023 2944.23 867.398 403.085 70.7407 443.316 2847.18 935.24 444.551 490.689 446.784 319.112 279.651 1911.94 1133.11 804.629 328.478 255.724 271.878 6415.64 1787.68 85.6248 332.344 11.1422 272.454 97.0454 164.9 77.2449 959.507 211.532 68.9149 778.835 737.032 24.1373 464.313 799.419 121.762 677.657 443.643 19.8005 160.087 109.285 712.895 314.148 281.075 583.661 145.778 782.438 122.623 659.815 640.432 128.237 96.4287 260.728 91.9324 73.0981 512.195 205.22 55.6145
internal_count=220595 214304 6291 168611 60726 3940 2351 2096 107885 107837 15840 91997 8893 5107 343 1888 89336 48606 30353 18253 10960 10021 26356 40730 28889 7091 21798 21721 50820 3667 2542 6947 4764 943 859 2661 3997 2202 2081 9906 6508 11841 10598 885 3786 1373 480 893 2977 459 708 1744 9713 3107 2591 658 316 6803 2661 4142 3992 1203 595 3029 2668 1596 2789 208 2253
is_linear=0
shrinkage=0.0346294


Tree=13
num_leaves=70
num_cat=0
