tree
version=v4
num_class=1
num_tree_per_iteration=1
label_index=0
max_feature_idx=30
objective=binary sigmoid:1
feature_names=lmp_lag1 lmp_lag4 lmp_lag96 lmp_mean_4 lmp_mean_96 lmp_std_96 lmp_max_96 lmp_ramp_1h lmp_ramp_4h spread_lag1 spread_mean_4 spread_max_96 spread_ramp_1h dam_lmp_current_hour dam_rtm_gap temp_2m wind_speed_10m temp_anomaly temp_delta_1h wind_chill prc_lag1 prc_mean_1h prc_ramp_1h system_lambda_lag1 rtordpa_lag1 wind_gen_lag1 wind_forecast_error hour_of_day day_of_week month is_weekend
feature_infos=[-147.44:9221.7299999999996] [-147.44:9235.3199999999997] [-104.56:9221.7299999999996] [-63.075000000000337:9176.1500000000015] [-20.965833333333332:9016.4959374999999] [0.042426406871190689:4484.6166657590729] [0:9235.3199999999997] [-8966.4399999999987:6954.829999999999] [-8974.4699999999993:8964.6599999999999] [-392.5:3470.1599999999999] [-353.05249999999933:2488.8900000000003] [-3.7100000000000009:3470.1599999999999] [-2667.6300000000001:2757.8800000000001] [-0.02:8994.6299999999992] [-7721.1499999999996:8466.1499999999996] [-10.9:41.700000000000003] [0:75.700000000000003] [-24.757569444444442:15.300972222222224] [-10.300000000000001:6.0000000000000018] [-17.526205630265622:41.700000000000003] [0:16581.779999999999] [0:16437.190000000002] [-5270.3600000000006:5249.3999999999987] [-31.863700000000001:9001] [0:7177.0160999999998] [0:31981.5] [-8336.4900000000016:15709.1] [0:23] [0:6] [1:12] [0:1]
tree_sizes=2659 2683 2666 2728 2701 2666 2725 2710 2680

Tree=0
num_leaves=24
num_cat=0
split_feature=3 11 10 17 11 8 29 23 12 23 13 13 12 11 8 12 15 25 8 15 29 4 15
split_gain=1.39917e+07 1.3554e+06 1.49619e+06 1.18344e+06 893790 322339 216142 207920 190635 162397 159694 126414 117014 95038.9 94519.5 104890 74196.2 72370 54174.7 51133.6 50890.4 49012.5 48413
threshold=37.239999999999689 22.335000000000004 -2.7499999999995239 2.5667361111111107 10.110000000000003 3.8600000000000008 2.5000000000000004 18.372150000000001 0.34000000000000258 12.0525 21.165000000000003 16.955000000000002 0.59000000000000707 2.9899999999999971 8.4650000000000034 -0.24000000000000152 26.650000000000002 12384.620000000001 21.335000000000004 18.550000000000004 6.5000000000000009 32.972343750000007 31.050000000000004
decision_type=10 10 10 2 10 10 2 2 10 2 2 2 10 10 10 10 2 2 10 2 2 10 2
left_child=3 2 -2 8 5 -5 -6 -7 14 -10 -11 -8 -4 -9 -1 20 21 19 -14 -13 -16 -12 -15
right_child=1 -3 12 4 6 7 11 13 9 10 16 17 18 22 15 -17 -18 -19 -20 -21 -22 -23 -24
leaf_value=-5.2850903422953879 4.6964959971499169 5.4512557739834122 -4.2328597464727649 -5.5120989441220329 -4.8317501060978287 -5.0567783046156469 -5.4694532104119276 -4.621824768334938 -5.2318673584421118 -5.4908412139009517 0.68628859524879271 -5.4694532104119276 -4.641241894193513 1.8900568629892724 0.0112827125069348 -5.4945341778737999 -5.4694532104119276 -5.4694532104119276 0.26139227041599256 2.0722622173664735 -5.4694532104119276 -5.4694532104119276 -5.4694532104119276
leaf_weight=449.55361656378955 117.95151362428442 955.66115688532591 87.51878451090306 103.85877700755373 14.977082777768372 25.790395522490144 5.7074904209002844 9.7835171897895616 45.954633275978267 18.050042912364006 41.856401728000492 2.1309078438207498 10.159559750463815 31.830545999109745 14.817222780548038 21.965063794050366 5.7618076796643427 3.1086185015738002 21.763994235079736 163.22509204037488 4.8091665259562424 3.2172530191019169 2.2102946066297582
leaf_count=105413 2061 12518 18454 24857 3273 5861 1366 2030 10687 4320 3787 510 2120 1699 1054 5257 1379 744 1782 12585 1151 770 529
internal_value=1.08483 4.60035 0.952793 -3.28803 -1.11498 -3.74936 1.14759 -1.35765 -4.62482 -2.89948 -1.5178 1.61413 -3.11482 0.446997 -5.06024 -3.0229 -0.273622 1.84586 -0.850389 1.97853 -0.9799 0.304438 1.49303
internal_weight=2161.66 1193.06 237.394 968.608 362.623 173.474 189.149 69.6148 605.985 114.84 68.8855 174.172 119.442 43.8244 491.145 41.5915 50.8355 168.465 31.9236 165.356 19.6264 45.0737 34.0408
internal_count=224207 36935 24417 187272 53454 34976 18478 10119 133818 20943 10256 15205 22356 4258 112875 7462 5936 13839 3902 13095 2205 4557 2228
is_linear=0
shrinkage=1


Tree=1
num_leaves=24
num_cat=0
split_feature=18 3 8 6 27 15 16 21 6 27 21 6 21 18 28 6 15 16 3 8 0 15 3
split_gain=22988.6 43709 84011.1 24894.6 35549.5 17241.7 26323.9 15069.8 12005.9 9834.8 9017.5 14372.7 8548.71 13000.9 18468.6 7761.98 6051.56 5997.32 5686.64 19695.2 5536.1 5502.28 19536
threshold=0.19999999999999954 37.239999999999689 21.335000000000004 5380.3250000000016 15.500000000000002 9.1500000000000004 12.250000000000002 3642.7787500000004 99.185000000000016 14.500000000000002 3188.4087500000005 95.695000000000007 3243.8687500000005 1.4000000000000015 4.5000000000000009 126.05000000000001 17.450000000000003 16.650000000000002 31.704999999999821 20.225000000000005 284.58500000000009 17.250000000000004 17.442499999999971
decision_type=2 10 10 10 2 2 2 2 10 2 2 10 2 2 2 10 2 2 10 10 10 2 10
left_child=1 16 5 9 -5 -3 -7 -8 -9 12 11 -4 13 -2 -15 -16 21 -18 -14 -20 -12 -1 -23
right_child=3 2 10 4 -6 6 7 8 -10 -11 20 -13 18 14 15 -17 17 -19 19 -21 -22 22 -24
leaf_value=-0.01528963945406254 0.1167902506349439 -0.37333677268930665 1.5294638714192097 -0.043754070485066965 2.4027578867574957 -0.85285198095148629 -0.52836390250230147 -0.91240635139479964 -2.9317051439070472 -0.16850214631007465 -0.35351679838478201 -0.13901594609903242 0.01401283305496206 -0.083180586546249546 -0.02264584440829491 2.3592259320036408 -0.073764750022313377 -0.24341434648539637 -0.51403182779069223 -0.020095135454729993 -0.043707591515535618 2.0019989989619003 0.052185017616495515
leaf_weight=1024.5577101092786 524.11249932879582 51.586537908762693 11.86250985926017 31.8763686157763 17.316772015765309 105.34273754665628 17.082054800819606 19.073860685806721 41.393426842987537 900.28391377674416 291.85542381042615 30.41791069926694 4130.3209854345769 17.875847395975143 3.4153121560811988 11.605217902921138 1852.1701142955571 677.77616572892293 220.38991479063407 1220.0437663453631 261.47854060959071 7.5683574699796727 74.372777797747403
leaf_count=38007 4295 1705 82 202 47 7489 853 1723 4547 17045 4759 377 41785 1407 485 76 67174 18760 7558 4134 924 366 407
internal_value=-0.0653578 -0.15177 -0.469131 -0.0106748 1.00827 -1.23543 -1.45343 -2.12339 -2.46472 -0.0188807 -0.155732 0.476678 0.00321772 0.183896 1.03147 1.97043 -0.0784477 -0.119911 -0.0150007 -0.098087 -0.21017 0.0162111 0.383335
internal_weight=11543.8 4466.54 830.093 7077.24 49.1931 234.479 182.892 77.5493 60.4673 7028.05 595.614 42.2804 6127.76 557.009 32.8964 15.0205 3636.45 2529.95 5570.75 1440.43 553.334 1106.5 81.9411
internal_count=224207 147173 22459 77034 249 16317 14612 7123 6270 76785 6142 459 59740 6263 1968 561 124714 85934 53477 11692 5683 38780 773
is_linear=0
shrinkage=0.0486966


Tree=2
num_leaves=24
num_cat=0
split_feature=18 1 8 5 14 1 21 9 15 17 17 10 21 14 10 21 6 10 10 7 18 18 1
split_gain=17152.2 16383.6 11581 14012.1 8331.72 7749.1 7232.42 6525.18 6028.21 5476.84 8352.58 5861.38 4997.09 4739.31 4732.94 4456.84 3978.95 4575.53 3882.57 3846.98 16146.6 13952.5 4313.08
threshold=0.19999999999999954 37.415000000000006 10.240000000000007 159.2225677585175 14.365000000000004 30.785000000000004 3188.4087500000005 -29.035 1.5500000000000003 1.6021006944444462 5.7859375000000046 -1.9937499999996404 3243.8687500000005 46.945000000000007 59.066250000000373 5256.7487500000016 60.240000000000002 19.446250000000358 -7.2887500000000012 -3.9799999999999929 -1.4999999999999993 -1.5999999999999959 17.185000000000006
decision_type=2 10 10 10 10 10 2 10 2 2 2 10 2 10 10 2 10 10 10 8 2 2 8
left_child=1 9 3 -3 8 -6 13 -8 -2 15 11 -11 -10 -4 -9 19 17 -14 -7 20 21 -1 -21
right_child=4 2 6 -5 5 18 7 14 12 10 -12 -13 16 -15 -16 -17 -18 -19 -20 22 -22 -23 -24
leaf_value=-0.042512992196910675 0.28923418370651294 -0.70092760789268427 -0.13542229999981586 -0.16097166270481963 -0.050465348640260858 0 0.023399221400998232 -0.41837238439554741 0.12490373688344154 -0.0036347041798023153 -0.049765680472027132 -0.31165648964240195 0.030287278204355571 0.62124140662438299 -0.043905892460265945 -0.11174918664435299 -0.047563059024982486 0.8848860667917432 -0.43325690394272215 0.41402138261851701 -0.082893347606520104 2.7432699509092737 0
leaf_weight=6.2632778813131154 170.80761634139344 267.28156122710789 30.081449553195853 207.50815339543624 692.6990733242128 59.856471822655294 191.74097886681557 295.57866694754921 688.1287864408514 188.91839654115029 1260.1745152928052 684.90903574618278 2244.6620553198736 37.493644753005356 114.18400411726907 668.7837799533736 3305.7157419713913 7.7992493673227719 236.55736244947184 56.360472897998989 39.087818311760202 3.6865121552254987 949.03535609785467
leaf_count=252 219 12660 421 1483 5571 81 183 6622 7823 1037 10872 25787 25726 31 290 59810 31681 51 5882 4411 2056 56 21202
internal_value=-0.0576165 -0.12723 -0.288664 -0.471581 -0.0104859 -0.141528 -0.154716 -0.209214 0.00979516 -0.0788182 -0.130847 -0.246026 0.00177466 0.299228 -0.317407 -0.0139118 -0.0135497 0.0362093 -0.34696 0.048157 0.440577 1.68824 0.0256807
internal_weight=12407.3 5001.09 1143.87 474.79 7406.23 989.113 669.079 601.504 6417.11 3857.22 2134 873.827 6246.31 67.5751 409.763 1723.22 5558.18 2252.46 296.414 1054.43 49.0376 9.94979 1005.4
internal_count=224207 147173 21690 14143 77034 11534 7547 7095 65500 125483 37696 26824 65281 452 6912 87787 57458 25777 5963 27977 2364 308 25613
is_linear=0
shrinkage=0.0486966


Tree=3
num_leaves=24
num_cat=0
split_feature=11 2 9 1 1 17 16 21 17 22 11 8 7 2 9 22 9 11 16 2 27 15 21
split_gain=19624.6 18987.8 16523.1 21599.2 10850.7 8919.29 24770.8 6169.81 6677.79 5580.29 5153.97 4977.03 4853.37 4665.73 5098.38 4308.71 5114.25 3850.97 3820.79 3410.19 3324.8 3366.63 3275.82
threshold=24.600000000000005 26.075000000000003 50.255000000000017 36.905000000000008 446.52500000000003 2.2979166666666671 12.250000000000002 3243.8687500000005 2.6188020833333341 404.09999999999974 32.865000000000009 9.9550000000000036 1.3800000000000019 1141.0150000000001 -0.039999999999995588 -33.025000000000084 0.68999999999999873 3.2600000000000011 7.9500000000000011 38.155000000000008 7.5000000000000009 26.650000000000002 4974.8725000000004
decision_type=10 10 10 10 10 2 2 2 2 2 10 10 10 10 10 2 10 10 2 10 2 2 2
left_child=7 10 3 -3 5 6 -5 9 13 11 -2 -1 18 14 -9 -13 -17 -18 -10 -7 -12 -22 -16
right_child=1 2 -4 4 -6 19 -8 8 12 -11 20 15 -14 -15 22 16 17 -19 -20 -21 21 -23 -24
leaf_value=-0.058025147783205888 -0.30471204864191348 -0.15966290577137002 -0.0066389573341429945 -2.0909681851446935 -0.10809500474206395 -0.27030929265037901 -0.57121150077075611 -0.10374516151269249 -0.026957235315335754 1.1750533418452787 -0.24666256302450643 0.08017806273171324 -0.027537777857836374 0.26028860207051535 0.09047709188941809 0.21528264817659912 1.3349273833373698 0.33053731585374768 -0.22107651025692246 -0.58393045121876597 0.0097470795617125728 -0.17353463265981214 -0.0095010517109859541
leaf_weight=261.26087603007909 157.98907293431694 1001.4526395332068 584.72244198364206 28.130067014717497 133.45885996337165 160.98147084400989 132.71219464077149 723.65172282524873 373.53634206450079 4.8460680065327315 142.46153965289705 284.54869776236592 2121.8494744308118 181.22780595265795 1505.632344128273 140.68931568413973 14.466967679327352 29.519004891393706 702.27769949447247 246.68178718152922 2190.2285794855852 259.04690633912105 1584.2536184892233
leaf_count=20939 4248 9087 1036 1676 528 1181 1921 23442 4707 69 7988 807 14560 213 17757 1662 71 186 25557 3388 6639 2450 74095
internal_value=-0.0522642 -0.127347 -0.230793 -0.307185 -0.513405 -0.605415 -0.917278 -0.00443602 -0.0182575 0.129159 -0.0407629 0.110351 -0.0706512 0.0236478 0.0118429 0.20428 0.383523 0.808934 -0.15462 -0.467754 -0.0237411 -0.00995022 0.0392026
internal_weight=12965.6 5037.87 2288.14 1703.42 701.964 568.506 160.842 7927.76 7192.43 735.331 2749.73 730.485 3197.66 3994.77 3813.54 469.224 184.675 43.986 1075.81 407.663 2591.74 2449.28 3089.89
internal_count=224207 40142 18817 17781 8694 8166 3597 184065 160331 23734 21325 23665 44824 115507 115294 2726 1919 257 30264 4569 17077 9089 91852
is_linear=0
shrinkage=0.0486966


Tree=4
num_leaves=24
num_cat=0
split_feature=11 18 19 21 21 12 8 10 10 10 12 14 21 10 0 23 10 1 1 11 11 8 12
split_gain=15418.4 11040.3 7410.65 7362.45 14712.8 10380.1 7077.91 4813.87 4960.34 4706.97 4189.46 3621.12 3470.06 3846.16 3472.44 3668 3371.11 3371.08 3223.63 3047.89 3168.98 3219.27 2856.32
threshold=10.334999999999999 0.19999999999999954 22.950000000000003 4974.8725000000004 4944.1850000000004 0.22000000000000333 1.4800000000000015 -1.9937499999996404 0.77750000000049002 0.057500000000114022 1.1800000000000088 -546.16999999999996 3243.8687500000005 -2.7499999999995239 17.695000000000004 24.538300000000003 0.81250000000010003 26.105000000000004 43.675000000000004 79.370000000000019 22.335000000000004 21.335000000000004 -0.020000000000004899
decision_type=8 2 2 2 2 10 10 10 10 10 10 10 2 10 10 2 10 10 10 10 10 10 8
left_child=3 7 11 4 12 9 -4 -2 -9 -6 17 -3 13 -1 15 -14 -10 -8 -13 20 -18 -22 -15
right_child=1 2 6 -5 5 -7 10 8 16 -11 -12 18 14 22 -16 -17 19 -19 -20 -21 21 -23 -24
leaf_value=-0.62890537735850982 -0.02730307352923339 0.21207375110181068 -0.35620991120435791 -0.048898501386995745 0 -0.054377605471652532 -0.057710483745984899 -0.28357559382675529 0.33264148985594677 2.497797224593866 -0.018365422394078155 0.018494802424464725 -0.051764377527001394 0.37292880902297115 0.021689804582345793 0.65030866133133558 -0.12589029578232933 -0.23072897809965898 -0.31619993817057584 -0.091230377618893216 -0.26229890535892814 -0.77332616531994114 0.11868872500413227
leaf_weight=7.3068432471191036 611.29591020289809 219.72389402781846 214.04278242663713 2139.4214378808247 1.9796716256532798 7.1599562703631818 564.28140800842084 785.77247718491708 28.415615262551 4.7008092927280813 1609.043902298843 1883.4582830323925 26.79390175511071 133.11564505286515 2318.673601845454 35.855502548627555 516.85942556655209 523.28121893378557 63.554017640737584 1137.724296510045 402.94703231146559 28.22855447861366 502.87169099401217
leaf_count=416 2176 50 4061 99859 373 104 3093 24633 185 128 4006 8582 3639 3665 25478 133 7852 4556 802 5548 6050 654 18164
internal_value=-0.0461923 -0.086189 -0.0400893 0.0201125 0.0688174 1.3532 -0.0907858 -0.152535 -0.178682 2.132 -0.0686982 0.0279305 0.0596261 0.159484 0.0321074 0.370767 -0.138705 -0.142242 0.00626924 -0.146413 -0.211091 -0.308694 0.176016
internal_weight=13766.5 8588.63 5077.39 5177.88 3038.46 13.8404 2910.65 3511.24 2899.95 6.68048 2696.61 2166.74 3024.62 643.294 2381.32 62.6494 2114.17 1087.56 1947.01 2085.76 948.035 431.176 635.987
internal_count=224207 72248 25150 151959 52100 605 15716 47098 44922 501 11655 9434 51495 22245 29250 3772 20289 7649 9384 20104 14556 6704 21829
is_linear=0
shrinkage=0.0486966


Tree=5
num_leaves=24
num_cat=0
split_feature=11 20 12 5 12 5 12 4 13 17 1 19 8 8 9 18 11 11 9 29 29 1 1
split_gain=17739.1 11981.1 10254.2 12464.4 27358.2 26116.5 25305.6 8379.08 10414 11195 5162.2 5089.87 8224.47 21872.6 4951.02 4123.22 3885.38 3863.87 3840.51 3334.56 3018.5 2967.95 3658.59
threshold=9.625 5076.9250000000011 0.32999999999999879 5.2015682025191028 -5.2099999999999991 4.9540047688226769 0.009999999999997124 347.66135416666674 26.895000000000003 5.0045659722222213 18.235000000000003 30.150000000000002 7.3700000000000001 6.9700000000000024 2.8400000000000181 0.500000000000001 19.885000000000012 22.335000000000004 0.35999999999999971 9.5000000000000018 10.500000000000002 54.035000000000004 62.405000000000008
decision_type=8 2 8 10 10 10 10 10 2 2 10 2 10 10 10 2 10 8 10 2 2 10 10
left_child=1 2 3 4 -1 10 -7 8 17 14 18 -5 13 -13 -10 19 -9 -2 -6 -11 -16 -14 -23
right_child=7 -3 -4 11 5 6 -8 16 9 15 -12 12 21 -15 20 -17 -18 -19 -20 -21 -22 22 -24
leaf_value=2.2241967443920476 -0.12780771406523764 -0.057334760144689557 0.014310927392069076 0.033234450711610117 -0.044618585535673896 0.55970139628268345 3.0838599108805682 0.22714458690656322 -0.29722297651846147 -0.19621055710283158 -0.060116733530859293 -0.097971849407988421 0.092548187228420703 2.7763574673897717 -0.18914648946764592 -0.022569411525954913 -0.003568587708880609 0.010966229796625267 0.580707721721612 -0.041809985806922911 0 0.8254372774397799 0.20710816183030778
leaf_weight=12.850818399689159 586.31983052764554 1776.0858923776686 1480.5524972963758 657.8688755260664 31.577986620832235 41.879861993831582 7.3099650924559674 266.33353520356468 994.99637724740023 836.62587849548436 149.47196441714186 13.483154209621718 258.18331287812907 3.5323407507967195 843.55407704177196 1760.4889822292607 463.08260600696667 2378.7093881323526 64.686297062435187 565.05588214380259 259.08371113111207 27.339737876667641 97.298910006589722
leaf_count=112 18038 95760 6129 22903 4895 820 228 232 17151 5914 13814 1888 1212 41 7161 3906 931 19576 430 1397 1120 74 394
internal_value=-0.0357402 0.0416451 0.103523 0.199421 0.469148 0.340337 1.28688 -0.0757256 -0.0897792 -0.130885 0.118259 0.11797 0.253491 1.13286 -0.218048 -0.0725933 0.0816046 -0.0166036 0.383443 -0.134743 -0.144828 0.193327 0.383025
internal_weight=13576.4 4622.12 2846.04 1365.48 307.777 294.926 49.1898 8954.25 8224.83 5259.8 245.736 1057.71 399.837 17.0155 2097.63 3162.17 729.416 2965.03 96.2643 1401.68 1102.64 382.822 124.639
internal_count=224126 148700 52940 46811 20299 20187 1048 75426 74263 36649 19139 26512 3609 1929 25432 11217 1163 37614 5325 7311 8281 1680 468
is_linear=0
shrinkage=0.0486966


Tree=6
num_leaves=24
num_cat=0
split_feature=20 3 3 8 12 5 9 6 17 23 27 17 15 8 15 10 9 7 14 3 15 2 12
split_gain=11409.7 8112.6 14218.6 5742.49 4508.04 3944.89 6947.92 4417.76 3830.04 3671.32 3456.45 3257.71 5828.74 5295.19 4912.86 4383.43 3725.4 4881.24 3245.19 4727.86 3705.44 3172.4 2813.37
threshold=5092.8400000000011 119.17125000000011 37.239999999999689 -1.0199999999999985 1.9399999999999999 5.2015682025191028 0.41000000000000109 31.095000000000002 -0.85557804768331136 84.709750000000014 18.500000000000004 2.9419791666666666 30.150000000000002 -0.65999999999999914 26.550000000000004 -0.004999999999942605 1.0000000180025095e-35 -0.59999999999999865 -0.7150000000000033 36.739999999999881 18.750000000000004 21.625000000000004 2.3900000000000099
decision_type=2 10 10 10 10 10 10 10 2 2 2 2 2 10 2 10 10 10 10 8 2 10 10
left_child=3 2 18 21 9 6 7 -5 -9 -4 -3 12 13 14 -7 -13 17 -14 19 -2 -21 -1 -6
right_child=1 10 4 5 22 11 -8 8 -10 -11 -12 15 16 -15 -16 -17 -18 -19 -20 20 -22 -23 -24
leaf_value=-0.0087263909836124975 0.0033554706307097736 0.045431022905790729 -0.31672896924058208 0.0039004369584103638 0.021418964608741719 -0.04155240115117239 0.013879035575189293 -0.094022188864884768 0.38744122108066797 -0.014302746815014842 -0.2496075484081639 -0.27183599649019696 0.77415631765109694 0.0034024361863305421 1.6618712150219392 -0.0053457193071126206 0.056243116499827793 0.21615398266578328 -0.07960343000560631 1.3896512903720875 -0.051265924729191316 -0.16905967857185225 -0.18658684812653345
leaf_weight=618.34395952956402 1212.354401799239 1409.3612242381205 902.29927797318669 133.44137811521068 220.46580765937688 6.042120680504012 755.88751367107034 40.293603357276879 327.52373175451066 109.76254201703705 93.492708025005413 147.44691455192515 47.883209378924221 1207.726554846653 1.6474607666023073 2806.5501029758743 163.56860907946248 154.10118330502883 2912.2751682977105 3.2645431412383896 5.5519206589233363 558.09854879946215 475.47750773359439
leaf_count=15143 28010 2511 21121 9517 357 456 2791 2083 2631 298 1039 3132 79 15771 49 9721 250 326 93298 70 144 12239 3090
internal_value=-0.0325498 -0.0748773 -0.100824 0.0120421 -0.218788 0.0320238 0.108121 0.247353 0.332992 -0.284598 0.0257467 0.0107152 0.0670181 0.0149612 0.927676 -0.019392 0.235548 0.372176 -0.0517004 0.0146411 0.845836 -0.0856431 -0.120662
internal_weight=14312.9 7344.31 5841.45 6968.55 1708.01 5792.11 1257.15 501.259 367.817 1012.06 1502.85 4534.97 1580.97 1215.42 7.68958 2954 365.553 201.984 4133.45 1221.17 8.81646 1176.44 695.943
internal_count=224126 149938 146388 74188 24866 46806 17022 14231 4714 21419 3550 29784 16931 16276 505 12853 655 405 121522 28224 214 27382 3447
is_linear=0
shrinkage=0.0486966


Tree=7
num_leaves=24
num_cat=0
split_feature=11 20 3 3 14 21 11 11 11 11 14 11 9 10 9 7 21 14 11 15 9 9 23
split_gain=13393.8 8648.97 7237.2 18728.2 7559.49 5723.69 4869.38 3778.19 3677.29 3351.42 4729.09 2972.59 2554.67 2518.84 4020.49 2905.29 3300.68 2416.09 3092.56 1886.19 1804.74 1721.75 1614.66
threshold=10.334999999999999 5076.9250000000011 174.7649999999999 37.239999999999689 -0.039999999999995588 5419.442500000001 79.370000000000019 19.375000000000004 21.720000000000002 0.45999999999999958 2.855 22.335000000000004 1.8600000000000001 0.0025000000000707789 0.50000000000000044 -6.9149999999999983 4490.1125000000011 17.035 89.155000000000015 23.650000000000002 3.0500000000000029 0.68999999999999873 27.555500000000002
decision_type=8 2 10 10 8 2 10 10 10 10 10 10 10 10 10 10 2 8 10 2 10 10 2
left_child=1 5 3 4 8 9 11 -4 -2 10 -1 -5 22 -11 15 -15 -17 18 -6 -13 -20 -3 -8
right_child=2 21 7 6 17 -7 12 -9 -10 13 -12 19 -14 14 -16 16 -18 -19 20 -21 -22 -23 -24
leaf_value=-0.092763602916746374 -0.1296211360406834 -0.096235294822178297 0.14883469240322439 -0.11693085020182541 -0.14751124938136126 1.1028631746674076 -0.23029696395164401 -0.019340940090984138 0.063322265386005563 -0.038788957395125633 0.24372691436705332 -0.52427670677328442 -0.10397575684830844 0.5308505010050264 0.030944255408690776 0.012172122174278452 0.23656857681766988 -0.02765484022929331 -0.13638862408508304 -0.29807362082877359 0.0081598137657481612 -0.00064986156818910303 -0.69536394047622685
leaf_weight=118.1991291345912 262.39902750041801 1002.538668143854 470.1078777845396 182.58306677632208 1601.6506037128274 5.732904130825772 252.91236052522436 929.82660915944143 1754.7241549058672 584.71058175999497 485.31967361454736 129.31862885088776 923.71666115149856 44.130851426278241 1597.4109705590236 275.82296810566913 361.73869226675015 1484.2332826359416 286.29296274510853 530.93652709806338 662.81302437488921 814.87508346969844 15.67465191753581
leaf_count=11043 6874 78584 377 5193 26653 142 1592 1811 8982 19282 7098 1643 3236 710 6890 6583 2198 4918 5089 4026 1447 19403 352
internal_value=-0.0299255 0.0320857 -0.0645399 -0.0822395 -0.0390888 0.0771125 -0.209803 0.037363 0.0376819 0.0730351 0.176948 -0.299818 -0.144468 0.0506283 0.0737683 0.172248 0.141242 -0.0775506 -0.10629 -0.348071 -0.0357832 -0.0537371 -0.276133
internal_weight=14777.7 5290.48 9487.19 8087.25 6052.11 3473.07 2035.14 1399.93 2017.12 3467.33 603.519 842.838 1192.3 2863.81 2279.1 681.693 637.562 4034.99 2550.76 660.255 949.106 1817.41 268.587
internal_count=224126 151933 72193 70005 53963 53946 16042 2188 15856 53804 18141 10862 5180 35663 16381 9491 8781 38107 33189 5669 6536 97987 1944
is_linear=0
shrinkage=0.0486966


Tree=8
num_leaves=24
num_cat=0
split_feature=11 20 0 13 17 12 14 14 11 16 18 18 22 25 21 0 16 17 21 22 18 8 17
split_gain=11597.2 7420.61 6427.69 7240.38 6210.9 3947.77 3605.89 3215.53 2970.17 2754.83 2394.21 2302.76 2276.14 2212.25 2095.68 2408.78 1941.3 1939.45 9146.01 11980 2124.83 1895.43 2225.2
threshold=9.625 5327.4000000000005 192.61000000000004 26.035000000000004 6.2244444444444431 0.32999999999999879 -0.039999999999995588 1.9700000000000044 19.375000000000004 24.750000000000004 1.3000000000000027 1.4000000000000015 551.13499999999988 7591.6900000000014 5337.0425000000005 20.215000000000003 33.750000000000007 2.4093229166666696 3421.7400000000002 299.88500000000005 0.35000000000000148 3.9699999999999998 2.9419791666666666
decision_type=8 2 10 2 2 8 8 10 10 2 2 2 2 2 2 8 2 2 2 2 2 10 2
left_child=1 5 3 6 16 7 17 -1 -4 13 21 -12 -8 -6 -7 -16 -5 18 19 -2 -20 -9 -23
right_child=2 -3 8 4 9 14 12 10 -10 -11 11 -13 -14 -15 15 -17 -18 -19 20 -21 -22 22 -24
leaf_value=0.01771780736879916 0 -0.056541957660512503 0.13668097347941688 -0.15144418317580541 -0.016675590166759319 0.0065226914719281881 -0.13078116648452373 0.20149974511926658 -0.012928772732244704 -0.21468914647250928 0.40087129459470638 0.075747564889325547 0.019596828594809379 -0.27984514492613094 0.77029105839754242 -0.075225596841155512 0.03342201188326565 -0.0062707539285209307 -0.13929127849411477 1.8533757995548135 0.095285901491177855 0.13042097797052873 -0.054198049797363493
leaf_weight=568.73354627021763 16.556725302129056 1567.2277796590497 483.30280708681676 3418.5917743021128 2124.9789272860944 1629.5660256108094 695.34054853956331 459.48764784944069 865.0759792876197 195.05942450862494 159.04732338548638 84.872994087054394 353.4157774474952 71.688381942003616 11.064121205476111 10.957089000381531 134.62915485689882 1097.0498345690794 101.95283588305028 8.6674431276041997 550.3517119998869 481.70089651143644 218.60530608073168
leaf_count=25466 717 91536 382 30537 4338 6539 18908 16752 1576 1482 310 2260 2207 900 63 107 120 3546 9049 17 1647 3195 2472
internal_value=-0.0274013 0.0316967 -0.0577617 -0.0729916 -0.103461 0.0699867 -0.00861179 0.116392 0.0408849 -0.0424112 0.155833 0.294525 -0.0799935 -0.0263062 0.0140953 0.423018 -0.14429 0.0335346 0.0978755 0.897262 0.056982 0.124733 0.0723417
internal_weight=15307.9 5191.26 10116.7 8768.28 5944.95 3624.03 2823.33 1972.45 1348.38 2391.73 1403.71 243.92 1048.76 2196.67 1651.59 22.0212 3553.22 1774.58 677.529 25.2242 652.305 1159.79 700.306
internal_count=224126 148700 75426 73468 37377 57164 36091 50455 1958 6720 24989 2570 21115 5238 6709 170 30657 14976 11430 734 10696 22419 5667
is_linear=0
shrinkage=0.0486966


end of trees

feature_importances:
spread_max_96=21
prc_mean_1h=15
lmp_ramp_4h=14
spread_lag1=12
spread_mean_4=12
spread_ramp_1h=12
temp_2m=12
temp_anomaly=11
lmp_lag4=10
temp_delta_1h=10
lmp_mean_4=9
dam_rtm_gap=9
lmp_max_96=6
wind_speed_10m=6
system_lambda_lag1=5
lmp_lag1=4
lmp_lag96=4
lmp_std_96=4
lmp_ramp_1h=4
dam_lmp_current_hour=4
prc_lag1=4
prc_ramp_1h=4
hour_of_day=4
month=4
lmp_mean_96=2
wind_chill=2
wind_gen_lag1=2
day_of_week=1

parameters:
[boosting: gbdt]
[objective: binary]
[metric: binary_logloss,auc]
[tree_learner: serial]
[device_type: cpu]
[data_sample_strategy: bagging]
[data: ]
[valid: ]
[num_iterations: 2000]
[learning_rate: 0.0486966]
[num_leaves: 24]
[num_threads: 0]
[seed: 0]
[deterministic: 0]
[force_col_wise: 0]
[force_row_wise: 0]
[histogram_pool_size: -1]
[max_depth: -1]
[min_data_in_leaf: 85]
[min_sum_hessian_in_leaf: 0.001]
[bagging_fraction: 0.639282]
[pos_bagging_fraction: 1]
[neg_bagging_fraction: 1]
[bagging_freq: 5]
[bagging_seed: 3]
[bagging_by_query: 0]
[feature_fraction: 0.650931]
[feature_fraction_bynode: 1]
[feature_fraction_seed: 2]
[extra_trees: 0]
[extra_seed: 6]
[early_stopping_round: 0]
[early_stopping_min_delta: 0]
[first_metric_only: 0]
[max_delta_step: 0]
[lambda_l1: 7.03467]
[lambda_l2: 7.20313]
[linear_lambda: 0]
[min_gain_to_split: 0.536058]
[drop_rate: 0.1]
[max_drop: 50]
[skip_drop: 0.5]
[xgboost_dart_mode: 0]
[uniform_drop: 0]
[drop_seed: 4]
[top_rate: 0.2]
[other_rate: 0.1]
[min_data_per_group: 100]
[max_cat_threshold: 32]
[cat_l2: 10]
[cat_smooth: 10]
[max_cat_to_onehot: 4]
[top_k: 20]
[monotone_constraints: ]
[monotone_constraints_method: basic]
[monotone_penalty: 0]
[feature_contri: ]
[forcedsplits_filename: ]
[refit_decay_rate: 0.9]
[cegb_tradeoff: 1]
[cegb_penalty_split: 0]
[cegb_penalty_feature_lazy: ]
[cegb_penalty_feature_coupled: ]
[path_smooth: 0]
[interaction_constraints: ]
[verbosity: -1]
[saved_feature_importance_type: 0]
[use_quantized_grad: 0]
[num_grad_quant_bins: 4]
[quant_train_renew_leaf: 0]
[stochastic_rounding: 1]
[linear_tree: 0]
[max_bin: 255]
[max_bin_by_feature: ]
[min_data_in_bin: 3]
[bin_construct_sample_cnt: 200000]
[data_random_seed: 1]
[is_enable_sparse: 1]
[enable_bundle: 1]
[use_missing: 1]
[zero_as_missing: 0]
[feature_pre_filter: 1]
[pre_partition: 0]
[two_round: 0]
[header: 0]
[label_column: ]
[weight_column: ]
[group_column: ]
[ignore_column: ]
[categorical_feature: ]
[forcedbins_filename: ]
[precise_float_parser: 0]
[parser_config_file: ]
[objective_seed: 5]
[num_class: 1]
[is_unbalance: 0]
[scale_pos_weight: 312.534]
[sigmoid: 1]
[boost_from_average: 1]
[reg_sqrt: 0]
[alpha: 0.9]
[fair_c: 1]
[poisson_max_delta_step: 0.7]
[tweedie_variance_power: 1.5]
[lambdarank_truncation_level: 30]
[lambdarank_norm: 1]
[label_gain: ]
[lambdarank_position_bias_regularization: 0]
[eval_at: ]
[multi_error_top_k: 1]
[auc_mu_weights: ]
[num_machines: 1]
[local_listen_port: 12400]
[time_out: 120]
[machine_list_filename: ]
[machines: ]
[gpu_platform_id: -1]
[gpu_device_id: -1]
[gpu_use_dp: 0]
[num_gpu: 1]

end of parameters

pandas_categorical:[]
