tree
version=v4
num_class=1
num_tree_per_iteration=1
label_index=0
max_feature_idx=30
objective=binary sigmoid:1
feature_names=lmp_lag1 lmp_lag4 lmp_lag96 lmp_mean_4 lmp_mean_96 lmp_std_96 lmp_max_96 lmp_ramp_1h lmp_ramp_4h spread_lag1 spread_mean_4 spread_max_96 spread_ramp_1h dam_lmp_current_hour dam_rtm_gap temp_2m wind_speed_10m temp_anomaly temp_delta_1h wind_chill prc_lag1 prc_mean_1h prc_ramp_1h system_lambda_lag1 rtordpa_lag1 wind_gen_lag1 wind_forecast_error hour_of_day day_of_week month is_weekend
feature_infos=[-147.44:9221.7299999999996] [-147.44:9235.3199999999997] [-104.56:9221.7299999999996] [-63.075000000000337:9176.1500000000015] [-20.965833333333332:9016.4959374999999] [0.042426406871190689:4484.6166657590729] [0:9235.3199999999997] [-8966.4399999999987:6954.829999999999] [-8974.4699999999993:8964.6599999999999] [-392.5:3470.1599999999999] [-353.05249999999933:2488.8900000000003] [-3.7100000000000009:3470.1599999999999] [-2667.6300000000001:2757.8800000000001] [-0.02:8994.6299999999992] [-7721.1499999999996:8466.1499999999996] [-10.9:41.700000000000003] [0:75.700000000000003] [-24.757569444444442:15.300972222222224] [-10.300000000000001:6.0000000000000018] [-17.526205630265622:41.700000000000003] [0:16581.779999999999] [0:16437.190000000002] [-5270.3600000000006:5249.3999999999987] [-31.863700000000001:9001] [0:7177.0160999999998] [0:31981.5] [-8336.4900000000016:15709.1] [0:23] [0:6] [1:12] [0:1]
tree_sizes=6659

Tree=0
num_leaves=63
num_cat=0
split_feature=3 11 10 11 17 8 0 10 17 12 6 20 12 15 23 11 6 4 17 2 17 12 14 15 11 28 17 12 29 4 20 7 15 2 13 15 16 4 13 4 4 12 16 15 29 4 13 17 21 16 29 6 4 11 4 14 28 15 17 14 16 12
split_gain=1.61763e+07 2.22196e+06 1.91558e+06 939583 610328 435885 375767 405013 362616 178242 181345 172279 168197 162561 137680 196455 159410 151715 133974 128600 123441 116840 118505 109018 108728 103515 101232 98017 93367.9 88825.5 88715.9 84713.5 81572 78428 81072.8 78134.7 73201.8 72969.2 72809 71152.4 74915.9 66975.1 66937.5 66290.1 183204 64626.2 61873.1 58646.9 79813.1 57049.9 72848.7 58095.5 55965.1 51922.6 60173.1 58968.2 51344.8 50664.6 50381.6 49733.2 49392.9 46140.7
threshold=37.239999999999689 22.335000000000004 -2.7499999999995239 89.155000000000015 1.6021006944444462 3.8600000000000008 86.155000000000015 2.4850000000004155 3.8500000000000001 1.4899999999999991 4810.5100000000011 12851.280000000001 2.4900000000000011 21.650000000000002 20.623550000000005 4.4500000000000028 109.08500000000002 26.257708333333337 8.8463368055555573 38.155000000000008 0.25187500000000368 -0.24000000000000152 -1.2700000000000002 31.050000000000004 4.5400000000000027 5.5000000000000009 2.0772743055555574 1.2799999999999987 6.5000000000000009 16.198645833333337 3343.9700000000007 -17.249999999999993 7.1500000000000012 20.735000000000003 40.165000000000006 25.550000000000004 9.7500000000000018 23.198593750000004 32.455000000000005 17.07494791666667 16.96541666666667 2.7100000000000066 25.850000000000005 30.250000000000004 9.5000000000000018 24.295677083333342 17.035000000000004 3.5141145833333369 3853.5275000000006 9.0500000000000025 2.5000000000000004 287.2000000000001 38.289687500000007 0.21999999999999945 22.532864583333339 10.250000000000004 1.5000000000000002 30.150000000000002 11.739687500000004 -18.044999999999995 19.350000000000005 14.699999999999994
decision_type=10 10 10 10 2 10 10 10 2 10 8 2 10 2 2 10 10 10 2 10 2 10 10 2 10 2 2 10 2 8 2 10 2 10 2 2 2 10 2 10 10 10 2 2 2 10 2 2 2 2 2 10 10 8 8 10 2 2 2 10 2 10
left_child=3 2 38 5 -5 11 7 19 12 10 30 14 21 -10 43 -16 24 45 41 47 37 22 28 25 -17 29 -11 33 56 61 53 -25 -13 46 59 60 -28 -9 -2 40 -26 -19 49 -1 -45 -18 -6 48 -3 50 -31 -51 -36 55 -55 -4 -7 -24 -21 -35 -14 -15
right_child=1 6 9 4 27 8 -8 20 13 26 -12 32 35 23 15 16 17 18 -20 58 -22 -23 57 31 39 -27 36 -29 -30 42 -32 -33 -34 34 52 -37 -38 -39 -40 -41 -42 -43 -44 44 -46 -47 -48 -49 -50 51 -52 -53 -54 54 -56 -57 -58 -59 -60 -61 -62 -63
leaf_value=-5.3758039507899005 -1.9576916465044985 4.0536962200663851 -5.5196638877702551 -5.1626170202089785 -5.5196638877702551 5.2604102719451511 6.2188082177816639 5.7580402719736163 -4.7633872222739031 -5.5196638877702551 3.9938354079563059 6.3868635378473844 -5.5196638877702551 -5.5196638877702551 -5.5196638877702551 4.5874478471220783 -5.5196638877702551 -5.5196638877702551 5.7023380912311836 -5.5196638877702551 5.0279198376579739 -5.4063888667558659 -5.5196638877702551 5.3480681087808577 -5.5196638877702551 -5.5196638877702551 -5.5196638877702551 4.9282799399839199 -5.5196638877702551 6.0804836001821521 -5.3917059478904621 -5.5196638877702551 -5.5196638877702551 6.2001564463640335 -5.5196638877702551 3.2202085697494933 3.4988972281195618 -5.5196638877702551 5.5491504025677862 -5.2349546461707108 5.9787267121364849 2.8623134982270244 -5.5196638877702551 -5.5196638877702551 5.3647280793848253 5.1317352624242343 3.9202741329656074 3.8535910464729284 -5.5196638877702551 3.8575587681570394 -5.5196638877702551 -5.5196638877702551 3.7000009269451866 2.8376483200125797 -5.5196638877702551 5.2655274527508915 -1.9974492324266038 0.83636907482363299 5.9169896575984833 -5.5196638877702551 2.2014726759404128 6.1042222497195269
leaf_weight=577.40630237944424 3.3314462825655928 3.7186063351109642 1.7799347871914504 33.235186357516795 1.8718563020229364 8.8062616311945039 716.7340028770268 2.1044210796244434 15.690711776725946 5.4943996365182128 6.2366742314770809 4.9831990292295805 6.3509410247206706 5.2144568413496062 75.780932477209717 3.5222285534255198 1.579378754831853 15.054237178992485 4.2297334126196793 13.391293410677459 182.25748735340312 104.75848139775917 19.55421315506101 2.1838078424334517 2.6114066713489583 4.8342360300011924 2.6239414233714369 34.073266598861665 4.0403684019111088 2.0459255701862196 92.73765420820564 10.023623367305843 2.022273326292634 1.0125171584077168 2.0139168249443165 10.861960962880401 15.789462238084523 4.5041542267426848 106.13471038360149 41.67943096999079 3.0960469846613705 2.8314366969279936 2.4024941376410416 13.295193645171823 5.451163104735314 14.483050272334365 23.884040759410709 11.39397929375991 5.2520610974170268 49.353019019588828 3.9985858951695263 1.7089045257307578 9.0096154189668578 2.8397931982763112 8.9163869386538881 4.4010416902601719 3.3690505386330178 3.7339388425461939 1.0375866624526686 8.540344377979638 3.0737752360291779 1.0208736597560344
leaf_count=136539 561 181 426 7718 448 217 3981 31 3519 1315 311 11 1520 1248 18137 134 378 3603 67 3205 5335 24836 4680 50 625 1157 628 1065 967 17 21959 2399 484 6 482 709 943 1078 2005 9739 32 205 575 3182 123 394 1226 600 1257 2595 957 409 502 207 2134 108 570 421 12 2044 263 8
internal_value=0.466005 4.54618 0.359417 -3.77808 0.536774 -4.25366 5.66048 3.87128 -2.49693 -3.49724 -4.30166 -4.85528 -3.93312 -0.0971254 -4.92713 -3.64829 -2.05642 0.385958 -2.30023 -1.08594 4.78451 -4.53259 -2.21538 0.787288 -3.88802 1.54189 0.436476 2.89259 1.06647 2.06113 -4.76913 -3.57552 2.9498 1.39551 -0.90602 0.329751 2.21374 -1.92842 5.32069 -4.51799 0.717716 -4.19273 2.65604 -5.2808 -2.35464 4.08441 3.23421 1.47276 -1.55122 2.99999 -1.59329 3.54373 2.01564 -1.5503 -3.50089 2.15972 3.25208 -4.50056 -4.69725 -4.27747 -3.00149 -3.61655
internal_weight=2335.37 1190.68 250.285 1144.69 113.641 1031.05 940.394 223.66 263.026 140.819 116.911 768.026 164.549 98.4766 761.021 164.868 89.0869 38.1778 22.1154 34.7935 188.866 144.262 39.5038 82.7859 50.9091 70.5785 23.9078 80.4056 16.2157 65.7443 110.675 12.2074 7.00547 46.3323 20.5764 20.2867 18.4134 6.60858 109.466 47.3869 5.70745 17.8857 59.5089 596.153 18.7464 16.0624 25.7559 20.3646 8.97067 57.1064 6.04451 51.0619 11.0235 17.9372 11.7562 6.18098 12.1753 23.2882 14.4289 9.55286 9.42472 6.23533
internal_count=280538 46277 30597 234261 13491 220770 15680 11699 47117 28031 25145 173653 34183 12934 173158 33314 15177 4647 3875 5255 6444 31691 6855 9415 10530 6966 2886 5773 1754 5809 24834 2449 495 4708 3034 2492 1571 1109 2566 10396 657 3808 4553 139844 3305 772 1674 2038 1438 3978 974 3004 984 2875 2341 534 787 5101 3217 2050 1783 1256
is_linear=0
shrinkage=1


end of trees

feature_importances:
lmp_mean_96=8
temp_anomaly=7
spread_ramp_1h=6
temp_2m=6
spread_max_96=5
wind_speed_10m=4
lmp_max_96=3
dam_lmp_current_hour=3
dam_rtm_gap=3
month=3
lmp_lag96=2
spread_mean_4=2
prc_lag1=2
day_of_week=2
lmp_lag1=1
lmp_mean_4=1
lmp_ramp_1h=1
lmp_ramp_4h=1
prc_mean_1h=1
system_lambda_lag1=1

parameters:
[boosting: gbdt]
[objective: binary]
[metric: binary_logloss,auc]
[tree_learner: serial]
[device_type: cpu]
[data_sample_strategy: bagging]
[data: ]
[valid: ]
[num_iterations: 2000]
[learning_rate: 0.05]
[num_leaves: 63]
[num_threads: 0]
[seed: 0]
[deterministic: 0]
[force_col_wise: 0]
[force_row_wise: 0]
[histogram_pool_size: -1]
[max_depth: -1]
[min_data_in_leaf: 50]
[min_sum_hessian_in_leaf: 0.001]
[bagging_fraction: 0.8]
[pos_bagging_fraction: 1]
[neg_bagging_fraction: 1]
[bagging_freq: 5]
[bagging_seed: 3]
[bagging_by_query: 0]
[feature_fraction: 0.8]
[feature_fraction_bynode: 1]
[feature_fraction_seed: 2]
[extra_trees: 0]
[extra_seed: 6]
[early_stopping_round: 0]
[early_stopping_min_delta: 0]
[first_metric_only: 0]
[max_delta_step: 0]
[lambda_l1: 0]
[lambda_l2: 0]
[linear_lambda: 0]
[min_gain_to_split: 0]
[drop_rate: 0.1]
[max_drop: 50]
[skip_drop: 0.5]
[xgboost_dart_mode: 0]
[uniform_drop: 0]
[drop_seed: 4]
[top_rate: 0.2]
[other_rate: 0.1]
[min_data_per_group: 100]
[max_cat_threshold: 32]
[cat_l2: 10]
[cat_smooth: 10]
[max_cat_to_onehot: 4]
[top_k: 20]
[monotone_constraints: ]
[monotone_constraints_method: basic]
[monotone_penalty: 0]
[feature_contri: ]
[forcedsplits_filename: ]
[refit_decay_rate: 0.9]
[cegb_tradeoff: 1]
[cegb_penalty_split: 0]
[cegb_penalty_feature_lazy: ]
[cegb_penalty_feature_coupled: ]
[path_smooth: 0]
[interaction_constraints: ]
[verbosity: -1]
[saved_feature_importance_type: 0]
[use_quantized_grad: 0]
[num_grad_quant_bins: 4]
[quant_train_renew_leaf: 0]
[stochastic_rounding: 1]
[linear_tree: 0]
[max_bin: 255]
[max_bin_by_feature: ]
[min_data_in_bin: 3]
[bin_construct_sample_cnt: 200000]
[data_random_seed: 1]
[is_enable_sparse: 1]
[enable_bundle: 1]
[use_missing: 1]
[zero_as_missing: 0]
[feature_pre_filter: 1]
[pre_partition: 0]
[two_round: 0]
[header: 0]
[label_column: ]
[weight_column: ]
[group_column: ]
[ignore_column: ]
[categorical_feature: ]
[forcedbins_filename: ]
[precise_float_parser: 0]
[parser_config_file: ]
[objective_seed: 5]
[num_class: 1]
[is_unbalance: 0]
[scale_pos_weight: 237.33]
[sigmoid: 1]
[boost_from_average: 1]
[reg_sqrt: 0]
[alpha: 0.9]
[fair_c: 1]
[poisson_max_delta_step: 0.7]
[tweedie_variance_power: 1.5]
[lambdarank_truncation_level: 30]
[lambdarank_norm: 1]
[label_gain: ]
[lambdarank_position_bias_regularization: 0]
[eval_at: ]
[multi_error_top_k: 1]
[auc_mu_weights: ]
[num_machines: 1]
[local_listen_port: 12400]
[time_out: 120]
[machine_list_filename: ]
[machines: ]
[gpu_platform_id: -1]
[gpu_device_id: -1]
[gpu_use_dp: 0]
[num_gpu: 1]

end of parameters

pandas_categorical:[]
