tree
version=v4
num_class=1
num_tree_per_iteration=1
label_index=0
max_feature_idx=30
objective=binary sigmoid:1
feature_names=lmp_lag1 lmp_lag4 lmp_lag96 lmp_mean_4 lmp_mean_96 lmp_std_96 lmp_max_96 lmp_ramp_1h lmp_ramp_4h spread_lag1 spread_mean_4 spread_max_96 spread_ramp_1h dam_lmp_current_hour dam_rtm_gap temp_2m wind_speed_10m temp_anomaly temp_delta_1h wind_chill prc_lag1 prc_mean_1h prc_ramp_1h system_lambda_lag1 rtordpa_lag1 wind_gen_lag1 wind_forecast_error hour_of_day day_of_week month is_weekend
feature_infos=[-80.420000000000002:9306.3400000000001] [-84.150000000000006:9316.5100000000002] [-84.150000000000006:9306.3400000000001] [-37.215000000000003:9258.1100000000006] [-20.799479166666668:9025.6726041666661] [0.042426406871190689:4485.463175863516] [0:9316.5100000000002] [-8963.2399999999998:6953.5500000000002] [-8997.4399999999987:8991.7600000000002] [-1415.9100000000001:924.77999999999997] [-1005.2524999999998:649.28250000000014] [-1.6799999999999997:924.77999999999997] [-1170.1199999999999:1144.3999999999999] [-4.1900000000000004:8999.5300000000007] [-7718.1400000000003:8477.9700000000012] [-15.199999999999999:41.5] [0:57.100000000000001] [-25.823333333333331:19.075451388888887] [-12:6.3999999999999986] [-22.271290117265281:41.5] [0:16581.779999999999] [0:16437.190000000002] [-5270.3600000000006:5249.3999999999987] [-31.863700000000001:9001] [0:7177.0160999999998] [0:31981.5] [-8336.4900000000016:15709.1] [0:23] [0:6] [1:12] [0:1]
tree_sizes=6617

Tree=0
num_leaves=63
num_cat=0
split_feature=0 8 10 0 13 21 15 11 15 10 17 12 28 15 10 29 13 11 15 10 10 3 4 2 16 22 17 7 23 13 15 20 0 11 6 19 15 11 8 8 15 14 8 2 11 11 24 21 26 8 16 6 20 6 8 17 12 8 11 10 29 10
split_gain=2.45316e+07 1.47577e+06 1.20582e+06 606626 484343 417599 446036 361824 396295 311641 263612 239890 218823 197094 172931 146531 145966 135730 129289 116321 151249 115080 113453 111205 110470 106978 109933 102816 136920 101346 98627.4 97846 90026.2 133352 85002.2 81658.1 200809 166322 90626.7 76854.2 70927.2 69019 66184 66157.1 64726.3 62490.7 62404.5 61532.8 60821.8 53292.3 53154.3 50647.7 79923.2 41078.5 37494.1 101053 33740.4 84188.5 42811.2 77869 30595.8 69169.9
threshold=54.475000000000001 9.6350000000000033 3.3000000000002006 92.135000000000019 27.315000000000001 4226.3600000000015 37.550000000000004 79.350000000000037 1.8500000000000003 -17.174999999999812 5.2784375000000008 1.8099999999999994 1.0000000180025095e-35 23.950000000000003 -2.2349999999998875 1.5000000000000002 22.195000000000004 61.620000000000012 8.6500000000000004 -1.3449999999998556 0.047500000000057337 149.16125000000019 71.802968750000005 22.735000000000003 29.250000000000004 89.724999999999923 7.7857291666666635 5.9949999999999983 24.148150000000005 52.885000000000012 13.350000000000003 2908.8850000000007 92.135000000000019 26.015000000000004 64.88000000000001 4.6351523260071348 6.2500000000000009 8.0349999999999984 1.4600000000000046 32.355000000000011 1.8500000000000003 5.860000000000003 14.670000000000007 32.525000000000013 0.0099999999999989004 35.835000000000008 2.1560000000000001 4455.6900000000014 -357.68499999999943 65.77500000000002 7.0500000000000007 509.51000000000005 8595.1300000000028 92.90000000000002 9.1049999999999986 9.5576388888888903 -0.47999999999999504 13.150000000000006 15.784999999999988 -0.32999999999979152 7.5000000000000009 -44.156249999999893
decision_type=10 10 10 10 2 2 2 10 2 8 2 10 2 2 10 2 2 8 2 10 10 10 8 10 2 2 2 10 2 2 2 2 10 10 10 2 2 10 10 10 2 8 10 10 8 10 2 2 2 8 2 10 2 10 8 2 10 10 10 8 2 8
left_child=1 7 3 5 22 50 49 8 15 12 11 14 -10 16 43 23 -9 24 -18 -5 48 27 40 -1 -16 56 -27 35 44 -22 -13 -19 33 39 47 36 -11 -38 -39 -4 -3 -20 -28 -6 -29 -32 -15 -30 -21 -7 -2 52 -31 -41 -37 -56 -12 -58 59 -59 -52 -62
right_child=2 4 32 19 10 6 -8 13 9 21 25 30 -14 46 17 -17 18 31 41 20 29 -23 -24 -25 -26 26 42 28 34 51 45 -33 -34 -35 -36 54 37 38 -40 53 -42 -43 -44 -45 -46 -47 -48 -49 -50 -51 60 -53 -54 -55 55 -57 57 58 -60 -61 61 -63
leaf_value=6.314125955818775 -5.6726822062273925 7.5399452269486433 -5.6726822062273925 7.5168466939343519 -5.6726822062273925 -5.6726822062273925 7.3281546423959165 -5.6726822062273925 7.2844294176351108 -5.6726822062273925 7.1145524605045987 6.6613908258984837 -5.6726822062273925 -5.6726822062273925 -5.2592119142340126 -5.6726822062273925 -5.6726822062273925 8.0701841146187228 6.801268751267874 7.5854150150739885 -5.6726822062273925 5.5565897487323523 6.0343144207488892 -5.6726822062273925 5.8418689307658047 -5.6726822062273925 -5.6726822062273925 6.771720481424043 -5.6726822062273934 -5.6726822062273925 -5.6726822062273925 -5.6726822062273925 8.0936591744095772 7.0474088604173515 -5.6726822062273925 -5.5407800553191144 -5.6726822062273925 -5.6726822062273925 6.9604542105293161 -5.6726822062273925 -5.6726822062273925 -5.6726822062273925 5.3613230347015106 5.6532693078316401 -5.6726822062273925 4.6536256847934334 6.5739267815719673 6.6195141657833672 -5.6726822062273925 4.3188605831358382 6.5812305071727932 7.0764675526223 8.2565160312372115 5.8677380977742901 -5.6726822062273925 7.1443317323328701 -5.6726822062273925 6.4201620113652753 7.0214745505230072 -5.6726822062273925 7.888771543256369 -5.6726822062273925
leaf_weight=12.690550408558922 1.0732849973719591 1.0466515941079695 3.1947279185987991 49.278774889418855 1.5183931568171818 37.310114590916783 8.5096168662421388 4.3469837184529778 8.5383335216902179 32.126758282538503 21.62941077677533 14.575657844776289 5.2695062747225156 13.198892760323359 33.446218103403226 4.6520981825888148 2.7532093410845873 4.0250751895364365 16.629475631751117 1.0430620121769605 1.9635013162624115 2.4630301271099588 2.362521833041682 2.2829741081222883 2.4020072342827907 4.5444107246585181 1.608132705092429 1.1112640688661501 1.1989203649573008 2.1393908308818963 3.2342133198399088 1.9096575872972605 720.26439851755276 67.405106186401099 2.5844989903271198 733.90101897832938 5.7540998354088542 1.6942826714366663 8.7572980194818211 0.91893297433853138 34.370246989419684 1.1881516191642791 8.7731626769527775 8.5470190152991545 17.495622331742201 2.678405042970553 1.1292119785211969 6.750144797610119 5.0684896865859619 1.384072295622899 18.056622910546142 21.694023251533508 1.9856157302856443 4.7932457227725536 5.3520666591357431 2.1579156629741192 1.9276054969523126 3.4307109187357128 11.98340276814997 2.1752866501919952 2.0394594592507929 1.7445368184708052
leaf_count=504 299 16 890 776 423 10394 166 1211 174 8950 514 478 1468 3677 9042 1296 767 19 499 15 547 135 107 636 118 1266 448 34 334 596 901 532 3063 1692 720 202524 1603 472 235 256 9575 331 515 452 4874 195 39 227 1412 110 621 532 2 233 1491 50 537 129 307 606 17 486
internal_value=1.30346 -3.92484 7.13915 3.07812 0.401867 -0.347587 -3.03601 -4.72912 -4.94465 -5.10969 1.86599 -0.128583 2.33959 -0.0347904 -1.9386 2.07837 2.65209 -3.35587 4.41127 5.96611 3.71148 -5.23492 -4.57454 4.48653 -4.51538 4.43911 0.812982 -5.26738 -2.35073 5.27803 4.4519 3.64805 7.92064 6.28763 2.20443 -5.375 -3.3837 1.15407 4.91252 0.537787 -5.28222 5.96946 3.65208 3.94472 -4.92946 -0.994884 -4.70751 4.76554 -3.40992 -5.31529 5.19069 6.11081 1.03229 4.0112 -5.50481 -1.98985 5.75448 4.24719 5.3343 1.72779 5.72454 1.63653
internal_weight=2010.08 1060.21 949.867 153.291 166.188 70.1177 47.2038 894.026 854.78 835.155 128.409 72.3366 13.8078 39.2459 51.8484 19.6256 24.9178 41.783 20.5708 83.1729 33.8941 821.347 37.7794 14.9735 35.8482 56.0721 14.9257 818.884 29.1405 27.7825 20.4883 5.93473 796.576 76.312 10.5336 789.743 48.3324 16.2057 10.4516 8.90691 35.4169 17.8176 10.3813 10.0654 18.6069 5.91262 14.3281 7.94907 6.11155 38.6942 22.9139 25.819 4.12501 5.71218 741.411 7.50998 41.1464 19.517 17.5894 5.606 21.8406 3.784
internal_count=280538 258431 22107 15973 26180 12093 10670 232251 225727 223291 16482 12160 1642 6524 10586 2436 2808 9711 1597 3880 3104 221649 9698 1140 9160 4322 2229 221514 6189 1677 1574 551 6134 3071 1281 215325 11260 2310 707 1379 9591 830 963 875 4908 1096 3716 561 1427 10504 1423 1130 598 489 204065 1541 2093 1579 1042 735 1124 503
is_linear=0
shrinkage=1


end of trees

feature_importances:
lmp_ramp_4h=7
spread_mean_4=7
spread_max_96=7
temp_2m=7
lmp_lag1=3
lmp_max_96=3
dam_lmp_current_hour=3
temp_anomaly=3
lmp_lag96=2
spread_ramp_1h=2
wind_speed_10m=2
prc_lag1=2
prc_mean_1h=2
month=2
lmp_mean_4=1
lmp_mean_96=1
lmp_ramp_1h=1
dam_rtm_gap=1
wind_chill=1
prc_ramp_1h=1
system_lambda_lag1=1
rtordpa_lag1=1
wind_forecast_error=1
day_of_week=1

parameters:
[boosting: gbdt]
[objective: binary]
[metric: binary_logloss,auc]
[tree_learner: serial]
[device_type: cpu]
[data_sample_strategy: bagging]
[data: ]
[valid: ]
[num_iterations: 2000]
[learning_rate: 0.05]
[num_leaves: 63]
[num_threads: 0]
[seed: 0]
[deterministic: 0]
[force_col_wise: 0]
[force_row_wise: 0]
[histogram_pool_size: -1]
[max_depth: -1]
[min_data_in_leaf: 50]
[min_sum_hessian_in_leaf: 0.001]
[bagging_fraction: 0.8]
[pos_bagging_fraction: 1]
[neg_bagging_fraction: 1]
[bagging_freq: 5]
[bagging_seed: 3]
[bagging_by_query: 0]
[feature_fraction: 0.8]
[feature_fraction_bynode: 1]
[feature_fraction_seed: 2]
[extra_trees: 0]
[extra_seed: 6]
[early_stopping_round: 0]
[early_stopping_min_delta: 0]
[first_metric_only: 0]
[max_delta_step: 0]
[lambda_l1: 0]
[lambda_l2: 0]
[linear_lambda: 0]
[min_gain_to_split: 0]
[drop_rate: 0.1]
[max_drop: 50]
[skip_drop: 0.5]
[xgboost_dart_mode: 0]
[uniform_drop: 0]
[drop_seed: 4]
[top_rate: 0.2]
[other_rate: 0.1]
[min_data_per_group: 100]
[max_cat_threshold: 32]
[cat_l2: 10]
[cat_smooth: 10]
[max_cat_to_onehot: 4]
[top_k: 20]
[monotone_constraints: ]
[monotone_constraints_method: basic]
[monotone_penalty: 0]
[feature_contri: ]
[forcedsplits_filename: ]
[refit_decay_rate: 0.9]
[cegb_tradeoff: 1]
[cegb_penalty_split: 0]
[cegb_penalty_feature_lazy: ]
[cegb_penalty_feature_coupled: ]
[path_smooth: 0]
[interaction_constraints: ]
[verbosity: -1]
[saved_feature_importance_type: 0]
[use_quantized_grad: 0]
[num_grad_quant_bins: 4]
[quant_train_renew_leaf: 0]
[stochastic_rounding: 1]
[linear_tree: 0]
[max_bin: 255]
[max_bin_by_feature: ]
[min_data_in_bin: 3]
[bin_construct_sample_cnt: 200000]
[data_random_seed: 1]
[is_enable_sparse: 1]
[enable_bundle: 1]
[use_missing: 1]
[zero_as_missing: 0]
[feature_pre_filter: 1]
[pre_partition: 0]
[two_round: 0]
[header: 0]
[label_column: ]
[weight_column: ]
[group_column: ]
[ignore_column: ]
[categorical_feature: ]
[forcedbins_filename: ]
[precise_float_parser: 0]
[parser_config_file: ]
[objective_seed: 5]
[num_class: 1]
[is_unbalance: 0]
[scale_pos_weight: 276.58]
[sigmoid: 1]
[boost_from_average: 1]
[reg_sqrt: 0]
[alpha: 0.9]
[fair_c: 1]
[poisson_max_delta_step: 0.7]
[tweedie_variance_power: 1.5]
[lambdarank_truncation_level: 30]
[lambdarank_norm: 1]
[label_gain: ]
[lambdarank_position_bias_regularization: 0]
[eval_at: ]
[multi_error_top_k: 1]
[auc_mu_weights: ]
[num_machines: 1]
[local_listen_port: 12400]
[time_out: 120]
[machine_list_filename: ]
[machines: ]
[gpu_platform_id: -1]
[gpu_device_id: -1]
[gpu_use_dp: 0]
[num_gpu: 1]

end of parameters

pandas_categorical:[]
