tree
version=v4
num_class=1
num_tree_per_iteration=1
label_index=0
max_feature_idx=30
objective=binary sigmoid:1
feature_names=lmp_lag1 lmp_lag4 lmp_lag96 lmp_mean_4 lmp_mean_96 lmp_std_96 lmp_max_96 lmp_ramp_1h lmp_ramp_4h spread_lag1 spread_mean_4 spread_max_96 spread_ramp_1h dam_lmp_current_hour dam_rtm_gap temp_2m wind_speed_10m temp_anomaly temp_delta_1h wind_chill prc_lag1 prc_mean_1h prc_ramp_1h system_lambda_lag1 rtordpa_lag1 wind_gen_lag1 wind_forecast_error hour_of_day day_of_week month is_weekend
feature_infos=[-38.729999999999997:9349.1900000000005] [-54.850000000000001:9349.1900000000005] [-54.850000000000001:9236.8799999999992] [-32.117500000000774:9235.6674999999996] [-21.302812500000037:9004.8891666666659] [0.042426406871190689:4507.8165663118925] [0:9349.1900000000005] [-8972.2399999999998:6954.8499999999995] [-9034.9799999999996:8965.2099999999991] [-2343.4200000000001:2032.77] [-1948.0124999999996:1841.115] [-13.980000000000004:2032.77] [-1910.5399999999997:2088.5] [-12.390000000000001:8998.9300000000003] [-7716.8800000000001:8375.2799999999988] [-6.4000000000000004:36.799999999999997] [0:101.09999999999999] [-22.659166666666664:14.221615294576669] [-9.5999999999999996:5.4000000000000004] [-15.389348646429884:36.799999999999997] [0:16581.779999999999] [0:16437.190000000002] [-5270.3600000000006:5249.3999999999987] [-31.863700000000001:9001] [0:7177.0160999999998] [0:31981.5] [-8336.4900000000016:15709.1] [0:23] [0:6] [1:12] [0:1]
tree_sizes=8315 8302 8414 8325 8417 8405 8449 8501 8495 8496 8494 8462 8521 8530 8519 8520 8474 8533 8533 8535 8567 8504 8508 8480 8518 8550 8524 8518 8554 8526 8568 8555 8510 8523 8530 8519 8585 8541 8552 8525 8531 8586 8549 8527 8559 8530 8575 8543 8542 8587 8565 8538 8554 8532

Tree=0
num_leaves=78
num_cat=0
split_feature=0 10 0 10 3 11 17 22 11 0 17 13 8 0 11 0 2 10 12 20 16 29 11 25 21 11 28 25 3 3 17 8 4 15 23 8 2 29 6 16 3 16 16 10 6 13 29 29 28 14 16 23 22 2 2 28 6 11 29 8 28 3 22 11 16 15 2 15 13 11 13 7 10 4 12 13 15
split_gain=7.8162e+06 693666 172743 108798 104594 89607.6 54541.2 51039.2 45945.5 43452.7 34707.9 37151.5 29547.2 28686.1 27890.6 40155.8 26213 23680.8 23254.3 24946.1 20832.3 23833.4 20452.6 19127.1 17770.5 17657.5 16033.4 15570.4 14519.4 13501.3 12667.3 12438.3 11960.1 21658.9 18980.5 11772.4 16337.4 14597.9 11763.7 11593.8 11439.1 11117.8 10285.4 9968.27 9898.62 9857.35 9430.54 9289.37 9140 9038.41 8668.67 8636.35 8601.48 8466.97 8045.54 7971.43 8270.8 8365.71 7562.26 7468.17 7089 7087.62 6926.77 6638.28 6816.14 6611.27 6443.86 6440.49 6162.55 5840.75 5762.69 6721.05 5569.36 5583.95 5477.03 5412.87 5392.07
threshold=77.945000000000007 8.3500000000000512 22.075000000000003 -9.3712499999998986 28.712500000000006 32.310000000000009 6.5310590277777782 1.0000000180025095e-35 26.475000000000005 98.030000000000015 5.1490972222222231 37.725000000000001 2.8299999999999996 37.255000000000003 50.760000000000026 17.665000000000003 15.785000000000002 0.13500000000011395 4.9500000000000046 4383.2300000000005 17.050000000000004 8.5000000000000018 0.44999999999999757 12384.620000000001 6514.1400000000012 8.8949999999999978 3.5000000000000004 3304.9650000000006 47.134999999999948 21.56499999999966 -11.450920138888888 -0.7900000000000017 23.895833333333311 26.350000000000005 29.742350000000005 1.925 18.265000000000004 8.5000000000000018 18.200000000000006 16.550000000000004 41.054999999999929 7.4500000000000011 36.350000000000001 3.7200000000001041 41.390000000000008 36.415000000000006 3.5000000000000004 3.5000000000000004 1.5000000000000002 -0.76500000000000046 29.250000000000004 33.008700000000012 344.50500000000017 18.805000000000003 20.735000000000003 1.0000000180025095e-35 66.90000000000002 530.9100000000002 10.500000000000002 -281.26499999999993 3.5000000000000004 14.089999999999931 -524.20000000000039 40.014999999999993 26.350000000000005 23.150000000000002 29.305000000000003 21.350000000000005 11.875000000000002 119.60000000000002 21.765000000000004 -0.49000000000000105 -0.097499999999984141 95.515885416666649 -0.60999999999999888 123.23500000000001 25.050000000000004
decision_type=10 10 10 10 10 10 2 2 10 10 2 2 10 10 10 10 10 10 10 2 2 2 10 2 2 10 2 2 10 10 2 10 10 2 2 10 10 2 10 2 10 2 2 10 10 2 2 2 2 10 2 2 2 10 10 2 10 10 2 10 2 10 2 10 2 2 10 2 2 8 2 10 8 10 10 2 2
left_child=1 2 6 13 -3 10 14 17 53 -2 12 -12 40 47 31 -16 26 45 19 32 21 24 -15 30 29 -20 50 28 35 41 -10 -1 33 -14 54 36 -9 63 61 -24 -5 -17 59 -34 -13 -7 60 -4 70 -43 67 65 62 -6 -35 -19 -57 -58 -27 -32 -21 -33 -51 -37 -65 -46 -47 -8 -61 -68 -40 -72 -64 -74 -56 -70 -18
right_child=9 4 3 5 8 7 16 27 23 -11 11 44 18 22 15 20 76 55 25 46 -22 -23 39 -25 -26 58 -28 -29 -30 -31 42 38 43 34 -36 37 -38 -39 48 -41 -42 49 -44 -45 51 66 -48 -49 -50 52 -52 -53 -54 -55 74 56 57 -59 -60 68 -62 -63 72 64 -66 -67 69 -69 75 -71 71 -73 73 -75 -76 -77 -78
leaf_value=-4.6508903532666332 -0.38304372831592204 -4.0755691285408187 -2.7813523747316364 -4.5562322511206066 -1.9414883737473438 -4.281823224798651 -4.6863342896866245 -2.3146617898019022 -4.6863342896866245 1.5169565938600469 -4.43386166619596 -4.6863342896866245 -4.2227561571843477 -4.6908549321530533 -4.6969571810416246 -4.3881562062010557 -4.7225272957258904 -4.3333041276711421 -4.7041644406065704 -3.1092834749172953 -4.2159649114180935 -4.3261794871156667 -4.6863342896866245 -4.6863342896866245 -4.7038300491990901 -1.5730758409475532 -4.6928511300247306 -4.726589935892517 -4.7193832913926714 -4.6938305204982527 -4.6863342896866245 -4.6985763689842139 -4.261306041006601 -4.6863342896866245 -4.7034902917219048 -4.6863342896866245 -4.4471447435929239 -4.4599469027984169 -4.3704994341819239 -0.58056977161140733 -3.7666951695022171 -4.6863342896866245 -4.6863342896866245 -2.5756180117570975 -4.6863342896866245 -4.6875206485852337 -4.5086834234583817 -4.7160337123446494 -4.5075044023179833 -4.6863342896866245 -4.6863342896866245 -4.6863342896866245 -4.6863342896866245 -3.9158518258412265 -4.6863342896866245 -4.6863342896866245 -0.87540600202361496 -4.6863342896866245 -4.6863342896866245 -4.6863342896866245 -4.711904423797554 -2.5467440511598944 -4.6863342896866245 -1.4233145208519193 -4.6863342896866245 -0.84205896252978851 -1.8705574625140424 -0.78333860681136214 -0.077079545860894605 -4.6863342896866245 -4.7165704500437089 -3.4049794264584259 -0.75968118887775749 -4.6863342896866245 -1.4399659584365008 -4.2667714272370869 -3.3874943097723307
leaf_weight=698.68413057923317 131.27072751894593 38.22272502630949 10.159671446308495 291.98116475343704 11.971657721325753 25.575000546872616 1.511803293600688 10.848399439826606 2.1635987255722275 1572.9588478244841 25.57463969476521 3.023606587201356 31.604469144716859 4.6893060244619837 111.16769286058843 6.8261074591428033 22.179150115698576 4.8073521628975859 8.8263964746147376 26.483158797025681 60.293603422120214 29.159875422716141 2.4261274412274352 3.3404515888541928 8.6906057596206647 27.501032175496224 5.1781525984406462 28.516050148755312 18.594275239855051 5.4316285997629157 1.2402218636125315 6.8076411783695248 77.358330791816115 2.9511848725378504 8.5548150446265918 2.5166545845568171 44.341277359053493 10.637300193309782 88.53807214088738 66.034044042229652 76.220575602725148 2.7067615855485192 1.729068437591194 8.4034448657184821 1.5932777225971282 3.9469834491610554 166.65430497191846 15.597826795652507 403.64928286708891 1.7562265805900086 2.2812840119004241 2.3084421548992387 2.3537057265639296 29.260537836700678 1.8286482952535141 2.0821242965757838 77.034535365179181 2.0097025819122782 2.8516050148755303 1.0139040052890766 12.710010923445223 12.876207450404761 1.3307490069419143 30.543826747685671 2.2993894405663005 27.394203864037991 15.059355013072487 22.957291284576058 229.33757368475199 2.7791833002120301 16.032357083633542 64.951028814539313 40.895770307630301 1.2673800066113461 40.105658195912838 2.9787038676440707 10.828850602731107
leaf_count=76061 4348 3706 520 31307 376 2567 167 424 239 8645 2653 334 3147 518 12194 668 2450 445 975 1979 6058 2963 268 369 960 1145 572 3150 2054 600 137 752 7857 326 945 278 4640 1089 9178 2132 7043 299 191 326 176 436 17721 1723 42954 194 252 255 260 2716 202 230 3003 222 315 112 1404 648 147 1223 254 703 545 471 6835 307 1771 5540 1248 140 1763 243 766
internal_value=-1.83649 -3.58171 -3.88206 -3.3519 -1.00335 -3.53523 -4.28564 -2.62717 -0.618681 1.39248 -3.85572 -2.54959 -3.97729 -1.52029 -4.36183 -3.82441 -2.70069 -1.79331 -3.6384 -3.82056 -3.24889 -2.75112 -0.944169 -0.289108 -2.21497 -2.3524 -1.66556 -3.49259 -3.21365 -1.90487 -0.22879 -4.47996 -3.30443 -2.80951 -2.15324 -2.95354 -3.76739 -2.27289 -4.28217 -0.712112 -4.3754 -1.66927 -0.188842 -3.9208 -1.47542 -3.25946 -4.28712 -3.67939 -4.34634 -1.39929 -1.21135 -1.22609 -1.23744 -2.97173 -1.73671 -1.18596 -1.05238 -0.964398 -1.80675 -0.156407 -3.54671 -3.08048 -1.08342 -1.78927 -1.60871 -1.00857 -2.51198 -0.96578 -0.132855 -2.1755 -3.9903 -3.64563 -0.959389 -0.859665 -1.56015 -0.113421 -4.11578
internal_weight=4878.27 3174.04 2852.78 1224.43 321.258 1125.52 1628.36 281.591 283.036 1704.23 843.929 59.8942 784.035 98.907 1563.42 271.88 64.9365 133.294 415.833 376.654 160.712 100.419 73.1495 241.804 71.2589 39.179 31.9285 148.297 119.781 62.5683 238.463 1291.54 170.807 85.0448 53.4403 101.187 55.1897 45.9972 592.855 68.4602 368.202 57.1367 236.299 85.7618 34.3195 47.3605 205.847 25.7575 573.171 50.3106 26.7504 31.2959 47.6038 41.2322 44.8855 85.9337 81.1264 79.0442 30.3526 234.57 39.1932 19.6838 45.2501 35.3599 32.8432 28.9875 21.7855 24.4691 233.33 17.8385 169.521 80.9834 43.4939 42.1632 41.9343 232.316 33.008
internal_count=301834 288841 273917 106604 14924 101443 167313 20867 11218 12993 80576 4121 76455 5161 162635 25731 4678 7755 38105 35670 13537 7479 2918 8126 4516 2435 1462 13112 9962 3556 7757 136904 14566 6383 3236 7908 5064 2844 60843 2400 38350 2956 7518 8183 1468 3855 21104 2243 59443 2288 890 1134 1989 3092 2291 3900 3455 3225 1460 7327 3383 1400 1729 1755 1477 879 1288 638 7190 852 16489 7311 1535 1388 1965 7078 3216
is_linear=0
shrinkage=1


Tree=1
num_leaves=78
num_cat=0
split_feature=3 15 3 9 20 5 27 17 5 1 2 15 28 21 16 16 8 8 5 15 21 22 28 5 8 17 20 27 9 9 3 21 2 23 3 8 16 6 1 7 12 3 6 15 21 20 5 1 19 17 3 29 13 17 2 9 23 2 16 16 18 28 9 28 13 17 8 17 6 0 1 8 18 12 7 2 6
split_gain=12889.2 5397.24 4283.84 6872.22 4734.86 4186.41 3428.08 3634.71 3305.32 6283.78 12789.5 4819.37 3335.6 2714.81 3263.1 2799.5 2662.32 2483.12 3481.34 6325.02 4450.87 2104.35 1891.68 1805.46 2031.24 1635.16 1585.53 1566.42 1705.22 2809.22 1529.88 1508.9 1801.62 1529.95 2825.3 5967.96 2349.68 2078.48 1490.34 1908.01 1456.99 4540.71 3563.62 1434.3 1440.94 1429.18 1382.67 1344.66 6714.75 4132.03 1828.18 1329.04 1274.77 1245.76 1233.8 1508.71 1440.93 1221.79 2044.37 4288.37 3703.59 4098.71 3433.25 1925.08 1556.46 1525.02 1884.37 2718.23 4485.42 2483.88 6368.62 2764.67 1193.19 1183.97 1177.8 1131.86 1071.19
threshold=53.864999999999341 10.850000000000003 19.51124999999961 -3.1000000000000001 5277.3250000000007 3.2695997217874559 4.5000000000000009 4.3010590277777778 5.0001700877851976 16.005000000000006 20.945000000000004 23.250000000000004 2.5000000000000004 3440.7700000000004 1.8500000000000003 34.150000000000013 0.96999999999999953 0.69000000000000317 1.6978328985615783 24.250000000000004 5321.0525000000007 1.0000000180025095e-35 1.5000000000000002 4.5472535509084286 3.8100000000000001 -1.3063368055555526 4132.3050000000012 19.500000000000004 0.78499999999998249 0.8499999999999962 27.114999999999956 6446.8837500000009 19.805000000000003 19.944400000000005 20.747499999999452 6.1200000000000037 6.4500000000000011 114.63500000000001 17.675000000000004 3.0300000000000007 -5.1999999999999931 28.102499999999875 124.59000000000002 21.950000000000003 5879.7000000000007 6544.8950000000013 182.37286491131132 31.445000000000004 7.1448973943769127 -6.1388541666666638 44.366249999999617 11.500000000000002 19.465000000000003 1.0435069444444445 21.475000000000005 -0.19000000000000081 32.682200000000002 30.215000000000003 9.0500000000000025 7.7500000000000009 0.099999999999996106 2.5000000000000004 0.32999999999999913 3.5000000000000004 29.975000000000005 1.323020833333332 -0.73000000000000009 1.8527604166666658 75.165000000000006 21.405000000000005 21.105000000000004 -4.3199999999999967 0.09999999999999877 0.070000000000000409 2.3600000000000025 26.975000000000005 353.76500000000004
decision_type=8 2 10 10 2 10 2 2 10 10 10 2 2 2 2 2 10 10 10 2 2 2 2 10 10 2 2 2 10 10 10 2 10 2 10 10 2 10 10 10 10 10 10 2 2 2 10 10 2 2 8 2 2 2 10 10 2 10 2 2 2 2 10 2 2 2 10 2 10 10 8 10 2 10 10 10 10
left_child=1 2 3 4 -1 21 7 -3 9 10 12 -12 16 14 -10 30 -8 -11 19 -19 -21 -5 23 38 26 -18 -25 31 -29 51 53 32 33 40 35 36 -35 -37 39 -20 41 42 -15 -9 -45 57 -31 -4 -49 -50 -51 -30 -27 -16 55 56 -32 63 59 -59 61 -61 -63 -34 74 -60 67 68 -67 70 -69 -72 -44 -42 -62 -24 -33
right_child=-2 6 47 5 -6 -7 8 43 13 17 11 -13 -14 27 15 -17 25 18 22 20 -22 -23 75 24 -26 52 -28 28 29 46 54 76 45 34 -36 37 -38 -39 -40 -41 73 -43 72 44 -46 -47 -48 48 49 50 -52 -53 -54 -55 -56 -57 -58 58 65 60 64 62 -64 -65 -66 66 -68 69 -70 -71 71 -73 -74 -75 -76 -77 -78
leaf_value=1.9581879016084538 0.061564821848177465 -0.030028336435311005 0.14933639394163969 -0.019437886859538237 -0.0070318028101667681 0.048459788747927099 -0.035183266621514879 -0.044976921869678388 1.1047399941690965 -0.030175447870476643 -0.0048805240335804811 2.0239686475432022 -0.049184398846129164 -0.028325351676398183 0.076528171117338631 0.98540422587421483 -0.015802383459466416 -0.032142212857616814 -0.023070897989441886 -0.0075858424688595568 1.9909535588697194 0.93015734959458773 -0.0011419564061705661 1.231798832226733 0.27393302457350421 0.96374814517913765 -0.0017932474139147568 -0.069570425239546332 -0.0083777405771743862 0.04046653754839738 0.093696024218226912 -0.021751031558680141 0.085742341191196531 0.82089737210211933 0.1881215192842027 0 0.019687636651978292 1.7029171840233193 0.14829814583694972 0.91383126769487277 0.040560085717171131 0.13138608187501227 0 0.15237453895199671 0.73335326332002271 0.70260242404803275 0.37758696849552087 0.18420232279044907 0.081976552922016679 1.1093598415046166 -0.015745540065587781 1.1221735453320707 -0.0052685476054413274 0.23507330779314828 0.062944774501949088 0.12947955472567976 0.76754542085711763 0.11472494466018102 -0.0049713136312877311 -0.031384241005298762 0.10197145601624 -0.0080469165627803062 1.7066464731287074 -0.064191869589362793 -0.060093243237768289 1.389103979816152 0.089025246231966532 0.052826737759701425 -0.04058006600747037 0.11952144512218714 -0.0021853110433841965 1.9115915982633509 1.319533809341439 0.14905023402641285 0.75885065876009561 0.19977553160159739 0.11645271748444604
leaf_weight=9.6649736771360022 32415.077029593289 867.06112474389374 849.18096612393856 9.2217415124177915 5.2919663256034246 76.288320668973029 19.300324825569987 21.712145590223372 5.1569473072886458 182.77354049962014 4.6234675953164723 16.524947578087449 55.711995217017829 10.545388813130559 229.9584236536175 6.6791303623467675 7.7165234992280594 17.119867597706619 10.54502663202584 4.8935704221948964 6.8647599816322327 33.510954522527754 225.12047111708671 11.813411383889614 52.427907983772457 37.176972400397062 4.0097366888076058 375.03782237321138 4.3389319414272887 587.70101104583591 22.771198453381658 501.48365677613765 1476.104749456048 9.5133199738338572 471.43611984699965 2.6908637918531886 49.63558170106262 9.3411504207178933 267.75965921860188 13.096791850402949 543.51378804072738 148.53709772787988 2.3805124359205392 35.334899346344173 30.829808225855231 5.4909795625135294 38.375201143324375 515.56537558417767 25.680461701005697 48.929686003364623 4.8923716926947227 4.9630175130441785 4.7243526969104996 975.03217811789364 717.49397425353527 174.90410715807229 22.914774967357516 247.82185077853501 408.7413244554773 8.240124895237388 21.803999187424779 4.5710385506972697 15.093264530412851 369.3702106596902 27.666825552470982 9.6198740573599952 1365.1582680130377 29.205636713653803 12.194644255563615 292.32958080433309 3.008065776899457 4.8617098489776245 17.987889266572893 1087.1150579256937 16.96731489803642 163.9154991954565 312.34995883237571
leaf_count=103 28214 55568 6620 586 508 2570 1585 1505 100 16076 413 203 4901 515 5784 76 408 1123 498 209 64 350 9887 114 488 490 213 21855 197 8069 138 17609 19711 103 2523 130 1284 69 3796 63 17408 310 125 130 50 66 211 1825 408 265 67 20 205 4884 7000 820 60 2960 9982 144 112 186 75 13967 580 165 9222 594 416 2439 148 66 133 8203 39 1604 2227
internal_value=0.0822864 0.129214 0.232774 0.547489 1.50032 0.335313 0.116193 0.00783105 0.124965 0.22279 0.576599 1.69729 0.289927 0.114617 0.17431 0.1677 0.542567 0.164336 0.210174 0.777688 1.49088 0.751275 0.179636 0.276732 0.541539 0.743764 1.01756 0.0992925 0.0293993 0.0883062 0.161225 0.108655 0.117962 0.159992 0.248148 0.581304 0.237613 1.46944 0.200584 0.592243 0.132423 0.291212 0.861919 0.353813 0.478006 0.0947469 0.0661877 0.200441 0.269919 0.752773 1.01517 0.828071 0.867396 0.205736 0.102502 0.223196 0.502285 0.0925624 0.119944 0.253744 0.577662 1.07443 1.41675 0.0554593 0.269196 0.0973862 0.121796 0.243521 0.792896 0.187739 0.599674 1.54231 1.20456 0.113416 0.477826 0.0853789 0.0316676
internal_weight=46704.5 14289.4 1578.23 133.978 14.9569 119.021 12711.2 954.938 11756.2 1106.12 145.779 21.1484 124.63 10650.1 2154.91 2149.75 68.9182 960.34 777.567 28.8782 11.7583 42.7327 748.689 359.653 68.2511 49.6178 15.8231 8495.2 1010.42 635.378 2143.07 7484.78 6670.95 2352.7 542.617 71.1809 59.1489 12.032 291.401 23.6418 1810.08 179.451 30.9138 87.8769 66.1647 4318.25 626.076 1444.25 595.068 79.5025 53.8221 9.30195 41.9013 1204.99 938.084 220.59 45.686 4312.76 2467.28 342.164 94.3426 27.9044 19.6643 1845.47 66.4381 2125.12 1716.38 351.22 21.8145 329.405 37.0754 7.86978 20.3684 1630.63 38.7713 389.036 813.834
internal_count=301834 273620 13302 4117 611 3506 260318 57253 203065 42340 8205 616 7589 160725 18862 18762 2688 34135 18059 1396 273 936 16663 5172 815 1103 327 141863 30352 8497 18686 111511 91675 30803 4109 1586 1387 199 4357 561 26694 1083 773 1685 180 60872 8280 9185 2565 740 332 217 695 10668 8018 1018 198 60806 27128 4096 1136 405 261 33678 731 23032 13050 3828 581 3247 808 214 258 25611 151 11491 19836
is_linear=0
shrinkage=0.0592936


Tree=2
num_leaves=78
num_cat=0
split_feature=0 10 15 17 28 16 18 15 15 29 9 9 16 17 21 29 10 15 14 5 8 18 18 9 0 7 7 28 16 18 29 17 5 29 1 18 16 1 18 27 15 0 17 16 16 9 0 16 16 0 6 8 27 6 21 18 10 16 27 17 18 8 18 12 21 8 17 14 5 6 6 17 12 10 7 10 20
split_gain=8004.21 4338.91 3090.78 3164.97 4374.95 2709.97 2529.01 1746.71 3136.65 2118.65 1733.43 5873.06 1740.63 1826.34 1692.22 1687.37 2564.57 2277.67 3299.42 1424.31 1393.09 1365.69 1289.71 1420.04 1397.94 1230.35 1216.45 2459.51 1204.4 1185.68 1178.87 1175.7 1113.13 1620.52 1538.82 1223.29 2063.64 3051.62 1559.73 1352.19 1129.5 1067.79 1066.14 1397.41 1317.13 1851.71 1058.64 1050.52 2485.7 1419.19 1550.03 3263.95 1036 1549.84 996.674 1256.66 994.363 976.029 1073.09 973.929 969.969 1197.27 963.116 936.143 928.515 941.038 925.974 939.94 907.03 1397.71 5370.75 2086.64 1136.13 880.798 867.629 864.493 827.274
threshold=77.945000000000007 8.3500000000000512 9.6500000000000004 0.43359374999999828 2.5000000000000004 1.8500000000000003 1.3999999999999992 25.850000000000005 20.450000000000003 1.5000000000000002 14.484999999999999 -22.734999999999996 19.850000000000005 2.8609722222222218 6412.1562500000009 1.5000000000000002 -1.0000000180025095e-35 25.550000000000004 2.274999999999999 158.80132610274478 3.9199999999999995 -1.0000000180025095e-35 0.29999999999999993 2.4700000000000046 21.985000000000003 9.1900000000000048 0.7699999999999998 1.5000000000000002 16.550000000000004 1.4499999999999995 7.5000000000000009 8.0171527777777793 5.0001700877851976 2.5000000000000004 20.195000000000004 -0.29999999999999799 13.350000000000003 22.995000000000001 -0.50000000000000122 19.500000000000004 21.950000000000003 98.030000000000015 3.4767534722222231 20.550000000000004 23.950000000000003 2.5400000000000009 98.030000000000015 22.750000000000004 23.750000000000004 27.195000000000004 241.69000000000003 0.96999999999999953 14.500000000000002 23.125000000000004 3733.7925000000005 0.20000000000000198 7.3675000000001054 29.450000000000003 10.500000000000002 -0.12111111111111049 -0.10000000000000096 7.4500000000000028 -1.6500000000000001 0.050000000000001162 6182.4687500000009 0.42500000000000077 -0.91552083333333545 6.8000000000000025 22.346065783356238 353.76500000000004 345.21000000000004 1.3864756944444443 0.39999999999999908 -0.0024999999999718576 3.5749999999999997 -2.7300000000000719 3299.0900000000006
decision_type=8 10 2 2 2 2 2 2 2 2 10 8 2 2 2 2 10 2 10 8 10 2 2 10 8 10 10 2 2 2 2 2 10 2 10 2 2 10 2 2 2 10 2 2 2 10 10 2 2 10 10 8 2 10 2 2 10 2 2 2 2 10 2 10 2 10 2 10 10 10 10 2 10 10 10 10 2
left_child=1 2 6 4 15 19 47 8 9 21 11 -2 13 41 32 -4 -17 22 -19 -5 28 -7 -18 -24 -25 60 27 30 59 -8 -9 57 33 -10 40 36 37 -34 -39 42 -35 -13 43 -38 45 75 -12 63 74 50 -50 -52 53 -42 55 -6 -29 58 -32 66 61 -3 -43 -1 -23 -66 -20 -68 72 70 -70 -72 -37 -55 -49 -45 -28
right_child=10 25 3 5 54 7 29 26 14 -11 46 12 -14 -15 -16 16 17 18 20 -21 -22 64 23 24 -26 -27 76 56 -30 -31 31 -33 35 34 -36 68 39 38 -40 -41 52 62 -44 44 -46 -47 -48 48 49 -51 51 -53 -54 73 -56 -57 -58 -59 -60 -61 -62 -63 -64 -65 65 -67 67 -69 69 -71 71 -73 -74 -75 -76 -77 -78
leaf_value=0.056680719634568992 0.068296195198879334 -0.053794195225235708 0.20549847905818192 -0.012190633711352199 -0.061596602770255776 -0.058315445218686542 0.81781900513659533 0.083964373341344031 0.096988326364262592 -0.063910509055467551 0.10977196421673244 -0.087625793514976652 0.0051459149651021802 -0.0039770376730289062 -0.062249766015560815 -0.066719798144016518 -0.062670035069622987 0.085406413952470478 0.34088887679948782 0.99571118276563142 0.14584380090684571 0.0045938825565523464 0.052390941173085896 0.68754292358161762 -0.033792100117822015 0.10166341040379727 0.18392861298131577 -0.017225804737682926 0.079272353818538074 -0.016642588786101458 0.65493193800789762 0.87912134649734974 0.094874843421672128 -0.030426589139322256 -0.03914758951932968 0.012851625800730652 -0.043379840092934982 0.34534952442684624 0.99993902786417088 -0.062089838179835419 -0.025679076880715149 0.010010407265289591 0.17530884401940236 -0.010104430837978745 -0.035047675660419379 0.20815352484203556 0.062651296388912994 -0.006745894042457852 0.20354856422909945 0.14752175668181444 1.2639004333947366 0.11448395904583333 0.27526486275868844 -0.0096884622685191879 -0.040997573033995025 0.17839852671268588 0.36629741095285234 0.51192831761723556 0.11491254830332508 -0.021733911383532541 0.068136465767273544 0.058824452713398458 -0.28996622004923395 0.2038396189153682 0.11976651907651403 0.39281034391369618 0.804638745667977 -0.0073767420066165887 0.20065676090827442 0.089171932712854896 1.1616680535675235 -0.01560568377443531 0.16614449883478344 0.68963334352750671 0.77219739001314081 0.83794318527311784 0.10954187043405889
leaf_weight=249.85947921685874 6305.3700809255242 610.79953616391867 631.39602918829769 5.7265396052971509 123.24936147034168 80.172370452433825 27.122178313322365 393.4289001468569 107.97877504955977 302.86006315611303 1888.7438810914755 417.8232142906636 1738.696862898767 533.05903331935406 82.49858005438 292.09822633489966 251.06217555049807 380.62406919617206 68.452158723026514 11.429370606318114 87.224980083294213 60.473877720534801 152.88101351819932 19.561934639699757 12.288051533512773 2506.747619882226 835.27974345628172 765.64893597178161 29.54052310436964 6.1867736317217341 6.4416502928361288 2.9133877102285615 52.379349579103291 15.648719431832431 25.143233793787658 295.10096856951714 20.844905452802777 42.309705576859415 30.765731035731733 57.265483848750591 11.839433313347397 42.553475379943848 406.44054011814296 3.8261230597272506 14.669732739217578 47.366878001950681 17009.560829848051 4.8869312647730103 68.815751723945141 302.14860964380205 11.320951822213827 19.745064410381023 97.35491160210222 5.8140598237514487 1029.8940242230892 177.26187756005675 16.135666208341718 27.619144363328815 204.16198704019189 9.1476446669548732 2854.4773820117116 706.00505307223648 224.13999985158443 440.31638650689274 95.675901604816318 103.79987210314721 57.31606044434011 4.6788207795470944 647.3000204237178 326.39681363012642 21.358311283402148 5.7248209631070486 408.60074383951724 101.51181669346988 35.163909744471312 43.527786768041551 1690.834131250158
leaf_count=4658 1388 3714 3287 265 7751 4304 63 5459 1866 19161 1030 1630 2645 965 4534 15800 15414 12657 1114 19 859 2059 4069 476 329 2796 3859 23401 1613 233 250 11 781 1191 1891 11645 1001 446 233 2494 773 42 2783 52 724 90 3881 264 1192 949 92 33 1387 412 67964 2358 259 233 2829 489 6668 1746 1413 1872 1626 748 351 219 4341 4726 108 171 4220 910 49 368 18131
internal_value=0.0770995 0.107253 0.128657 0.118536 0.0700188 0.139999 0.220743 0.137703 0.168412 0.0487975 0.0571015 0.0359832 -0.0328601 -0.0869781 0.194898 0.125356 0.0870947 0.129373 0.200163 0.75691 0.361622 0.148918 0.0235805 0.139584 0.454614 0.0687509 0.109971 0.0650868 0.45953 0.685291 0.151007 0.253017 0.202746 0.302472 0.382096 0.186637 0.253041 0.469579 0.698093 0.201045 0.428412 -0.150466 0.230052 0.378394 0.458018 0.533176 0.0674189 0.201955 0.27487 0.220001 0.408854 0.718304 0.462457 0.585552 -0.0131144 0.0802494 -0.00523379 0.214885 0.156842 0.529466 0.0487551 0.00640928 -0.242448 0.152199 0.213484 0.27301 0.568695 0.746618 0.157382 0.194175 0.242955 0.961628 0.103078 0.651874 0.687838 0.774219 0.134752
internal_weight=46804.5 18644.5 11966.5 10800.9 3326.68 7474.27 1165.57 7457.11 3514.65 642.982 28159.9 9261.64 2956.27 1217.58 2871.67 1996.27 1364.88 1072.78 636.984 17.1559 256.36 340.122 435.793 184.731 31.85 6678.03 3942.46 1416.35 169.135 33.309 634.565 241.136 2789.17 365.291 257.312 2423.88 719.396 125.455 73.0754 593.941 232.169 684.517 536.676 130.235 109.391 94.7208 18898.3 1132.26 442.081 402.03 99.8818 31.066 216.52 119.165 1330.41 300.511 781.785 238.223 210.604 139.595 4171.28 1316.8 266.693 690.176 259.95 199.476 130.447 61.9949 1704.48 1000.78 674.383 27.0831 703.702 107.326 40.0508 47.3539 2526.11
internal_count=301834 288840 273916 264511 134750 129761 9405 129477 75045 27898 12994 8083 6695 4050 47147 56677 53390 37590 17302 284 4645 8737 20288 4874 805 14924 54432 32442 3786 296 8782 3323 42613 8430 6564 34183 8972 1460 679 7512 4673 3085 5018 2235 1234 510 4911 9109 2579 2266 1317 125 3482 2095 78073 10109 23660 3312 3079 2173 12128 5460 1455 6530 4433 2374 1684 570 25211 9346 4620 279 15865 1322 313 420 21990
is_linear=0
shrinkage=0.0592936


Tree=3
num_leaves=78
num_cat=0
split_feature=1 8 15 27 21 11 27 6 11 23 5 5 20 11 1 16 2 9 2 18 13 6 11 9 11 9 17 11 17 21 8 17 13 27 18 13 13 13 1 15 16 4 17 20 13 9 6 12 6 14 11 9 16 2 20 30 2 16 9 7 21 23 16 12 23 11 11 4 11 12 14 16 11 1 12 7 5
split_gain=4355.41 2580.09 2468.38 2236.4 1644.2 1956.06 1691.34 1651.79 1607.98 1615.23 1566.72 1506.93 1334.81 1161.71 1211.51 1059.15 1093.33 1028.16 1026.1 1453.21 1403.8 1032.95 1016.16 3854.84 1008.1 1064.09 982.101 1103.08 972.901 1405.76 967.891 953.004 937.075 1305.41 1155.08 1032.15 879.342 1654.75 1982.21 1618.7 872.914 1098.05 869.873 863.866 860.163 819.95 789.738 1197.81 1417.97 991.355 703.964 677.043 1655.87 741.764 931.227 671.572 667.154 663.273 669.924 657.263 645.166 612.138 853.393 595.393 574.122 1453.21 982.504 869.836 738.82 672.335 1064.94 569.218 554.406 549.148 767.652 520.014 516.606
threshold=53.445000000000007 76.215000000000018 10.850000000000003 2.5000000000000004 3440.7700000000004 0.60000000000000064 19.500000000000004 208.84000000000003 22.024999999999995 17.446700000000003 4.3474188014905986 4.1486586578221143 4663.9300000000012 3.7650000000000028 17.615000000000006 34.150000000000013 21.985000000000003 0.78499999999998249 19.805000000000003 0.09999999999999877 28.925000000000004 48.320000000000007 9.5449999999999999 -10.289999999999994 59.220000000000006 -12.974999999999996 -0.91552083333333545 5.2900000000000018 7.4922569444444447 3243.8687500000005 22.555000000000007 4.9602604166666664 22.945000000000004 21.500000000000004 1.7999999999999996 24.245000000000001 29.795000000000005 30.155000000000005 23.325000000000003 28.150000000000002 9.5500000000000025 33.830572916666647 3.2019618055555559 6412.1400000000003 26.865000000000006 30.015000000000004 57.775000000000013 -1.5399999999999985 54.375000000000007 4.2750000000000012 1.3049999999999742 -1.0000000180025095e-35 15.050000000000002 21.805000000000003 4629.0950000000012 1.0000000180025095e-35 20.455000000000002 1.8500000000000003 3.3600000000000003 10.980000000000004 6514.1400000000012 14.578350000000002 12.050000000000002 1.0000000180025095e-35 18.81925 33.830000000000005 11.795 19.819843749999993 -1.0000000180025095e-35 -3.3500000000000001 -2.8399999999999985 15.65 6.3550000000000013 30.135000000000002 1.490000000000004 2.5900000000000007 20.193686323378628
decision_type=8 8 2 2 2 10 2 10 10 2 10 10 2 10 10 2 10 10 10 2 2 10 10 8 10 10 2 10 2 2 10 2 2 2 2 2 2 2 10 2 2 10 2 2 2 10 10 10 10 8 10 10 2 8 2 2 10 2 10 10 2 2 2 10 2 10 10 10 10 10 10 2 10 10 10 10 10
left_child=1 2 8 31 5 -5 10 -8 9 40 11 26 30 14 63 16 32 -9 19 20 57 -20 23 -2 25 -3 -6 61 44 -30 51 -4 56 34 -34 -35 55 38 39 -38 41 -1 -25 -44 -18 -27 47 48 -39 -50 -42 -11 -53 54 -54 -23 -7 -12 -59 -17 64 71 -63 -13 66 67 68 -66 -21 70 -68 -28 -58 -46 -75 -49 -19
right_child=22 24 3 4 6 15 7 17 -10 12 18 13 -14 -15 -16 59 28 76 21 60 -22 36 -24 42 -26 45 27 -29 29 -31 -32 -33 33 35 -36 -37 37 46 -40 -41 50 -43 43 -45 73 -47 -48 75 49 -51 -52 52 53 -55 -56 -57 72 58 -60 -61 -62 62 -64 -65 65 -67 69 -69 -70 -71 -72 -73 -74 74 -76 -77 -78
leaf_value=-0.039429353040437765 0.064292254411277172 0.045217796123054647 -0.05092480467928278 -0.027345661180230574 0 0.077605670824843431 -0.056951356591004011 -0.067481449823021622 0.12291378291138041 0.25195730931465371 0.20043320470907694 0.84141259640670685 0.03269065976526387 0.12867174096127609 -0.01994463085098621 -0.011577011573574478 -0.068898560001041428 0.33999692325940023 -0.032702935378017182 0.13668633465091146 0.12296779883911532 0.051554286952931405 0.061005358871813194 -0.11021423817038684 0.05952496913710157 -0.19586178985444536 -0.032211735450345211 -0.052610456508022048 -0.035151180127954026 0.7640653620833352 0.16674998351895173 0.18499917784528452 0.18875242150239968 0.84796544991397926 0.56746632563964094 0.13826358097217237 -0.020477818142136662 0.08806598037481371 0.045673892969531803 0.92370948854131352 0.14252667306680691 0.38696475605537428 -0.19861591031531028 0.041650432820198029 0.14109898689301981 0.020544015403317559 0.079292347632349158 -0.059048505439582205 0.9371157887221383 -0.010904824251371167 -0.060156904970409791 0.32504783466074888 1.0397803257643849 0 0.20436856201645395 -0.073084466159637734 0.37157766018387772 -0.063766647456651823 0.057342595171654853 0.68094662188475874 0.04280184884355747 0.23111306869810325 0.010258972259273838 0.18411580822207918 0.041629497694679683 0.12489226284420323 0.086827064760515049 0.35988214597350004 -0.062039282240902736 0.13252975137768172 0.41501346188786636 0.29659708806216234 0.048229021940441388 -0.019154232657483877 0.12220244923966575 0.1603331356378328 0.10318604246688501
leaf_weight=24.613739462569356 2736.7595855668187 313.46393084526062 496.30068044736981 234.97936854045838 140.74210254102945 360.32896658964455 535.83773286128417 115.82736177649349 1421.5992603832856 72.721611360087991 47.183521368540823 26.216554729267955 47.999623184092343 43.809202705509961 8.8469995185732824 5.0770086683332947 85.650535729713738 30.325679779052734 303.60104354796931 104.98580891080201 696.43457880243659 1183.3850828334689 22022.058339823503 659.52465773466974 2869.6903453096747 156.6104802088812 17.080620901659131 60.847507474943995 10.979422315955164 10.73465701099485 73.844675310887396 59.84601313341409 675.52998819295317 14.614389120601116 24.618041825480759 17.520359407179058 7.3489741031080511 24.231112186796963 34.000077415257692 18.088498066179454 236.16598786786199 82.740846533328295 54.351549170911312 317.30656091030687 1111.467531898059 93.095380067825317 4090.439602246508 40.360510480590165 12.579275758936999 3.9649428622797158 72.905374038033187 83.535766917280853 29.374710168689489 3.1444628732278934 11.744374574162064 165.39709874475375 51.129541010595858 374.90970531851053 267.11630653496832 12.858010468073187 222.51095942314714 128.28536054864526 117.3282637745142 13.478872086852787 39.712805029004812 394.68509131949395 71.495780967175961 208.15124576538801 147.51066837273538 1012.5683289673179 76.965220755897462 230.92284946329892 33.763541176915169 218.14905004389584 328.32858950458467 196.84347111079842 441.13530478533357
leaf_count=1553 1538 152 33571 9015 8051 6179 28901 6183 3842 483 95 285 1872 776 533 123 2942 3 14176 78 3381 20498 16933 7489 856 767 1089 3802 325 12 90 602 2878 121 125 69 250 392 388 40 1713 46 660 669 3997 80 31006 1610 39 141 3031 250 173 172 4 8562 487 26837 2742 4 5596 1213 4081 177 908 816 93 1571 8713 5730 426 2351 495 3544 442 989 2008
internal_value=0.0725061 0.0925813 0.101783 0.0933267 0.0977 0.135649 0.0871859 0.0176252 0.161398 0.232947 0.0945628 0.175299 0.332985 0.394312 0.575981 0.148701 0.144759 0.0858844 0.0878701 0.112877 0.0641177 0.0726288 0.056126 0.0274778 0.0452925 -0.0266525 0.141546 0.176578 0.113905 0.455231 0.382214 -0.0227786 0.189698 0.231607 0.208927 0.575015 0.0782423 0.0910441 0.384216 0.706835 0.149949 0.291507 -0.0697456 0.00233049 0.107374 -0.116273 0.0862775 0.182967 0.455138 0.773681 0.0936931 0.450641 0.539637 0.824327 0.880561 0.0357505 0.117279 0.00357124 -0.0129487 0.535174 0.142089 0.205677 0.130299 0.693753 0.152509 0.200801 0.129349 0.312782 0.021474 0.152298 0.271446 0.272775 0.26122 0.116913 0.065937 0.121363 0.124545
internal_weight=46790.3 21000.3 17567.4 15407 14850.9 3195.73 11655.2 1123.13 2160.39 738.791 10532 787.558 322.365 92.3516 48.5424 2960.75 2942.81 587.288 9744.47 3664.23 1385.64 6080.24 25790 3767.94 3432.86 563.17 695.207 554.465 1765.31 21.7141 274.366 556.147 1177.5 732.283 700.148 32.1347 5776.64 4427.86 59.4375 25.4375 416.426 107.355 1031.18 371.658 1743.6 249.706 4368.42 277.979 40.7753 16.5442 309.071 200.521 127.799 44.2635 41.1191 1348.78 445.222 689.21 642.026 17.935 2278.59 493.617 245.614 39.6954 2056.07 642.549 1413.53 247.864 252.496 1161.03 148.461 248.003 84.8931 1657.95 546.478 237.204 471.461
internal_count=301834 274545 272690 259461 225288 30758 194530 37095 13229 9387 157435 22358 3044 1771 995 21743 21616 8194 135077 56986 33055 78091 27289 10356 1855 999 20587 12536 11262 337 1172 34173 10354 3193 3003 190 63915 34855 678 290 6343 1599 8818 1329 10925 847 34177 3171 572 180 4744 1082 599 349 177 29060 7161 29674 29579 127 23931 8734 5294 462 18335 3295 15040 2479 8791 6249 519 3440 982 7983 3986 2599 2011
is_linear=0
shrinkage=0.0592936


Tree=4
num_leaves=78
num_cat=0
split_feature=0 10 11 9 9 25 29 0 2 21 13 13 22 12 22 6 11 13 9 30 4 1 11 6 15 15 9 11 27 6 1 15 0 13 27 10 9 18 13 18 8 6 18 15 2 1 0 2 1 4 4 5 6 20 27 2 15 5 4 15 5 5 5 4 27 6 15 2 0 14 29 19 20 11 12 15 0
split_gain=3679.05 2311.39 1958.55 4233.39 2148.28 1793.22 1810.51 1562.73 1896.21 1351.31 1346.07 1284.63 1382.61 1292.3 1137.22 1132.14 1302.41 1053.84 1188.04 1032.01 1114.37 938.078 844.518 816.27 786.466 914.167 1193.77 861.738 830.02 855.24 796.737 1020.25 987.891 785.451 783.186 761.373 2103.4 748.916 881.953 712.473 849.245 827.695 703.007 666.066 638.319 1061.96 1164.42 877.329 719.669 915.029 658.895 837.563 727.906 624.16 605.727 602.695 594.848 572.471 571.493 567.788 565.412 669.774 1030.53 815.705 717.324 642.604 558.969 554.145 549.772 547.269 546.707 689.349 659.918 534.056 532 530.507 528.26
threshold=77.945000000000007 10.85125000000002 38.855000000000018 -37.534999999999989 7.4000000000000004 11976.500000000002 3.5000000000000004 19.115000000000006 22.075000000000003 3822.8825000000002 26.465000000000003 21.865000000000006 76.014999999999887 0.79000000000000148 -262.95499999999987 310.72000000000008 70.850000000000023 51.820000000000007 0.039999999999999543 1.0000000180025095e-35 24.490885416666632 27.255000000000006 21.455000000000005 422.96000000000009 20.650000000000002 22.250000000000004 0.78499999999998249 15.450000000000003 9.5000000000000018 33.350000000000009 30.635000000000002 31.450000000000003 45.115000000000002 337.56500000000011 21.500000000000004 -6.1087499999998878 -2.02 0.29999999999999993 19.465000000000003 0.19999999999999954 20.405000000000005 180.84000000000003 1.1499999999999988 22.750000000000004 18.805000000000003 34.885000000000012 25.145000000000003 13.365 18.885000000000002 25.265208333333309 31.529218750000002 17.213945760730947 253.11500000000004 5390.7050000000008 19.500000000000004 32.755000000000003 23.550000000000004 15.387715106795644 95.515885416666649 27.150000000000002 16.995159705982605 23.574661406291703 57.385732234770039 69.353333333333325 16.500000000000004 60.545000000000009 23.450000000000003 18.865000000000006 39.015000000000008 -1.6399999999999999 4.5000000000000009 1.1529266684944444 1.0000000180025095e-35 5.1800000000000024 2.4300000000000015 26.150000000000002 98.030000000000015
decision_type=8 10 10 8 10 2 2 10 10 2 2 2 2 10 2 10 10 2 10 2 10 10 10 10 2 2 10 10 2 10 10 2 10 2 2 10 10 2 2 2 10 10 2 2 8 10 10 10 8 10 10 10 10 2 2 10 2 10 10 2 10 10 10 10 2 10 2 10 10 10 2 2 2 10 10 2 10
left_child=1 5 3 -2 9 6 19 37 11 -5 -7 13 14 -9 59 17 23 18 -16 34 -21 -19 69 -17 -10 26 -26 -28 -27 -30 42 60 -33 55 44 -34 -37 70 56 40 41 67 -31 -14 47 48 53 -1 -46 -50 51 -49 -53 -47 66 -11 -39 68 -18 -13 65 63 -63 64 -62 -32 -12 -24 -48 -3 72 -72 -8 -45 -38 -54 -4
right_child=2 22 76 4 -6 10 7 8 24 33 54 12 43 -15 15 16 58 21 -20 20 -22 -23 39 -25 25 28 27 -29 29 30 31 32 35 -35 -36 36 74 38 -40 -41 -42 -43 -44 73 45 46 57 50 49 -51 -52 52 75 -55 -56 -57 -58 -59 -60 -61 61 62 -64 -65 -66 -67 -68 -69 -70 -71 71 -73 -74 -75 -76 -77 -78
leaf_value=0.12113438476808819 0.067737341584304944 0.23918366403886943 0.092043270966768259 -0.19176386395113937 0.048100991216481807 -0.047105958469137073 0.21395493442315158 -0.06379659873849905 -0.01418037746763501 -0.0097669294861411852 -0.060777040119032524 0.14551355528762266 -0.059422351883706662 0.13814599842161185 -0.014551626950489477 0.56810406176305173 0.061709644913352422 0.14014521067774954 0.20586916454830423 -0.060576362302639741 0.10949577284141825 0.57859650954818631 0.014737165882060891 -0.022004319485551375 -0.052554368251972572 -0.01687423395027143 0.35728461659875599 -0.055498844772501145 -0.040478140034021393 0.12252252375844394 0.05302604932605437 -0.0073857412788621872 0.10997272984577565 0.028570059587827833 -0.057999242590839474 0.81920503333614192 -0.051444589558873495 -0.044315129207969421 -0.0127481230060501 0.071299748597878174 0.064788343655174344 0.030006714804787456 -0.009219186380942157 -0.052927312576194423 0.16011838229515279 -0.016831867577912853 0.31427197944572938 0.18790772209449627 -0.045378721546021128 0.095907532664108994 0.081571650125356679 0.37524798781420143 -0.050500846688571834 0.63915563974576428 -0.070606242624236204 -0.097024506536332267 0.20177756795897395 0.10257256688927567 0.37518227929829745 -0.061106231745005513 0.15925949828277192 -0.083337382628789425 0.081085274250289968 0.54221621611831172 -0.070395296287316944 -0.078889260427023017 0.12128782315284896 -0.1147955339706753 0.1474638219107153 -0.041737590262086573 0.19583357570593379 -0.060704375529926455 -0.016064194452148083 0.13228332332263756 0.23801753617518445 0.2385733840770419 0.05968310351083838
leaf_weight=667.00175576470792 3526.713447034359 126.16926111187786 2029.8132788687944 250.90637302491814 837.08833742886782 473.51591206854209 64.849636901635677 191.54627296607941 293.24038214283064 428.95574426651001 59.698711791541427 480.66401867428795 83.624490661080927 243.07506655389443 103.17296893568709 89.397293294779956 62.952294887043536 40.0440608356148 432.79766819812357 166.96442916570231 594.54296302702278 40.120699540711939 180.41334843542427 7.5499676573090246 40.055227365810424 288.22687773918733 113.2860979931429 17.353399473708123 173.70470616128296 2215.8582406700589 242.43708868231624 121.22142282826826 215.58087082765996 380.87495775520802 57.72346327919513 15.342603002674876 24.070057576522231 36.730121288914233 172.87795110885054 2990.9762862939388 1197.4987396355718 901.64968081191182 147.6194585673511 54.874588844366372 419.75137881143019 4.8653288567438748 138.25844355346635 715.44512252230197 198.82646062783897 723.56833535665646 140.77397808432579 210.96666116034612 28.359963341150433 21.376189012080431 73.331266734283417 828.34032648056746 193.59753438504413 304.41010010428727 27.407131629996002 45.536468823440373 202.43656864203513 190.76958550000563 399.40947445807979 9.1419336479157192 55.037207340355963 259.60984087130055 538.71609385311604 296.06699786987156 206.87543589621782 25.459230493754148 31.247521700337529 503.14702264638618 102.74175728531554 511.42077730409801 88.764856049790978 57.079363816417754 18091.252432517707
leaf_count=6431 788 838 1289 1241 811 32250 679 12365 9690 761 2555 3429 4512 1635 4218 344 385 79 1971 11844 5007 84 565 275 2177 11429 328 361 4094 20050 3663 2215 205 304 3471 108 710 3047 7343 3037 1333 1802 2806 3691 5860 110 382 7964 7444 5006 1059 751 1137 94 2823 3069 2282 1191 40 1285 1091 3643 2871 73 1186 6680 5081 1761 258 917 38 44322 6470 5792 178 25 4731
internal_value=0.0686101 0.0877141 0.0539807 0.0248914 -0.030493 0.100386 0.106527 0.0901941 0.0998644 -0.0654949 0.0286789 0.143358 0.163643 0.0491218 0.198494 0.243554 0.374275 0.198977 0.16346 0.13654 0.0716656 0.396034 0.055588 0.521948 0.0790847 0.0848195 0.218078 0.300819 0.0794963 0.0859364 0.0913037 0.061129 0.136362 -0.0451443 0.148985 0.186652 0.299352 0.0238762 0.087469 0.051581 0.0284399 -0.00318497 0.114197 0.0903898 0.152276 0.127673 0.188753 0.178729 0.0957753 0.0650804 0.210754 0.227693 0.315199 0.536469 0.082348 -0.0676911 0.161427 0.167723 0.182778 0.126542 0.0345461 0.0636563 0.027145 0.140386 0.108665 -0.0149286 0.102172 -0.0658848 0.220771 0.190915 -0.0129384 -0.0425073 0.0776255 0.113441 0.175153 0.144314 0.0629955
internal_weight=46526.8 20152.8 26373.9 6252.88 2726.17 14434.6 13289.3 8632.54 7527.35 1889.08 1145.26 2414.18 1979.56 434.621 1329.64 803.442 187.307 616.135 535.971 4656.79 761.507 80.1648 5718.23 96.9473 5113.17 4819.93 170.695 130.639 4649.23 4361 4187.3 1823.82 464.98 1638.17 3895.28 343.758 128.178 1105.19 403.206 5566.61 2575.63 1378.13 2363.48 649.92 3837.56 2017.93 675.785 1819.63 1342.15 922.395 1152.63 1011.85 296.406 26.2415 671.746 1257.3 230.328 649.544 90.3594 526.2 1358.84 856.795 590.179 266.616 257.474 502.047 598.415 476.48 345.134 151.628 701.986 534.395 167.591 566.295 112.835 85.4393 20121.1
internal_count=301834 288840 12994 6974 6186 278587 235878 177844 113663 5375 42709 40105 26105 14000 12110 7396 1044 6352 6189 58034 16851 163 10253 619 73558 63868 2866 689 61002 49573 45479 22623 3416 4134 41183 1201 996 64181 12672 8498 5461 4128 22856 13995 37712 20345 2035 17367 18310 12450 10936 9877 1913 204 10459 3830 5329 1831 425 4714 19207 8864 6514 2350 2277 10343 7636 2326 640 1755 51509 44360 7149 9483 888 1162 6020
is_linear=0
shrinkage=0.0592936


Tree=5
num_leaves=78
num_cat=0
split_feature=0 25 10 11 11 9 10 16 27 2 0 18 7 4 18 9 20 17 10 5 17 17 15 11 23 13 6 1 11 8 6 4 11 18 1 16 11 0 16 0 5 2 9 10 8 20 15 18 18 5 16 17 15 11 11 6 4 6 0 27 15 5 9 11 5 11 4 5 10 0 23 16 23 4 4 1 10
split_gain=2790.99 2254.81 2082.07 1952.02 1812.23 3673.77 1741.9 1605.84 1459.51 1718.15 1729.9 1468.12 1244.87 1189.25 1138.39 1194.66 976.35 904.341 847.522 772.315 754.253 1125.26 779.043 749.913 922.726 1154.51 743.726 989.613 721.571 818.651 852.387 899.732 877.343 714.076 699.196 674.603 657.551 757.998 1260.45 628.778 624.49 894.03 620.352 608.934 604.435 604.078 597.417 1263.78 1022.1 785.872 794.843 730.893 1327.1 915.924 716.562 662.832 741.125 723.491 762.339 660.596 649.518 589.303 624.859 588.02 582.639 577.704 575.869 567.254 563.467 554.858 650.908 574.157 553.319 552.705 1273.07 782.243 701.294
threshold=77.945000000000007 11543.570000000002 6.8062500000000012 22.024999999999995 38.855000000000018 -37.534999999999989 3.100000000000029 18.850000000000005 2.5000000000000004 21.635000000000002 21.035000000000004 1.7000000000000022 4.5500000000000034 25.436770833333316 0.20000000000000065 -3.6799999999999988 3959.8850000000007 4.9602604166666664 8.3500000000000512 17.213945760730947 0.24420138888888768 1.3547916666666657 24.350000000000005 18.620000000000008 53.658200000000008 24.115000000000006 45.265000000000008 16.295000000000005 1.9250000000000009 18.715000000000007 64.065000000000012 29.772135416666661 8.7700000000000031 -0.35000000000000137 28.615000000000006 1.8500000000000003 530.9100000000002 21.815000000000001 23.050000000000004 98.030000000000015 15.179501509996713 18.805000000000003 2.0450000000000021 0.13500000000011395 8.080000000000009 4629.0950000000012 25.450000000000003 0.5999999999999962 0.89999999999999913 5.1376827396945641 11.250000000000002 1.8200694444444461 11.050000000000002 99.810000000000016 0.25499999999999551 95.640000000000015 19.017604166666658 131.69000000000003 52.305000000000007 12.500000000000002 19.550000000000004 4.4849532735453179 0.26999999999999985 6.2500000000000018 2.2364591515000418 3.0400000000000049 48.940989583333312 8.9518908105778081 6.5274999999999137 22.075000000000003 25.199200000000005 25.250000000000004 23.502850000000006 15.407552083333309 15.912864583333315 16.295000000000005 -3.313749999999946
decision_type=8 2 10 10 10 8 10 2 2 8 10 2 10 10 2 10 2 2 10 10 2 2 2 10 2 2 10 10 10 10 10 10 10 2 8 2 10 10 2 10 10 10 10 10 10 2 2 2 2 10 2 2 2 10 10 10 10 10 10 2 2 10 10 10 10 10 10 10 8 10 2 2 2 10 10 10 10
left_child=1 2 8 18 5 -2 7 39 17 10 14 23 -3 43 15 34 -9 -1 -4 40 -17 22 63 24 28 -26 27 -11 -12 30 32 42 -30 44 45 -28 37 38 -25 -7 41 -20 67 -13 -5 -10 48 55 51 -49 54 52 -37 60 72 56 -48 -57 -59 -52 -53 62 -29 65 -34 -22 -54 -32 -58 -69 71 -71 -51 76 75 -75 -16
right_child=4 12 3 33 -6 6 -8 16 9 26 11 13 -14 -15 73 20 -18 -19 19 -21 21 -23 -24 36 25 -27 35 61 29 -31 31 -33 64 -35 -36 46 -38 -39 -40 -41 -42 -43 -44 -45 -46 -47 47 49 -50 50 59 53 66 -55 -56 57 68 58 -60 -61 -62 -63 -64 -65 -66 -67 -68 69 -70 70 -72 -73 -74 74 -76 -77 -78
leaf_value=-0.030723140386321648 0.066367644795235423 -0.033434035359215498 0.040396928375937523 -0.06391411160860605 0.061253141288632872 -0.077269261114852258 0.040163199682494481 -0.1716665756434767 0.21711402694232201 0.20917909762901968 0.067551145631107021 -0.0070783090308843269 0.069691313026739546 0.12711479306906551 0.15137386136600892 -0.020484386029604822 0.00045272404808057224 0.18636809968159371 0.24946785446640876 -0.045195526478858723 -0.031641032249357957 0.0073109582742456065 -0.050112862511940567 0.11791423985211784 0.87426929137810827 0.12148265517667661 0.43402463260559765 -0.019808584345618267 -0.0051047861730200003 0.084219903612557281 0.067179587018357315 0.15213430554721682 0.57341945790929794 0.059430123969355216 0.59941797219028647 0.13389933134114257 0.27986979054023187 0.075566586677349751 0.47774816200679171 -0.19824257012770072 0.42052477352306428 -0.04577431947392048 -0.029717834572347182 0.64441853805174576 0.039379996522353328 -0.047145835720545107 0.13038870756309173 0.35807333461445956 -0.066561329595835036 -0.0206717319865376 -0.02772800972127169 -0.054464259564282795 -0.012813783549014799 -0.067981322895363849 0.13534279923785245 0.12783385953904661 -0.063453354273775159 -0.01853005350652728 0.095831604958286604 0.09858521743957567 0.17981482375439162 -0.066471946836619042 0.13185358986341017 0.053603070880009984 0.17543758897504344 0.30976190791619551 0.10466022364225271 0.085270516090223764 0.31264399736235104 0.55036361283931001 0.26666528770578823 -0.015465007101059402 0.48671520529689227 0.52050545982557717 0.13191465900403265 0.13386071804776978 -0.06180033290121606
leaf_weight=426.8816855289042 3241.9211090281606 864.97611027304083 120.77975972089916 313.07310456642881 19359.510288707912 354.49754917621613 901.35209436714649 121.47280820319429 115.05801434582099 84.212053144816309 181.64392311731353 4.6510087260976425 768.29786239657551 42.291089593432844 95.454556702170521 476.83645107457414 1052.9634815901518 71.434294908307493 183.73827038798481 28.802781072445214 16.776057281065732 358.28266881220043 43.713067467790097 162.36272594099864 8.4637298043817299 19.655089984182268 12.957189147360621 203.57176229543984 89.506982068996876 187.99459422007203 25.994218201842159 148.24801953928545 8.2999021839350444 5110.9690673919395 7.6905141742900005 1061.4941719952039 80.301774459891021 753.89043768262491 39.745529297273606 295.1197756677866 66.34699971228838 40.020822498016059 12.217365511227397 43.022599210031331 515.19734720513225 35.190746545325965 88.285623282194138 39.742878054268658 102.42368126567453 7.59453195426613 199.20774367311969 38.380177280399948 439.63227870268747 54.355638473760337 553.78015208709985 396.49243577383459 410.05165099306032 473.9193804897368 346.64256278192624 481.8698793114163 975.4178022663109 255.97845086921006 165.2374159838073 69.027558999601752 253.49929159972817 139.85949873039499 208.83944600587711 25.301260514650494 6.115028196014463 117.66586193675175 98.738004136364907 5.3644560175016514 29.433184381574392 45.062438250984997 1176.6303787687793 42.832184221129864 104.86609414499253
leaf_count=29144 777 38823 2091 1599 6038 1442 998 579 387 1460 6613 233 6885 194 436 34098 1767 460 362 776 1228 14645 3283 850 57 184 251 7002 4077 860 234 1701 11 7458 98 3194 316 4694 176 1409 154 1799 423 111 845 2676 296 73 3972 183 4332 1491 14122 1225 3533 3208 12385 10065 2586 2651 5804 10042 1846 2034 1612 792 2973 405 52 824 446 124 79 413 15821 443 4916
internal_value=0.0656065 0.0820895 0.0879711 0.0603079 0.0524402 0.0237659 -0.0268766 -0.0601572 0.102401 0.106641 0.132941 0.171008 0.0150495 0.401339 0.100209 0.0580503 -0.018251 0.00252415 0.180037 0.22986 0.0352051 0.077574 0.167193 0.160096 0.193251 0.502698 0.0865055 0.0282493 0.18196 0.202337 0.229164 0.286383 0.152916 0.0511662 0.206667 0.0933877 0.120804 0.104901 0.205913 -0.134386 0.258412 0.195961 0.349068 0.58534 0 0.154601 0.0919916 0.073003 0.11164 0.1168 0.106796 0.11847 0.0932568 0.157587 0.157135 0.0391022 -0.0175032 0.0627045 0.029994 0.0614305 0.170355 0.0010701 0.048971 0.210521 0.206247 0.272104 0.0255327 0.367182 -0.0513508 0.394643 0.424591 0.524592 0.393141 0.135856 0.150387 0.362409 0.0407142
internal_weight=45509.1 20182.3 18549 6378.93 25326.8 5967.33 2725.41 1824.05 12170.1 11671.8 5036.14 2308.86 1633.27 89.9647 2727.28 1262.43 1174.44 498.316 439.689 318.909 1104.5 627.659 269.376 2218.89 1182.59 28.1188 6635.64 709 1154.47 972.83 784.835 433.529 351.306 5939.24 157.939 5926.64 1036.3 955.999 202.108 649.617 290.106 223.759 285.281 47.6736 828.27 150.249 5913.68 3033.14 2880.54 1311.63 1271.89 2778.12 1709.97 1068.15 590.808 1721.51 504.452 1217.05 820.562 681.078 1013.8 624.788 368.809 225.663 261.799 156.636 648.472 273.064 416.167 247.07 221.768 123.03 37.0277 1464.85 1264.53 87.8946 200.321
internal_count=301646 288636 242928 15084 13010 6972 6195 5197 227844 198240 105415 24145 45708 538 81270 59241 2346 29604 5182 3091 56080 21982 7337 23607 17571 241 92825 20350 17330 10717 9857 4157 5700 9902 3161 72475 6036 5720 1026 2851 2315 2161 2456 344 2444 3063 72224 39443 32781 10851 10778 28809 20289 8520 3795 28592 12733 15859 12651 6983 7295 18890 8848 4054 1623 2020 17095 2033 12437 1799 1394 948 262 22029 16677 856 5352
is_linear=0
shrinkage=0.0592936


Tree=6
num_leaves=78
num_cat=0
split_feature=3 15 27 2 28 15 10 9 16 18 20 20 17 13 2 15 29 10 27 18 15 16 6 15 5 8 15 14 6 27 13 3 14 22 23 5 16 2 4 14 17 14 13 3 2 20 17 2 27 5 3 18 6 16 14 3 27 9 18 16 3 12 22 20 17 14 12 15 9 8 5 27 26 6 20 6 5
split_gain=1998.02 1852.03 1563.98 1125.85 1223.63 1443.64 1100.13 4387.8 1238.61 1095.24 1082.8 1028.79 902.666 1017.85 922.502 862.665 943.468 835.778 923.425 784.743 780.688 803.98 1144.59 856.367 771.843 901.085 714.304 713.746 689.568 673.745 670.909 810.316 777.563 660.868 734.407 2098.03 646.558 609.996 586.367 581.605 568.593 566.977 560.577 554.678 541.239 537.605 537.113 527.984 526.712 524.354 524.216 871.553 509.819 493.493 474.199 751.66 467.175 463.724 454.473 452.22 444.99 434.733 430.191 723.148 746.055 760.453 641.952 535.769 585.73 476.595 465.845 996.28 499.246 464.652 423.579 431.036 703.958
threshold=56.906249999999382 10.850000000000003 4.5000000000000009 21.635000000000002 2.5000000000000004 21.150000000000002 13.147500000000024 -11.889999999999999 12.750000000000002 0.099999999999996106 6510.8200000000006 3541.3550000000005 0.89152777777777825 39.57500000000001 26.805000000000003 31.750000000000004 7.5000000000000009 7.9800000000001488 16.500000000000004 1.6500000000000006 19.550000000000004 12.250000000000002 54.375000000000007 26.450000000000003 2.2364591515000418 1.6900000000000033 28.150000000000002 3.2849999999999988 57.775000000000013 11.500000000000002 25.225000000000005 30.156249999999563 4.9800000000000022 -345.27999999999946 31.108350000000005 5.1376827396945641 34.150000000000013 18.925000000000004 20.404114583333321 4.740000000000002 -4.1654513888888891 1.2500000000000011 97.285000000000011 32.447499999999472 12.155000000000003 4096.7200000000003 1.4529166666666689 16.445000000000004 19.500000000000004 1.6978328985615783 49.182499999999457 -1.0000000180025095e-35 18.785000000000004 8.3500000000000032 9.004999999999999 21.174999999999937 8.5000000000000018 2.2900000000000009 -0.90000000000000113 3.6500000000000008 51.462499999999764 3.874999999999996 -144.25999999999974 2994.0400000000004 0.65217013888889153 -0.5899999999999993 1.790000000000002 26.750000000000004 0.16000000000000195 15.345000000000004 165.97052820404286 19.500000000000004 -395.63000000000005 208.84000000000003 3250.2650000000008 166.31500000000003 21.973940076292745
decision_type=8 2 2 10 2 2 10 8 2 2 2 2 2 2 10 2 2 10 2 2 2 2 10 2 10 10 2 10 10 2 2 10 10 2 2 10 2 8 10 10 2 10 2 10 10 2 2 10 2 10 10 2 10 2 10 10 2 10 2 2 10 10 2 2 2 10 10 2 10 10 10 2 2 10 2 10 10
left_child=1 37 9 4 10 58 7 48 59 52 19 38 13 14 49 16 74 20 45 40 -14 22 -22 50 -13 -26 -25 -21 -24 30 -16 32 53 34 -28 -36 -37 44 -7 -39 -4 -40 -30 -35 -1 -19 -44 -11 -2 -5 -23 -52 -3 -32 55 -43 -27 -18 -6 -9 -45 -17 63 -42 65 -65 -66 68 69 -67 71 72 -64 -70 -10 -76 -77
right_child=6 2 3 12 5 11 -8 8 15 47 -12 24 17 -15 29 61 57 18 -20 27 21 23 28 26 25 56 33 -29 42 -31 31 -33 -34 43 35 36 -38 39 41 -41 62 54 46 60 -46 -47 -48 -49 -50 -51 51 -53 -54 -55 -56 -57 -58 -59 -60 -61 -62 -63 70 64 66 67 -68 -69 73 -71 -72 -73 -74 -75 75 76 -78
leaf_value=-0.055445586036452284 0.068881620744722219 0.28848606109700314 -0.059627004583011602 0.18563659972712293 0.061151985093325617 0.02795543142075578 0.060587074696426248 0.026916244405333353 -0.15803840439428041 0.11843857425510483 -0.031173871173436504 0.22889529681012791 -0.064889211975482544 -0.064973830534654706 -0.064968320906492127 0.0036964348012023755 -0.12225045112728369 0.086534042237731298 -0.059521304610641097 0.13125145777540434 -0.064997218212098765 0.096211427937956187 0.33398119474782223 -0.055422018880705672 -0.035999885509014791 -0.067939509082373645 0.044954616723663583 0.29495977149460423 0.12641098114018676 0.02927090495240171 0.052795079836132817 0.057853778739544982 0.016751453080729152 0.064507429482486736 0.84689772362117277 0.072592177880499945 0.36573982821049622 0.12186073038546841 0.10434085347772182 0.029460716729237568 0.54721406037816089 0.12872283542371002 0.49945526478693625 -0.074872748487341531 0.17723116577516757 0.019605428112226025 -0.023722787697182671 -0.029683298456967332 -0.018269913021200967 -0.033877580349142747 0.099520310945729093 0.41463629202571273 -0.054214555275116559 0.32749611376167603 0.077356628530018484 0.41754207215457001 0.081558722667443753 -0.01418411666124943 -0.070688158335031032 -0.12742086136166561 0.06241641091855285 0.09610972250895998 0.19685021937093242 0.077047184283140405 -0.043338089746976012 0.16046231114367435 0.12821406773999466 0.081753684380804728 0.50908071821525414 0.40375548624623031 0.21557432038389199 -0.04005213834451591 0.094743182864916203 -0.017363571264246615 -0.058367664679253743 0.16373125164716271 0.0092307837326974056
leaf_weight=31.567865905817598 5763.5735630756244 7.232489308807998 62.483874050434679 32.876410110853612 116.82882137829438 110.21384357009083 17840.307008690666 72.881072327494621 46.831336853094399 288.34387145750225 170.64474757295102 78.707292412407696 109.6409874050878 359.57101160101593 49.798604803159833 357.83181254612282 398.19229592382908 906.62137598823756 278.59312576986849 295.63941644970328 84.559416391886771 1134.6568334936164 68.163626598194242 203.56692491099238 353.1900603515096 71.153506320435554 187.38258124142885 159.73268429376185 830.03055771207437 493.54429414076731 33.572210018523037 192.68024310423061 52.439453218597919 816.89876608736813 8.9883366404101235 132.39961059484631 28.125266717746854 1163.3592738476582 190.61300233472139 317.59146685479209 8.869238172657786 67.026541577186435 19.641830710694197 217.77845445554703 820.73757588164881 813.81494171265513 7.1457082517445079 111.32290601264685 247.147174899932 499.99619903322309 97.302865481004119 45.300196736119688 649.34847360802814 147.25812828354537 51.515009667724371 87.477342189755291 1052.882317549549 223.84685709653422 333.31311806617305 432.79705533618107 121.99219485837966 361.849420347251 189.26513546844944 179.48769212840125 115.97587511921301 184.50316776428372 192.97897360101342 78.529845116659999 45.849590037483722 36.092226780019701 115.84345304220915 176.07769555272534 2189.4683570046909 5.1047976003028444 256.17613623756915 108.21758966427296 989.19140936713666
leaf_count=1297 2154 522 3334 272 2034 2348 7387 201 407 3904 6587 1209 4744 10070 2245 834 4093 441 1812 872 1954 13721 180 4482 19593 3441 1748 601 4540 9286 545 1836 1772 10635 93 999 7 4158 1634 4352 37 560 18 5658 3487 2647 120 5350 578 17274 220 131 47687 963 149 431 7929 751 20842 4112 605 239 1215 878 2566 1483 274 568 318 29 714 7925 18308 85 2218 157 2776
internal_value=0.0621993 0.0775076 0.0701009 0.0751077 0.0930984 0.0598467 0.051955 0.0352583 -0.0201873 0.000197987 0.112752 0.0808188 0.0598387 0.0233758 0.0449134 -0.00425623 -0.0241701 0.0708609 0.0389642 0.118944 0.0861971 0.0905163 0.136677 0.074542 0.0561562 0.0455658 0.0466097 0.193441 0.155769 0.0791775 0.129092 0.153105 0.226137 0.0607073 0.130674 0.217611 0.140844 0.126981 0.153957 0.102471 0.108979 0.187121 0.138242 0.0381449 0.1679 0.0552513 0.381167 0.0768752 0.0652409 -0.0172639 0.111374 0.218526 -0.046523 0.282259 0.255614 0.30666 0.0714674 -0.0844178 -0.0354958 -0.10467 -0.0246281 0.051036 0.11217 0.150267 0.14044 0.183127 0.0636737 0.233828 0.273256 0.214539 0.0995682 0.093535 0.103622 0.457595 0.00277608 0.00943956 0.0257906
internal_weight=45182.2 18083.3 15750.1 14693.8 6719.47 2512.92 27098.8 9258.54 3247.81 1056.25 4206.55 2062.78 7974.34 1861.74 1502.17 2742.14 2022.46 6112.6 1999.03 4035.9 4113.57 4003.93 1009.54 2994.39 1555.93 1477.23 1717.13 455.372 924.982 969.293 475.749 425.95 233.27 1513.57 356.896 169.513 160.525 2333.26 506.846 1480.95 3580.53 396.632 856.818 1156.67 852.305 1720.44 26.7875 399.667 6010.72 532.873 1277.26 142.603 656.581 180.83 206.019 154.504 1124.04 622.039 450.142 505.678 339.771 719.681 3518.05 847.391 838.522 529.567 308.955 350.08 271.55 220.595 2670.65 2554.81 2378.73 50.9544 1400.42 1353.59 1097.41
internal_count=301646 275739 262445 204982 105964 60170 25907 18520 15788 57463 45794 37294 99018 44263 34193 11475 10402 54755 4900 39207 49855 45111 6812 38299 32172 30963 24227 1473 4858 16647 7361 5116 3280 19745 2847 1099 1006 13294 5122 8510 37734 2774 4678 16898 4784 3088 138 9254 2732 17546 14072 351 48209 1508 1140 991 11370 4844 22876 4313 6263 1073 34400 6238 6201 3361 2840 2483 1915 1512 28162 27448 19523 403 5558 5151 2933
is_linear=0
shrinkage=0.0592936


Tree=7
num_leaves=78
num_cat=0
split_feature=2 13 3 18 25 25 11 2 11 23 9 20 0 11 5 5 29 15 2 13 28 25 8 29 10 29 23 13 7 10 0 15 18 11 15 14 28 5 20 8 11 14 3 5 11 5 28 12 15 27 2 19 0 5 9 8 0 15 3 8 15 23 12 11 12 27 11 14 29 10 28 13 11 21 13 23 10
split_gain=1592.61 975.231 1376.72 1197.59 939.16 740.564 700.699 1102.65 631.742 1053.09 866.337 776.153 1318.24 1343.34 768.49 740.121 1059.18 782.022 1076.77 875.075 751.327 634.729 630.657 787.508 629.847 604.88 595.526 587.113 708.497 565.169 598.723 554.672 552.431 552.308 534.65 581.995 506.791 496.838 497.606 495.997 491.878 444.827 469.562 693.705 659.314 576.112 466.749 432.375 422.228 477.576 408.915 408.848 401.93 702.243 457.505 391.794 437.838 387.824 383.359 370.022 358.344 356.767 352.94 347.935 347.801 481.561 346.396 344.833 342.614 373.109 340.635 335.959 334.95 328.619 324.833 505.744 450.935
threshold=18.985000000000003 21.675000000000004 47.134999999999948 -1.0000000180025095e-35 9492.3750000000018 13477.815000000001 6.1449999999999898 13.365 0.21499999999999989 24.940200000000004 -27.409999999999997 3273.2050000000004 98.030000000000015 24.449999999999999 2.2364591515000418 90.9804700866448 3.5000000000000004 31.850000000000005 63.345000000000006 22.515000000000004 5.5000000000000009 11543.570000000002 15.915000000000001 6.5000000000000009 0.81499999999992945 4.5000000000000009 18.108650000000001 45.785000000000004 30.765000000000001 1.0549999999999862 37.255000000000003 20.650000000000002 1.2000000000000022 3.1500000000000017 23.250000000000004 -5.9999999999999973 4.5000000000000009 23.101607871685577 4330.5650000000014 -11.319999999999997 0.049999999999998053 29.105000000000008 30.156249999999563 7.3239086647818494 68.230000000000004 57.385732234770039 5.5000000000000009 10.050000000000002 31.350000000000005 21.500000000000004 21.635000000000002 6.772221640929394 20.685000000000006 24.007402172840035 -12.974999999999996 0.96999999999999953 14.485000000000001 26.950000000000003 19.782500000000073 -48.554999999999993 27.150000000000002 15.293550000000002 -2.3100000000000005 7.8100000000000005 0.069999999999997634 17.500000000000004 0.025000000000002135 1.6150000000000004 8.5000000000000018 12.218749999999998 1.0000000180025095e-35 22.945000000000004 92.000000000000014 3421.7400000000002 33.635000000000012 26.501750000000005 0.52500000000006752
decision_type=8 2 10 2 2 2 10 10 10 2 8 2 10 10 10 10 2 2 10 2 2 2 10 2 10 2 2 2 10 10 10 2 2 10 2 10 2 10 2 10 10 10 10 10 10 10 2 10 2 2 8 2 10 10 10 10 10 2 10 10 2 2 10 10 10 2 10 10 2 10 2 2 10 2 2 2 10
left_child=1 3 6 25 36 8 7 -3 9 10 -2 12 50 47 24 16 20 18 19 -18 26 31 23 57 -13 55 29 -20 -29 34 -31 51 33 -23 64 -36 68 38 62 59 66 42 43 48 46 -46 58 -14 49 -41 67 -21 53 -8 -55 -1 61 -9 -45 -33 -24 -57 -28 -4 -16 -66 -11 71 69 -5 -43 -10 -70 -51 75 -60 -76
right_child=5 2 63 4 -6 -7 52 22 11 40 -12 14 13 -15 15 -17 17 -19 27 21 -22 32 60 -25 -26 -27 37 28 -30 30 -32 39 -34 -35 35 -37 -38 -39 -40 41 -42 70 -44 44 45 -47 -48 -49 -50 73 -52 -53 -54 54 -56 56 -58 -59 74 -61 -62 -63 -64 -65 65 -67 -68 -69 72 -71 -72 -73 -74 -75 76 -77 -78
leaf_value=-0.03097205065079002 0.050762441702500029 -0.0030269671721923209 -0.041989926294280798 0.12427665471162609 -0.071118858883723088 -0.086558376755283495 -0.068072478905418524 0.19453563139256652 -0.060229740743297636 0.11144055230312545 -0.083219882058104946 -0.042094565081246517 -0.14437659629019545 0.053756470680821136 0.071567634613396547 0.061171566137975343 -0.053151329422125165 0.069521298073497204 0.040341266243526942 0.052559356473593111 -0.09472965541561619 0.061879185109959996 0.40044747763372635 -0.0025150915159792417 0.25642689278080139 -0.056621155765690018 0.099795541732470988 -0.072383828679003032 0.014521558060556251 -0.057726632211011375 0.069102699220440836 0.05202475310361683 0.098632193599271445 -0.092246199167701479 0.094717830523981181 0.27835099966588567 -0.0063657613062771063 0.058966373143273146 -0.088708803923563603 -0.06422914204313307 -0.070730863363149959 0.058225150396820274 0.047309046317985617 -0.046066696781406367 -0.04985211693577421 0.13552862648348021 -0.055839821053359148 0.033465440760315435 0.16328230451456741 0.48135588806297169 0.085428505412949815 -0.047698989328871101 0.11465902173820923 0.27320285392793781 0.063491535713742206 0.092994527703517779 0.039306252005776483 -0.041258095666392464 0.18556383045324082 -0.058405051222127774 0.080055792793237254 0.40746566942299517 -0.037499133564522884 0.068170702664841584 0.15612283678089089 -0.074085026928674788 0.34971464249151246 0.16290347305374861 -0.068333299782143211 0.070306417125914053 -0.074192127139399155 0.10538898848318491 0.083260126347272645 -0.011938020621992911 0.1237986269519482 -0.054127007645950284 -0.068892484616586216
leaf_weight=195.49171322770417 277.06832736404613 119.0644307252951 96.869150215294212 1128.4403006047942 133.89601206220686 124.25414271513 121.10618015052751 667.26620958000422 46.562259411904961 95.607382279355079 408.01165042165667 27.795734000392258 167.8002292662859 1683.1085704118013 998.95637230062857 12613.151186991017 369.26341225206852 1647.3211663002148 470.89758917922154 218.51613803114742 92.708680655341595 101.05401413980871 68.994884844869375 84.264510056935251 101.48072158079594 386.5227360939607 138.96168889664114 776.70462865708396 558.35126403719187 142.57496418058872 974.05782166821882 173.54441888444126 95.330823635216802 314.94053711276501 146.86545260623097 123.51284504542127 186.53378913877532 1380.921345136594 174.46543713565916 191.897188865114 26.076687200460583 106.19955371366814 4233.1100626196712 31.86733349179849 152.2754798871465 84.342470004688948 38.978108623530716 59.808322980999947 35.317773475311697 1.6813636645674686 2837.3775417036377 375.73128756321967 1845.4137372071855 37.046902594156563 277.58070936752483 53.708581143990159 360.43278959812596 21.093081375118345 546.79445999814197 247.55776488687843 22.655026768799871 14.097100797574965 109.83443775540218 2693.5358846648596 385.04457027278841 28.584551167674363 29.39266681112349 534.35818554647267 83.073598634917289 868.55032065138221 158.82329131476581 199.90041769016534 107.08464373648167 6.6927757300436497 185.70815912168473 27.769008472561836 47.250075637828559
leaf_count=12196 231 2879 624 12387 8821 6974 5344 5212 2213 764 14154 1859 671 569 5345 13965 20860 3241 2684 821 3558 1877 358 3711 440 32311 224 6653 735 3486 614 1482 266 5523 67 497 7675 2844 4397 8328 932 412 16536 1758 2365 419 1850 35 280 12 12787 10204 7041 52 1941 1268 2789 898 5164 7070 50 104 1650 1562 1640 743 320 2369 4769 261 2448 740 453 679 1436 848 901
internal_value=0.0591894 0.0807079 0.0952228 0.0554953 0.0773927 0.0533009 0.121481 0.164205 0.0538243 0.00259906 -0.0287549 0.0550706 0.0755567 0.0353161 0.0510866 0.0503838 0.0417815 0.0317891 0.0252026 0.034819 0.0654605 0.0393086 0.187305 0.16587 0.191975 0.000736344 0.0689004 -0.0158845 -0.036009 0.0861143 0.0524028 0.0440672 -0.0238251 -0.0538017 0.107981 0.185238 0.0860835 0.0417926 -0.0137817 0.0492571 0.140215 0.0537347 0.0573066 0.0879947 0.107403 0.0176949 0.130924 -0.0971768 -0.00348447 -0.0393257 0.0966154 -0.0102465 0.102434 0.0489739 0.0953097 0.0369101 0.0684057 0.186583 0.140323 -0.0122519 0.33679 0.198867 0.0390754 0.0641532 0.0920332 0.138535 0.187559 0.135649 0.0940633 0.101305 -0.0201615 0.07228 0.0158292 0.264969 0.148348 0.172989 0.0827639
internal_weight=44698.9 9572.72 6054.89 3517.83 2507.58 35126.2 3264.49 983.338 35001.9 836.157 685.08 34165.8 5528.92 1910.72 28636.8 28507.6 15894.4 11197.9 9550.6 7744.65 4696.49 7375.38 864.274 772.624 129.276 1010.25 4603.78 1805.95 1335.06 2799.6 1116.63 6864.06 511.325 415.995 1682.96 270.378 2373.68 1804.18 423.262 6269.81 151.077 5848.71 5583.68 1350.57 1114.99 236.618 878.367 227.609 235.589 200.271 3618.2 594.247 2281.15 435.734 314.628 623.73 428.238 688.359 839.389 421.102 91.6499 67.8057 248.796 2790.41 1412.59 413.629 125 780.821 2187.15 1996.99 265.023 246.463 190.158 8.37414 807.522 574.563 232.958
internal_count=301646 112706 29672 83034 34366 188940 27486 13108 181966 16401 14385 165565 19384 1275 146181 143882 129917 104852 101611 91539 25065 70679 10229 9821 2299 48668 21507 10072 7388 12392 4100 63013 7666 7400 8292 564 25545 9115 6271 51988 2016 43436 40576 24040 14741 2784 11957 706 9299 9019 18109 11025 14378 7337 1993 16357 4161 6110 10107 8552 408 1372 1874 2186 7728 2383 1084 5322 17870 12648 2860 2953 5222 691 8349 6012 2337
is_linear=0
shrinkage=0.0592936


Tree=8
num_leaves=78
num_cat=0
split_feature=29 21 5 4 6 0 11 17 11 18 25 29 0 13 2 7 6 10 28 9 5 6 0 22 20 0 5 22 10 23 6 13 0 10 28 21 9 20 6 10 20 16 29 14 8 16 6 11 10 5 11 11 5 2 0 6 4 13 11 14 28 28 12 10 29 5 17 10 5 11 6 16 16 2 11 21 25
split_gain=1343.11 989.577 1495.7 1962.55 1260.35 1060.36 2026.98 1045.06 1079.47 784.467 1047.68 835.328 752.539 698.515 1115.79 795.833 681.408 673.444 649.415 646.978 606.351 1522.55 684.991 594.143 580.83 551.369 526.923 723.031 625.958 616.582 625.689 552.039 513.029 534.758 512.722 509.932 567.737 563.802 575.237 456.772 444.349 442.128 523.176 701.116 577.539 524.469 480.656 472.516 443.316 430.91 419.608 416.007 587.104 531.272 411.936 407.767 777.861 604.781 509.697 398.549 394.234 432.967 390.626 383.917 383.897 383.18 371.726 369.325 365.701 355.65 354.317 353.307 352.665 351.065 349.058 347.38 341.14
threshold=3.5000000000000004 5056.9475000000011 85.288725840076395 71.519947916666652 26.810000000000006 98.030000000000015 24.449999999999999 3.0719791666666674 10.355000000000002 0.49999999999999994 11543.570000000002 5.5000000000000009 98.030000000000015 22.155000000000005 21.635000000000002 0.7699999999999998 36.360000000000007 6.8062500000000012 5.5000000000000009 135.47500000000005 16.575393239231797 75.165000000000006 50.035000000000004 -1711.4399999999998 1.0000000180025095e-35 15.685 17.719707481762594 -345.27999999999946 0.67749999999991461 23.630450000000003 79.805000000000021 28.285000000000004 28.145000000000003 7.0825000000001621 5.5000000000000009 6514.1400000000012 35.365000000000009 6479.7100000000009 547.40500000000009 -31.799999999999923 8076.5200000000013 20.050000000000004 1.5000000000000002 8.5600000000000005 -4.7699999999999978 8.4500000000000011 318.05500000000006 1.2549999999999966 17.053750000000104 66.192541838839176 11.525000000000004 6.1449999999999898 15.179501509996713 18.745000000000001 98.030000000000015 348.76500000000004 34.403489583333311 32.665000000000006 61.135000000000012 7.8750000000000009 4.5000000000000009 1.5000000000000002 10.050000000000002 -0.37999999999978229 6.5000000000000009 9.9989501937604413 0.95043402777777619 -15.198750000000006 21.973940076292745 32.310000000000009 26.810000000000006 21.550000000000004 1.8500000000000003 20.315000000000001 35.085000000000008 4084.4187500000003 8893.8050000000021
decision_type=2 2 10 10 10 10 10 2 10 2 2 2 8 2 10 10 10 10 2 10 10 10 10 2 2 10 10 2 10 2 10 2 10 10 2 2 10 2 10 10 2 2 2 10 10 2 10 10 10 10 10 10 10 10 10 10 10 2 10 10 2 2 10 10 2 10 2 10 10 10 10 2 2 10 10 2 2
left_child=12 5 3 4 25 13 62 8 23 10 11 76 18 15 17 -2 -16 34 35 -5 65 -22 -23 -6 -20 -3 27 28 60 31 -31 -29 -9 54 63 37 -37 38 41 -40 69 42 43 47 -44 -46 70 -1 -43 -39 -24 53 -53 -49 64 56 57 -28 -59 -27 61 -18 -7 -15 -34 74 -17 -25 -52 -35 -47 -11 -4 -19 -13 -30 -10
right_child=1 2 72 19 7 6 -8 32 9 71 -12 20 -14 14 16 66 26 73 24 -21 21 22 50 67 -26 59 55 29 75 30 -32 -33 33 40 -36 36 -38 49 39 -41 -42 48 44 -45 45 46 -48 51 -50 -51 68 52 -54 -55 -56 -57 -58 58 -60 -61 -62 -63 -64 -65 -66 -67 -68 -69 -70 -71 -72 -73 -74 -75 -76 -77 -78
leaf_value=-0.054409190920398649 -0.069045134600293989 -0.0042355112157867062 0.22031929078288523 -0.12097413678613235 0.11616701433376959 -0.15044189261060939 0.048835574089989155 -0.037461512413642262 -0.088568019208100535 0.059751464835812812 -0.089558432882368422 -0.064379582680711672 0.056157846007413526 0.018312933597183362 -0.022694695205058138 -0.028970875557260037 0.079803227450930339 0.073105168247698998 0.07489749319355489 0.050943324327371087 0.22940638012482395 -0.041593337660377039 0.13931688172048029 0.012484718955507313 -0.072049175889131248 0.17557750378870124 -0.085653310896828982 -0.063753823929954517 0.10195610311402441 -0.05794027876540158 0.06295954358716313 0.11088217222654158 0.062109694503464562 -0.062153644995487062 -0.051776261748684639 -0.075076492959605737 0.084574396698428242 -0.025207652294558486 0.096206181297620486 -0.037622428524930647 -0.1214229296698893 0.11812632008413995 -0.077072225392960256 -0.068863069729839271 -0.053045079084635842 -0.059417962954934497 -0.082682329082079453 0.19737084148140607 0.055289739419266695 0.41363579067036677 -0.10319624472492199 -0.030706441244296879 0.10847792972149542 -0.044917316273217371 0.033007926288913747 0.07227888792667099 -0.095779168114987143 -0.049761531944611949 0.078217241220418884 -0.041982606841396299 -0.041879591105113606 0.25548971976618762 0.012091178250205482 0.15004330737098784 0.13349345866622273 -0.082656077330969774 0.10386187763044717 -0.068584041660151931 0.047125823180529297 0.047567690625477818 0.083223047237972594 -0.054986143554757477 0.058159813111945506 -0.10124804847252201 0.081780136403247897 -0.076021192303905111 0.064957771716733906
leaf_weight=54.888417809735984 240.1253678300418 87.852576712612063 41.199750132858753 404.60153495054692 71.970762867946178 221.09020356833935 3086.0410947501659 200.18700770754367 304.35140022682026 1734.1573926047422 360.1737758195959 84.422837499529123 6838.7691614050418 88.996750618331134 290.29599547712132 94.377672720234841 79.148406432010233 586.09893998876214 191.10409213928506 87.598097592592239 143.41936394060031 337.04148136964068 165.9442113218829 246.20508055528626 171.11004139436409 337.70395854488015 104.65533568616956 61.179723672568798 183.19788741972297 205.7724867942743 493.46840648027137 964.90104363812134 534.0630568722263 103.99904498504475 43.606014593970031 138.35874238144606 158.94083188287914 7.96182632818818 138.01380803342909 221.32480933796614 54.850567288696766 2755.0486040655524 101.09687727177516 75.791590394452214 119.35442978097126 56.167038699612021 60.333867307752371 304.42561432579532 503.46963072475046 24.082485901191831 52.376063322182745 109.6015184186399 1330.9180829934776 30.717967526987195 455.14405792206526 1353.4006899874657 155.98027834482491 119.84846426872537 747.31778930220753 27.466564033180475 18.177749546710402 238.53678100882098 62.512196764349937 1419.2138166050427 616.22902069147676 215.8889879048802 263.25847567431629 870.74912314116955 838.68062949320301 1300.2651594504714 1581.365129487589 91.410149580333382 8013.9585356391035 35.373205850832164 140.56312140682712 40.279909289442003 52.758507885970175
leaf_count=2565 16207 6172 47 3602 343 908 1295 6601 7416 7551 10525 5483 2052 1887 5932 3291 445 552 1036 23 295 9533 104 1022 9375 4858 2183 2282 363 6040 2579 3113 1742 844 2148 6341 67 312 60 3405 310 20113 4404 1838 2806 2374 1212 1435 667 22 542 2922 1765 1665 309 5979 2217 1797 1048 1393 574 899 62 10336 1825 6212 1224 56714 1147 1076 8223 2139 14020 211 981 454 132
internal_value=0.0564051 0.0489399 0.0402489 0.0247652 0.0308332 0.0628319 0.0347702 0.0258616 0.0104842 0.0237362 0.00328492 0.0179665 0.0708997 0.0748343 0.0799293 0.0125956 0.0643635 0.115656 0.0831963 -0.0895947 0.0331385 0.0507096 0.030908 -0.0395385 0.00482251 0.12659 0.0697433 0.090474 0.14935 0.0706301 0.0268036 0.0998238 0.0525938 0.0586346 0.136709 0.0868113 0.0095291 0.0898415 0.0884816 0.0141953 0.0321265 0.0921978 0.0779149 0.10014 0.0553745 0.0631837 0.0717042 0.107539 0.108652 0.316476 0.0543793 0.112902 0.097619 0.173965 0.0822979 0.0503257 0.0234477 0.0434644 0.05997 0.158046 0.200313 0.21557 -0.114537 0.14256 0.10123 -0.0274472 0.0683419 -0.0505576 0.0371656 0.0389649 0.0779186 0.0536608 0.0592445 0.061616 0.0256442 0.0673354 -0.0643122
internal_weight=44144.9 29172.1 17975.2 9920.07 9427.87 11196.9 3369.64 8974.85 5710.11 4521.19 2695.62 2335.45 14972.8 7827.21 7229.45 597.762 5056.16 2173.29 8134.08 492.2 1978.34 1537.46 1394.04 1188.92 362.214 453.023 4765.86 2284.66 559.341 1725.32 699.241 1026.08 3264.74 3064.55 1551.82 7771.86 297.3 7474.56 7442.52 359.339 1459.11 7083.18 3824.66 1906.34 1918.32 1817.22 1697.87 1830.55 3258.52 32.0443 1057 1775.66 1440.52 335.144 1605.44 2481.2 1127.8 971.822 867.166 365.171 335.863 317.685 283.602 1508.21 1150.29 440.875 357.636 1116.95 891.057 1404.26 1637.53 1825.57 8055.16 621.472 224.986 223.478 357.11
internal_count=301646 226987 152961 138894 135269 74026 2265 122846 110139 52060 42370 31845 74659 71761 51039 20722 35905 15134 72607 3625 24297 11621 11326 58079 10411 12423 29973 16749 2735 14014 8619 5395 12707 6106 14371 62196 6408 55788 55454 3465 2230 51989 31209 12190 19019 14615 11809 10352 20780 334 1793 7787 4687 3100 3876 13224 7245 5028 2845 6251 1918 1344 970 12223 3567 12676 4515 57736 1689 1920 10597 9690 14067 763 6464 817 7548
is_linear=0
shrinkage=0.0592936


Tree=9
num_leaves=78
num_cat=0
split_feature=29 27 1 27 25 17 11 16 15 16 15 15 10 27 17 6 22 13 6 6 10 4 2 21 6 1 15 8 28 11 1 16 15 25 2 21 6 10 6 16 11 3 26 4 1 14 28 15 15 23 11 12 25 3 27 3 11 10 15 17 11 29 22 17 10 16 15 12 14 14 16 10 11 29 15 23 17
split_gain=1218.44 970.418 921.395 1172.52 813.743 777.576 678.863 1276.18 685.976 613.643 648.324 1027.33 672.589 534.837 578.009 520.671 519.82 518.985 511.944 951.14 571.707 504.63 473.956 687.377 644.946 464.593 459.743 490.649 644.379 758.113 697.014 602.804 502.124 508.801 459.745 454.458 447.817 446.643 431.2 619.314 427.121 425.374 372.227 425.922 442.253 363.077 383.891 354.868 332.108 328.758 515.459 428.217 353.694 391.333 329.614 327.854 349.015 540.719 856.819 690.011 602.168 481.322 477.502 574.563 423.082 407.622 395.758 463.056 363.95 366.406 339.802 338.825 327.766 321.475 708.027 706.554 354.653
threshold=3.5000000000000004 3.5000000000000004 30.135000000000002 19.500000000000004 9492.3750000000018 4.9602604166666664 3.9350000000000027 22.350000000000005 23.650000000000002 31.050000000000004 21.450000000000003 3.8500000000000001 5.7800000000001051 18.500000000000004 -3.7212673611111096 54.375000000000007 -623.06499999999994 170.09500000000003 193.68000000000004 213.38500000000002 19.023750000000017 18.91739583333332 18.985000000000003 6514.1400000000012 65.385000000000005 16.295000000000005 32.250000000000007 42.845000000000006 1.5000000000000002 6.1449999999999898 44.285000000000004 27.950000000000003 23.450000000000003 8612.0450000000019 18.265000000000004 3932.3412500000004 85.040000000000006 -3.7724999999999862 723.57500000000016 10.850000000000003 17.020000000000003 50.276249999999344 -848.21999999999923 34.669791666666661 51.225000000000001 -62.029999999999994 5.5000000000000009 28.650000000000002 30.250000000000004 23.163600000000002 61.135000000000012 24.980000000000004 8893.8050000000021 78.887499999999662 2.5000000000000004 13.937499999999099 35.810000000000009 0.12500000000000513 29.750000000000004 -1.2336631944444443 11.940000000000008 9.5000000000000018 -308.0950000000002 4.2319965277777785 14.187500000000027 13.350000000000003 29.050000000000004 1.6000000000000034 -2.8399999999999985 -3.8300000000000005 1.8500000000000003 3.8449999999999145 660.50500000000022 1.5000000000000002 20.050000000000004 25.067700000000006 1.887048611111114
decision_type=2 2 10 2 2 2 10 2 2 2 2 2 10 2 2 10 2 2 10 10 10 10 8 2 10 8 2 10 2 10 10 2 2 2 10 2 10 10 10 2 10 10 2 10 10 10 2 2 2 2 10 10 2 10 2 10 10 10 2 2 10 2 2 2 10 2 2 10 10 10 2 10 10 2 2 2 2
left_child=13 5 4 6 9 72 7 8 41 10 11 -3 -13 22 40 -8 47 21 -5 -20 48 -16 23 45 25 35 27 28 31 30 -30 32 -17 -34 -31 -24 -14 -12 39 -36 -15 -4 -41 44 -44 -1 73 -6 -21 52 51 -51 53 54 -26 -39 57 58 59 -57 61 -61 63 64 -58 66 67 68 69 -59 -64 -67 -2 76 75 -75 -47
right_child=1 2 3 18 16 -7 15 -9 -10 -11 37 12 36 14 17 26 -18 -19 19 20 -22 -23 24 -25 49 -27 -28 -29 29 34 -32 -33 33 -35 38 -37 -38 55 -40 42 -42 -43 43 -45 -46 46 -48 -49 -50 50 -52 -53 -54 -55 -56 56 62 65 -60 60 -62 -63 70 -65 -66 71 -68 -69 -70 -71 -72 -73 -74 74 -76 -77 -78
leaf_value=0.05979066798057614 -0.064713286163098349 0.15457276059750666 0.12984094883302383 -0.078393544856543582 -0.0713660389914961 0.12999635596539014 -0.077136672938075385 0.048024883650071466 -0.088711285667095824 -0.036950394469854327 -0.061945449500837461 -0.067754066367619478 0.12107247294905592 -0.10489181292026309 0.03752826307469273 -0.091641928226776623 -0.051187505323097918 0.11569737455421758 0.1470803425137954 -0.099183022074145755 0.036639957837057993 -0.068119331196382582 0.27700714631987877 -0.078328346746179611 -0.067402544508669629 -0.066216325965696154 0.068560613131789516 0.052601333528065106 0.25634438938079235 0.059988823952724035 0.0082296734256934734 -0.06130096006664338 0.073639442053319418 -0.10493881637333084 0.026135509183177207 0 -0.048002270673948647 -0.050478398906933113 0.034830578590124131 0.081439652958598049 0.07008133469167302 -0.099611181563306991 -0.094444022156365603 -0.10610720470686687 0.022133271581168474 0.13603015273331484 -0.053718078277108006 0.091241841002606835 0.010240801787680536 -0.088034889631249072 0.055334419095664729 0.096268034729604782 -0.074166479759277357 0.061792533351797928 0.096185271500141792 -0.031241994036680581 -0.089765046339724583 0.10700910602813514 -0.068768783940390793 0.11549645456511358 -0.060745713233605503 -0.01939149512059948 0.1757567472645869 0.11073356996458082 0.041525475987258961 0.10153880681326459 -0.0037026302005902711 0.098092205390524628 0.1672601102052472 0.51529991567784916 0.069750843237570526 0.012223473484193878 0.073022648266393736 -0.070740239527586887 0.10088798528079014 0.11143442679350125 0.058748979606592942
leaf_weight=1103.6489209588617 520.45133870048448 143.71296766586602 88.371919150464237 319.03075958928093 51.4638103232719 90.860347530804574 106.70834847912192 1070.1274621044286 500.66860568337142 181.16639539878815 73.638129497412592 361.04016447765753 144.26697611855343 42.966256812214851 265.25461982283741 63.85733520006761 334.84273891616613 101.70959774777293 137.28185403579846 288.25543346069753 358.56021901778877 367.97783291060477 22.439981854986399 78.758709683082998 36.953832757193595 218.91575423721224 3500.8286955100484 8185.4759997092187 71.151046291925013 348.40887261740863 84.711085074115545 142.41248048655689 1727.7015575608239 49.881996057461947 463.61268335813656 62.756428889464587 78.126754868309945 61.994461385998875 478.62579187052324 56.279272879473865 1186.9649392138235 32.05450483225286 180.88803869578987 455.52940766233951 278.19405709812418 1316.1527568912134 49.284760617185384 216.72574012167752 137.93317486625165 163.14147772360593 1536.0904824463651 51.175491889938712 48.990737789776176 3659.3329925793223 2378.9965424649417 167.64407158549875 187.68598476983607 20.93234418798238 142.96497687557712 1114.8749816874042 75.712237961124629 95.966777521651238 109.03962176013738 130.22940521501005 144.7340763118118 802.47189240669832 59.219395138788968 407.83476802241057 493.19653624808416 18.871439171954989 3191.3938825363293 193.21370632806793 60.147622985765338 182.64109384221956 1482.5215944456868 114.69849038310349 283.07425480009988
leaf_count=298 37369 67 1322 6411 2165 87 3036 2663 7946 5172 2289 22981 643 1175 5528 1249 20480 23 254 3665 323 8065 210 3967 1137 10601 2311 4377 756 575 779 1045 4471 422 2290 2547 517 5533 1254 42 747 534 2637 5314 823 3836 3500 1016 367 2230 1238 48 2149 988 8639 10771 2828 118 4107 16768 3970 3744 95 173 106 10325 617 744 3061 35 13069 2917 354 8639 6258 235 2601
internal_value=0.0537816 0.0466287 0.0483135 0.0408828 0.0640227 -0.0233527 0.0447522 0.00879624 -0.0581814 0.0687953 0.0711884 0.0171107 -0.0180819 0.0676949 0.0383906 0.048487 -0.00212647 -0.00294481 -0.0146291 0.00770247 -0.0176953 -0.023607 0.0721515 0.0876135 0.0633272 -0.0203557 0.0493737 0.0439776 0.0278194 0.00711019 0.130134 0.0528072 0.0619893 0.0680359 -0.00171939 0.0904993 0.0611297 0.0763827 -0.013285 -0.0296014 0.0631223 0.0645421 -0.0564386 -0.0658243 -0.0241951 0.0906852 0.100396 0.0580219 -0.0637436 0.0666052 0.0432659 -0.0410672 0.0731716 0.0744966 0.0933676 0.077854 0.0790218 0.092565 0.0659018 0.0796108 0.0943351 0.104564 0.0658555 0.0087179 -0.0323356 0.113428 0.140897 0.150184 0.187502 0.361077 0.0737557 0.0846741 -0.0492333 0.102837 0.0842256 0 0.122866
internal_weight=43555.4 28801 28129.5 19126.6 9002.96 671.459 17885.5 1691.22 621.095 8399.93 8218.77 727.147 583.434 14754.4 1964.87 16194.3 603.032 734.942 1241.06 922.031 784.749 633.232 12789.6 4610.78 8178.79 304.112 16087.6 12586.7 4401.25 2417.4 155.862 1983.85 1841.44 1777.58 2261.54 85.1964 222.394 7491.62 1913.13 1434.5 1229.93 120.426 970.891 914.612 459.082 4532.02 3428.37 268.19 426.189 7874.68 1750.41 214.317 6124.27 6075.28 2415.95 7417.98 7355.99 3592.9 1597.16 1454.2 1286.55 1210.84 3763.08 462.649 332.42 1995.74 1000.05 940.835 533 39.8038 3300.43 995.686 580.599 3379.09 1779.86 297.34 1599.23
internal_count=301646 226987 189177 54866 134311 37810 43846 12465 9802 110650 105478 24208 24141 74659 15538 31381 23661 13616 11020 4609 4355 13593 59121 29334 29787 13358 28345 26034 21657 14470 1535 7187 6142 4893 12935 2757 1160 81270 12360 11106 1922 1856 8816 8774 3460 25367 25069 3181 4032 16429 3516 2278 12913 10764 9776 78981 73448 57177 39360 35253 24482 20512 16271 3107 2934 17817 4575 3958 3214 153 13164 13242 37723 21569 15132 8874 6437
is_linear=0
shrinkage=0.0592936


Tree=10
num_leaves=78
num_cat=0
split_feature=29 17 10 17 1 16 29 13 28 6 20 27 0 27 17 6 4 11 11 6 25 11 17 10 6 13 10 29 11 18 10 17 2 4 10 23 29 13 10 4 2 6 11 28 7 12 18 21 16 18 28 27 15 27 11 17 10 25 25 28 11 17 16 1 0 10 29 28 7 21 4 4 6 7 6 15 26
split_gain=1590.66 856.008 956.295 1619.67 900.279 769.835 671.012 905.518 739.581 588.36 574.838 557.87 554.734 767.665 548.011 610.871 650.466 703.16 754.35 899.065 544.499 552.542 533.34 685.776 732.056 480.831 529.803 474.841 465.13 915.365 545.355 461.114 454.982 566.296 446.935 441.282 620.011 419.798 411.21 795.747 560.484 1228.37 440.499 413.207 484.262 424.216 409.161 441.471 404.257 389.427 511.698 377.894 385.469 375.489 360.337 357.774 357.232 490.001 402.863 348.015 346.806 811.673 438.23 326.415 324.184 544.057 402.038 796.695 611.919 460.647 667.456 664.109 648.308 1458.76 401.712 500.264 375.563
threshold=3.5000000000000004 0.89152777777777825 -0.0024999999998853713 -11.450920138888888 23.325000000000003 23.350000000000005 9.5000000000000018 25.705000000000002 5.5000000000000009 36.360000000000007 9130.5250000000015 2.5000000000000004 98.030000000000015 21.500000000000004 2.9902083333333302 606.38000000000011 28.629583333333319 25.120000000000008 25.755000000000006 161.48000000000005 11252.140000000001 37.979999999999997 1.5206423611111097 -3.313749999999946 41.390000000000008 79.925000000000011 37.53250000000012 9.5000000000000018 0.81499999999999961 0.25000000000000006 0.0075000000000279296 5.1490972222222231 20.245000000000001 31.529218750000002 -31.799999999999923 37.459100000000007 5.5000000000000009 72.245000000000019 -2.127499999999829 61.395312499999967 18.805000000000003 65.385000000000005 6.1449999999999898 1.5000000000000002 0.060000000000001392 -5.5299999999999949 0.49999999999999994 4797.8112500000007 36.350000000000001 -0.74999999999999989 1.5000000000000002 11.500000000000002 30.650000000000002 4.5000000000000009 767.55999999999995 -1.2336631944444443 17.053750000000104 7749.0750000000016 8157.4150000000009 5.5000000000000009 64.915000000000006 2.2767708333333343 19.750000000000004 23.445000000000004 98.030000000000015 9.2262499999999132 6.5000000000000009 1.5000000000000002 10.980000000000004 4154.6837500000011 31.749479166666642 38.419583333333314 56.675000000000004 3.3400000000000012 155.15000000000001 31.650000000000002 99.364999999999341
decision_type=2 2 10 2 10 2 2 2 2 10 2 2 10 2 2 10 10 10 10 8 2 10 2 10 10 2 10 2 10 2 10 2 10 10 10 2 2 2 10 10 8 10 10 2 10 10 2 2 2 2 2 2 2 2 10 2 10 2 2 2 10 2 2 10 10 10 2 2 10 2 10 10 10 10 10 2 2
left_child=12 2 3 -2 5 22 8 -8 11 -6 14 -4 13 20 15 16 27 34 -19 -20 38 -22 -3 24 -24 28 -27 51 29 -13 37 -7 -9 -34 -18 -5 -37 54 53 40 59 -42 -43 -44 45 -45 47 -25 49 50 -16 -11 -53 -1 -30 -31 58 -58 -21 -40 61 62 -14 -36 65 66 67 -51 76 70 -68 -72 73 -71 75 -67 -69
right_child=1 4 6 35 9 31 7 32 -10 10 -12 25 60 -15 48 -17 17 18 19 56 21 -23 23 46 -26 26 -28 -29 30 55 -32 -33 33 -35 63 36 -38 -39 39 -41 41 42 43 44 -46 -47 -48 -49 -50 64 -52 52 -54 -55 -56 -57 57 -59 -60 -61 -62 -63 -64 -65 -66 74 69 68 -70 72 71 -73 -74 -75 -76 -77 -78
leaf_value=-0.057679698164292546 0.089011684396201843 0.12667160369324407 -0.062028110554562414 -0.085895518642301688 -0.06869796306488167 -0.024870465716101662 -0.076139745929844668 0.067206818001587731 -0.074795091566939878 -0.091580818518379153 -0.10233955488006691 -0.056949404654125076 -0.081882556344692548 -0.054594107582811698 0.036277253993114704 0.053142011294745446 0.033352901976251167 0.16069280005913245 -0.09273221619001551 -0.07549368076787806 -0.066608583905103519 0.065512945370994974 0.48111517320752289 0.050809374062343933 0 -0.1107366741709355 0.056669761326486469 -0.068811899482866618 -0.054970955295211281 -0.042145650014614761 0.064926586973004172 0.083105664493758863 -0.098464752461294464 0.021805967723718428 0.11608059801069444 0.1905944438896407 -0.092130090941488857 0.1045995542933571 0.10026858172503772 -0.064686883491524044 -0.064398336427959363 -0.059388305406641709 0.10418542429032859 0.041980670948370137 0.074425277438574064 -0.085245342075303224 0.082694955498511774 -0.075382747810534653 -0.13560344572799191 0.097228613783613457 -0.13438495251675603 0.072630710880929858 -0.029274463559437372 0.11456051533484408 0.11527035064405004 0.18389290570550815 0.053616581176463736 -0.11729470841873921 0.040080514025690676 -0.054457026443049721 0.060431736792883717 -0.19675746414465531 0.047617336093627949 -0.095037401938025179 0.048231834891296857 -0.073622515485491535 -0.049371434698058096 -0.084444241178214058 0.081126520411898925 0.084107539948667445 0.18387835225970181 -0.069680802181038878 0.11570786280995687 0.6284786085972166 0.059555458965097695 0.056658464254247233 0.089225977807106352
leaf_weight=39.216345134656876 306.54270279826596 1008.7196721346118 134.112536102999 696.96636837115511 151.38435819232836 358.53060737345368 372.46033262694255 573.80670144036412 156.49564676219597 49.978276982903481 83.461494455114007 73.744356896728277 93.370098009705544 144.00245185010135 212.07829198939726 3140.7229021312669 142.5545076308772 112.20296728890389 259.53486793721095 216.33380087092519 168.02130260132253 291.02837167633697 20.564919906202704 345.09203032683581 17.65189112490043 115.38809292623773 134.26577935181558 105.883554905653 327.41543116047978 22.03857936989516 2801.4627090217546 214.44463701872155 159.46093725087121 756.6834375387989 19.459687103983015 44.756286238785833 47.530057218391448 89.633232876192778 2998.5310576427728 130.05100848339498 243.88019855087623 79.227396694943309 1126.3247461873107 266.54720214335248 1253.3237876705825 130.19765090104192 1123.1687393006869 125.61367387184873 30.573346334975213 862.93629529001191 77.18109966814518 1278.930490472354 137.43996286578476 1663.5816726232879 41.632955909706652 297.02116731740534 991.67022388614714 54.17077699676156 190.90972933871672 45.203081941232085 5296.8071197494864 47.738714396953583 906.26542447507381 446.20260153943673 5626.2903994545341 198.58838188555092 136.15959139121696 234.39101137127727 191.56067588599399 50.76036940375343 132.71860351413488 42.400132166687399 881.00784778129309 21.834644836373627 1264.3264975678176 198.43024521041662 45.051631031557918
leaf_count=1601 1048 7189 10183 34631 3967 12578 21856 3145 9550 885 868 5323 266 6111 443 3738 205 81 2141 1994 9298 1973 267 3832 468 901 32 1800 17034 838 18845 1345 5216 6665 20 79 1384 116 17913 1470 13551 3228 2515 465 3038 2970 5885 6509 423 1663 956 5695 2032 5144 164 1066 485 223 474 3260 1163 251 388 7916 2418 1034 2125 3789 494 287 396 533 2492 148 1170 232 87
internal_value=0.0521343 0.0437406 0.0259317 -0.0247765 0.0498398 0.0788178 0.0351657 0.00538049 0.0483049 0.0444969 0.0455249 0.0532769 0.0678081 0.0777532 0.0462979 0.0335533 0.0180588 -0.00108776 0.0172469 0.00698446 0.0800907 0.016353 0.0923196 0.0704152 0.29752 0.0574203 -0.0209276 0.0476773 0.0628709 0.124031 0.0551354 0.0157747 0.0262184 0 -0.0559436 -0.0697194 0.0472287 -0.00428326 0.0837103 0.0763471 0.0794527 0.0611934 0.0721536 0.0761541 0.0564573 -0.000121986 0.063306 0.0159423 0.0551646 0.0558705 -0.0110132 0.0565819 0.0624728 0.110202 -0.0330485 0.166925 0.0253755 0.0436929 -0.021065 0.0977551 0.0542399 0.0224856 0.0347223 -0.0838539 0.0578575 0.0703984 0.0874506 0.0636395 0.00101471 0.111804 0.0463842 0.1209 0.132339 0.298616 0.0432866 -0.00813596 -0.053895
internal_weight=42875.7 27952.3 7151.42 1095.8 20800.9 3213.79 6055.62 1862.41 4193.21 17587.1 17435.7 4036.71 14923.3 8579.14 17352.3 7145.99 4005.27 2433.04 1824.82 1712.62 8435.13 459.05 2640.81 1632.09 38.2168 3902.6 249.654 1572.23 3652.95 392.804 3260.14 572.975 1489.95 916.144 608.217 789.253 92.2863 458.682 7976.08 6273.29 6143.24 3099.5 2855.62 2776.39 1650.07 396.745 1593.87 470.706 10206.3 10175.7 289.259 1466.35 1416.37 1702.8 369.048 319.06 1453.08 1045.84 407.244 3043.73 6344.18 1047.37 999.636 465.662 9886.46 4260.17 2598.82 1333.94 471.003 1264.88 311.278 175.119 953.603 72.595 1661.35 397.019 279.443
internal_count=301968 227363 138076 37142 89287 38073 100934 36882 64052 51214 47247 54502 74605 72537 46379 27689 23951 13539 5398 5317 66426 11271 24150 16961 735 44319 933 10412 43386 7227 36159 13923 15026 11881 8141 36094 1463 17314 55155 48410 46940 25767 12216 8988 6473 3435 16226 10341 18690 18267 1399 8612 7727 6745 17198 1904 3176 708 2468 21173 2068 905 654 7936 16868 14450 12014 6033 4370 5981 3054 929 2927 435 2436 1266 3876
is_linear=0
shrinkage=0.0592936


Tree=11
num_leaves=78
num_cat=0
split_feature=29 17 10 17 1 16 27 29 19 16 28 5 10 6 17 20 27 18 17 14 8 29 14 23 29 17 17 2 21 6 9 27 17 28 10 4 3 6 4 17 15 4 29 21 6 4 10 17 29 4 6 6 26 2 5 15 16 2 16 5 15 2 12 28 28 8 16 17 10 4 10 17 3 6 16 17 10
split_gain=1451.36 774.662 855.712 1486.21 725.313 658.293 603.437 603.268 757.74 718.912 635.917 582.763 582.009 537.33 529.015 519.403 505.393 739.262 504.445 494.483 484.044 480.75 448.939 416.583 547.188 410.878 409.391 406.272 614.166 547.309 833.277 439.597 383.784 370.734 368.525 385.798 361.266 360.634 529.239 549.722 469.977 542.02 396.634 563.473 535.938 822.519 637.983 594.082 551.349 484.852 453.458 375.598 360.039 358.035 371.701 341.734 303.717 302.856 291.173 288.814 287.632 279.382 279.339 279.15 403.434 391.368 385.804 288.87 283.51 265.015 258.373 254.926 254.587 397.956 472.251 285.26 252.803
threshold=3.5000000000000004 0.89152777777777825 -0.0024999999998853713 -11.450920138888888 23.325000000000003 23.350000000000005 2.5000000000000004 9.5000000000000018 8.2705275978122987 11.15 5.5000000000000009 5.0001700877851976 2.5799999999999104 36.360000000000007 -1.0948263888888865 9130.5250000000015 19.500000000000004 -0.30000000000000243 -3.023368055555554 -249.28499999999997 12.840000000000003 10.500000000000002 -0.46500000000000336 37.459100000000007 5.5000000000000009 6.3208680555555565 5.1490972222222231 18.805000000000003 6514.1400000000012 65.385000000000005 -5.5599999999999996 20.500000000000004 3.2947395833333357 5.5000000000000009 -3.313749999999946 20.736822916666657 46.211249999999374 504.68500000000006 24.490885416666632 3.4323784722222244 28.950000000000003 19.469270833333308 6.5000000000000009 6081.2312500000007 75.165000000000006 29.95276041666666 17.053750000000104 1.9535937499999998 9.5000000000000018 30.14718749999999 158.90000000000003 74.810000000000016 -983.7049999999989 11.655000000000003 68.131677661250222 31.950000000000003 4.8500000000000005 19.215000000000003 44.95000000000001 6.3319014246330347 29.850000000000005 31.545000000000005 0.070000000000000409 2.5000000000000004 1.5000000000000002 5.3200000000000021 5.4500000000000011 -0.062361111111112415 0.31000000000001965 21.838593749999983 4.2774999999998995 1.5206423611111097 27.684999999999565 334.72500000000008 17.350000000000005 -5.9404166666666658 2.1825000000000148
decision_type=2 2 10 2 10 2 2 2 2 2 2 10 10 10 2 2 2 2 2 10 10 2 10 2 2 2 2 8 2 10 10 2 2 2 10 10 10 10 10 2 2 10 2 2 10 10 10 2 2 10 10 10 2 10 10 2 2 10 2 10 2 10 10 2 2 10 2 2 10 10 10 2 10 10 2 2 10
left_child=27 2 3 -2 5 21 -4 10 61 18 11 14 20 -6 -8 16 37 19 -10 -18 63 32 -19 -5 -25 -23 60 28 31 30 59 33 34 36 35 -3 53 38 40 42 41 -15 43 50 45 -44 47 -46 -49 -47 -40 -51 -45 62 -55 -54 -31 -20 -58 -29 -7 -9 -1 64 66 -65 -13 -67 -66 -16 -52 -36 73 75 -75 -14 -24
right_child=1 4 6 23 13 26 7 8 9 -11 -12 12 72 15 69 -17 17 22 57 -21 -22 25 76 24 -26 -27 -28 29 -30 56 -32 -33 -34 -35 71 -37 -38 -39 39 -41 -42 -43 44 52 46 49 -48 48 -50 51 70 -53 55 54 -56 -57 58 -59 -60 -61 -62 -63 -64 65 68 67 -68 -69 -70 -71 -72 -73 -74 74 -76 -77 -78
leaf_value=-0.0099988003480593699 0.085266017865316485 0.37364342980589632 -0.056590806930029235 -0.085063874169287068 -0.067720768866750866 -0.066625489842619401 -0.024231921585050411 0.076548430385252705 -0.086284386104835312 -0.079815769496688782 -0.074290832971857568 0.0775231620521456 0.13161965241158149 0.084369603325427922 0.14283235512708756 -0.096690484829933185 0.033934673500708952 -0.026887074474265464 -0.082798063025209007 -0.1089256326267878 -0.10475297476191729 -0.070544619217015478 0.10651273752597389 0.17522344664875347 -0.089906956268411775 0.069514136920174205 0.078175541754704175 0.1658724792179567 -0.07656754894952697 -0.10125552654542534 -0.064418332963595934 -0.024904584061183864 0.026576698654723795 -0.062724102663839987 0.12073011093588371 0 0.063739645659300334 0.056083565532324069 -0.089738883651960422 0.046939399866957325 0.088278245279208384 -0.021758033846332635 -0.064699628179466645 0.067026135647860557 -0.092881051988195615 0.48729027861587337 0.048603314315888262 0.02781751001093789 -0.11848550326230999 -0.049894622479578862 -0.082724106823710286 0.18383417318669532 -0.12129953263810998 0.11104515252966832 -0.070268514772721197 0.046255144623791461 0.060475435437168865 0.054330426953657779 0.24501159153582416 -0.04679064645889601 0.039317190284268458 -0.044401371315114006 0.079790622132297206 -0.067887157686473631 0.10296413989287356 -0.062273616746964446 -0.050182726382611897 0.11117235355188548 -0.0610334417364813 -0.042865184568672915 0.062843864365994442 0.0764672883842865 0.055419600595178926 0.12933992495716254 0.475325063086593 -0.060821939404175407 -0.074398963401754087
