tree
version=v4
num_class=1
num_tree_per_iteration=1
label_index=0
max_feature_idx=30
objective=binary sigmoid:1
feature_names=lmp_lag1 lmp_lag4 lmp_lag96 lmp_mean_4 lmp_mean_96 lmp_std_96 lmp_max_96 lmp_ramp_1h lmp_ramp_4h spread_lag1 spread_mean_4 spread_max_96 spread_ramp_1h dam_lmp_current_hour dam_rtm_gap temp_2m wind_speed_10m temp_anomaly temp_delta_1h wind_chill prc_lag1 prc_mean_1h prc_ramp_1h system_lambda_lag1 rtordpa_lag1 wind_gen_lag1 wind_forecast_error hour_of_day day_of_week month is_weekend
feature_infos=[-31.870000000000001:9300.5] [-31.66:9312.5400000000009] [-31.75:9300.5] [-31.719999999997903:9252.2950000000001] [-20.567708333333332:9026.3957291666666] [0.042426406871190689:4491.4636412296004] [-4.3799999999999999:9312.5400000000009] [-8983.0599999999995:6955.04] [-9002.6499999999996:9001.7399999999998] [-1602.52:2176.3900000000003] [-1117.2099999999998:1567.7900000000004] [-19.010000000000002:2176.3900000000003] [-1766.6700000000001:2176.3900000000003] [-10.94:9026.9899999999998] [-7709.6599999999999:8483.9799999999996] [-15.9:44] [0:63.899999999999999] [-23.935868055555552:23.390347222222225] [-13.800000000000001:8.1000000000000014] [-23.492817113170894:44] [0:16581.779999999999] [0:16437.190000000002] [-5270.3600000000006:5249.3999999999987] [-31.863700000000001:9001] [0:7177.0160999999998] [0:31981.5] [-8336.4900000000016:15709.1] [0:23] [0:6] [1:12] [0:1]
tree_sizes=8141

Tree=0
num_leaves=78
num_cat=0
split_feature=0 8 13 0 17 13 11 6 23 12 11 23 11 25 11 17 8 11 8 10 23 2 10 10 12 29 4 15 19 15 13 16 11 16 15 16 24 11 2 2 13 11 23 10 15 6 16 0 4 10 11 12 12 16 29 10 19 13 6 26 6 8 2 12 17 10 29 6 10 8 0 8 26 10 12 19 12
split_gain=4.90586e+06 437646 100952 98910.7 81907.1 79363.4 36641 35125.7 34278.8 41457.6 32584.2 49719.1 28543.5 24884.9 24809.7 23724.9 22920.6 20072 19781.2 17595.2 17512.6 17174.8 16564.2 18364 14733.3 14584.6 14228.7 13744.1 12804.9 12736.7 12393 12138.3 12120.8 12066.1 11698.2 10622.9 9606.37 9419.67 9088.48 9046.5 8463.49 7676.25 7497.57 7494.53 10452.2 8747.34 6717.92 6433.7 6393.43 6354.53 6307.17 6071.55 5901.5 10503.4 5856.46 5688.19 5575.21 5511.6 5271.17 5235.81 4691.75 4633.57 4352.47 3881.64 3736.79 8074.63 3632.12 3254.58 3286.96 3239.68 2827.1 3351.02 2418.11 2417.67 3593.48 1534.58 735.851
threshold=89.985000000000014 24.005000000000003 23.195000000000004 190.59500000000006 7.4525000000000006 61.525000000000013 25.435000000000006 91.180000000000021 51.164800000000007 16.82500000000001 3.1050000000000009 5.5363000000000016 18.134999999999998 5094.6950000000006 106.38500000000001 7.9907291666666671 -1.9299999999999986 0.099999999999999839 50.795000000000009 -2.6249999999999716 8.1773500000000023 19.295000000000005 60.333750000000151 -4.1549999999998324 -105.78499999999998 2.5000000000000004 23.784791666666674 19.250000000000004 6.118522341193823 22.050000000000004 62.495000000000012 34.45000000000001 19.685000000000006 10.550000000000002 32.550000000000004 23.850000000000005 0.0089500000000000014 1060.8100000000002 16.915000000000003 107.31500000000001 125.99500000000002 109.745 1.0935500000000002 3.5175000000000871 30.650000000000002 2407.2700000000009 8.2500000000000018 22.735000000000003 11.619010416666667 77.098750000000166 18.365000000000006 10.014999999999992 0.28999999999999965 4.8500000000000005 2.5000000000000004 8.9987500000000669 -9.363952120191227 25.945000000000004 994.62000000000012 -3298.8300000000013 515.82000000000005 36.595000000000006 125.16500000000001 14.234999999999998 5.8287847222222231 4.1800000000001356 6.5000000000000009 400.15500000000003 -2.9337499999999324 6.4850000000000003 307.12000000000006 -502.6049999999999 -1098.9599999999998 -1.0999999999997769 1.9600000000000029 -5.4226738768316318 -2.6645352591003753e-15
decision_type=10 10 2 10 2 2 10 10 2 10 10 2 10 2 10 2 10 8 10 10 2 10 10 10 10 2 10 2 2 2 2 2 10 2 2 2 2 8 10 10 2 10 2 10 2 10 2 10 10 10 10 10 10 2 2 10 2 2 10 2 10 10 8 8 2 10 2 10 8 10 10 10 2 10 10 2 8
left_child=1 2 24 12 10 7 19 66 9 15 31 16 17 32 -13 22 -12 76 20 67 -14 -9 23 -3 47 -10 48 39 -24 -17 38 69 -11 -32 -31 63 -28 52 -22 56 -21 59 -34 44 46 -46 -27 -1 -7 -41 -45 -33 75 -54 -39 57 -20 -8 60 -15 -42 -43 -52 -19 65 -29 -6 -5 -69 -4 71 -57 -66 -59 -75 -26 -2
right_child=3 8 4 6 5 26 55 21 25 13 11 14 18 41 -16 29 -18 35 27 40 30 -23 28 -25 37 43 36 64 -30 34 33 51 42 -35 -36 -37 -38 54 -40 49 58 61 -44 50 45 -47 -48 -49 -50 -51 62 -53 53 -55 -56 70 -58 73 -60 -61 -62 -63 -64 -65 72 -67 -68 68 -70 -71 -72 -73 -74 74 -76 -77 -78
leaf_value=-4.7584639307720691 20.320773571653064 11.401312355759462 -4.9830679568599745 20.721733806282092 -4.7060729184474113 12.915978895684407 -4.7584639307720691 9.5170465543097045 -4.7584639307720691 -4.7584639307720691 -3.7960883562325058 -2.5061676081485191 20.905711659504277 19.071542081342614 0.81978215970811696 -4.7584639307720691 8.4287928036777124 -4.8605760268165508 21.309798128284402 -4.7584639307720691 2.6104901534892004 1.4788819253719216 18.772595153487678 0.36263960068387213 -1.3114180852395538 -4.7584639307720691 10.85023417286892 4.0522518995233723 1.4005342183656753 14.35807154253656 0.75848991824774892 -4.7584639307720691 20.275006539091414 10.812765135666158 3.5628181046724174 15.447624302687412 19.300447027183075 16.690206952328776 15.645195167634864 10.756416198808591 -4.7584639307720691 16.149189473603563 13.080399587975649 -4.7584639307720691 -4.7584639307720691 18.775222130600216 15.232022577275522 17.445199400366015 -4.7584639307720691 -4.7584639307720691 18.954381654033636 20.505923248554058 12.190603017186863 -3.4748358671409205 -4.7584639307720691 -4.7584639307720691 14.381345490208311 20.790143076991324 -4.7584639307720691 -4.8213848687946754 17.202542569749369 0.75813635414627978 -4.7584639307720691 12.900814545887791 -4.7584639307720691 17.409516868191666 -0.53314145449914196 -4.7584639307720691 19.473340904733391 -2.9046265933727025 21.606895341407128 20.133658826443789 19.528034397742346 13.573062835740284 19.657878649882068 -4.7177263471743798 8.977675297602012
leaf_weight=0.93611388187855427 3.6453536106273532 8.8981883935630304 169.40287878643721 5.668173828162252 43.638628017157316 1.4246495701372612 0.52287442050874133 21.114640216343105 2.0577638484537593 1.6360909286886443 10.343334272503851 478.77846567332745 12.339324306696652 0.50148832518607367 156.31045171897858 2.7240070616826442 38.769462906755507 7.9274508915841588 8.0828474117442948 4.1070942385122162 3.3727784594520918 43.236206485889852 5.5714915059506875 77.23688624240458 6.9822986526414743 0.91081350669265404 32.840741654857993 2.8330371221527448 4.0137212974950671 19.974308636970822 9.1153587279841322 0.71684396360069458 11.589351408183573 22.766388264484704 7.6855850806459776 1.9008375201374281 9.8532687760889512 1.7912025609984987 31.037476243451238 4.1688329298049203 0.59877554606646333 2.4697935124859214 31.005557105876505 0.61564246285707014 3.2215811070054761 1.0704443175345657 15.143751672469078 2.3264247197657824 3.8119231946766376 1.973429264500737 20.604398421943188 1.5213318923488257 2.2634762311354271 202.37496150657535 1.0204484658315776 0.27830412704497476 53.077982187271118 20.692042387090623 1.0457488410174844 6.0720900446176511 2.9544149208813906 2.1375792538747191 0.40480600297451275 0.67859095148741921 0.21083645988255639 36.350839920341969 14.761256674304603 0.66624321322888136 0.49305486679077126 50.809167237021029 376.44123448710889 115.95315318927169 94.280125145800412 12.17698901332915 13.507055845111607 735.22014943324029 0.8725604945793729
leaf_count=111 30 423 20087 40 5117 54 62 1182 244 194 1169 51657 84 2 14627 323 2356 940 39 487 285 3920 86 7377 713 108 1653 221 361 702 851 85 110 1148 624 53 134 40 922 207 71 63 1263 73 382 12 474 46 452 234 317 8 96 22675 121 33 1869 155 124 720 63 196 48 23 25 805 1463 79 1 5565 1596 1222 1238 467 165 86317 46
internal_value=4.06785 -1.51077 -2.573 18.8759 -1.0564 3.54185 20.6812 0.44758 8.04573 6.64129 -1.92326 -1.14143 15.4703 11.8772 -1.68588 4.33114 5.87576 5.61224 15.9959 9.56519 12.8471 4.13432 2.54124 1.51689 -4.2887 13.808 11.4418 17.2216 11.621 9.9314 11.3274 -4.33262 14.3266 7.97318 11.4002 -0.00184844 12.8305 -4.3426 14.4001 14.4585 2.56181 2.08658 15.0683 14.7293 11.3776 0.987369 14.0857 11.0317 -0.0881794 5.70742 17.8251 12.3838 -4.38304 -3.29561 8.85534 20.999 15.3185 18.3577 9.28767 -3.11318 13.4754 9.2616 18.4933 -3.55559 18.6034 16.4727 -3.63325 18.3183 5.55845 -4.50806 21.2478 20.0735 19.4733 18.6208 16.8225 -4.68426 18.3967
internal_weight=3105.53 2255.79 2030.25 849.739 1077.33 170.681 555.105 122.751 225.545 181.516 906.652 684.202 294.634 55.412 635.089 126.104 49.1128 15.0248 279.609 15.5335 78.6313 64.3508 95.7203 86.1351 952.915 44.0292 47.9306 200.978 9.58521 30.3839 66.292 222.45 44.231 31.8817 27.6599 10.5069 42.694 949.653 34.4103 67.3031 8.70603 11.181 42.5949 41.9714 20.3466 4.29203 16.0546 3.26254 5.23657 6.14226 21.6248 2.23818 946.841 204.638 2.81165 539.572 61.1608 46.899 4.59894 6.57358 3.55319 4.60737 21.0092 8.60604 133.675 39.1839 58.3999 6.82747 1.1593 220.212 492.673 116.231 94.491 46.3761 25.684 742.202 4.51791
internal_count=247335 233750 219648 13585 109529 13975 4565 11682 14102 12444 95554 69809 9020 2548 66284 9896 3525 1092 7928 865 3290 5102 8247 7800 110119 1658 2293 4638 447 1649 3206 25745 1567 1999 1326 1016 1787 109962 1207 2349 745 981 1373 1414 976 394 582 157 506 441 438 93 109801 22771 161 3700 1908 849 258 722 134 259 365 963 2289 1026 6580 120 80 25652 2851 1255 1263 787 632 87030 76
is_linear=0
shrinkage=1


end of trees

feature_importances:
spread_mean_4=9
spread_max_96=9
spread_ramp_1h=7
lmp_ramp_4h=6
lmp_max_96=5
dam_lmp_current_hour=5
wind_speed_10m=5
lmp_lag1=4
lmp_lag96=4
temp_2m=4
system_lambda_lag1=4
temp_anomaly=3
wind_chill=3
month=3
lmp_mean_96=2
wind_forecast_error=2
rtordpa_lag1=1
wind_gen_lag1=1

parameters:
[boosting: gbdt]
[objective: binary]
[metric: binary_logloss,auc]
[tree_learner: serial]
[device_type: cpu]
[data_sample_strategy: bagging]
[data: ]
[valid: ]
[num_iterations: 2000]
[learning_rate: 0.228665]
[num_leaves: 78]
[num_threads: 0]
[seed: 0]
[deterministic: 0]
[force_col_wise: 0]
[force_row_wise: 0]
[histogram_pool_size: -1]
[max_depth: 7]
[min_data_in_leaf: 14]
[min_sum_hessian_in_leaf: 0.001]
[bagging_fraction: 0.705502]
[pos_bagging_fraction: 1]
[neg_bagging_fraction: 1]
[bagging_freq: 5]
[bagging_seed: 3]
[bagging_by_query: 0]
[feature_fraction: 0.595942]
[feature_fraction_bynode: 1]
[feature_fraction_seed: 2]
[extra_trees: 0]
[extra_seed: 6]
[early_stopping_round: 0]
[early_stopping_min_delta: 0]
[first_metric_only: 0]
[max_delta_step: 0]
[lambda_l1: 4.45005]
[lambda_l2: 0.0119599]
[linear_lambda: 0]
[min_gain_to_split: 0.267332]
[drop_rate: 0.1]
[max_drop: 50]
[skip_drop: 0.5]
[xgboost_dart_mode: 0]
[uniform_drop: 0]
[drop_seed: 4]
[top_rate: 0.2]
[other_rate: 0.1]
[min_data_per_group: 100]
[max_cat_threshold: 32]
[cat_l2: 10]
[cat_smooth: 10]
[max_cat_to_onehot: 4]
[top_k: 20]
[monotone_constraints: ]
[monotone_constraints_method: basic]
[monotone_penalty: 0]
[feature_contri: ]
[forcedsplits_filename: ]
[refit_decay_rate: 0.9]
[cegb_tradeoff: 1]
[cegb_penalty_split: 0]
[cegb_penalty_feature_lazy: ]
[cegb_penalty_feature_coupled: ]
[path_smooth: 0]
[interaction_constraints: ]
[verbosity: -1]
[saved_feature_importance_type: 0]
[use_quantized_grad: 0]
[num_grad_quant_bins: 4]
[quant_train_renew_leaf: 0]
[stochastic_rounding: 1]
[linear_tree: 0]
[max_bin: 255]
[max_bin_by_feature: ]
[min_data_in_bin: 3]
[bin_construct_sample_cnt: 200000]
[data_random_seed: 1]
[is_enable_sparse: 1]
[enable_bundle: 1]
[use_missing: 1]
[zero_as_missing: 0]
[feature_pre_filter: 1]
[pre_partition: 0]
[two_round: 0]
[header: 0]
[label_column: ]
[weight_column: ]
[group_column: ]
[ignore_column: ]
[categorical_feature: ]
[forcedbins_filename: ]
[precise_float_parser: 0]
[parser_config_file: ]
[objective_seed: 5]
[num_class: 1]
[is_unbalance: 0]
[scale_pos_weight: 58.4641]
[sigmoid: 1]
[boost_from_average: 1]
[reg_sqrt: 0]
[alpha: 0.9]
[fair_c: 1]
[poisson_max_delta_step: 0.7]
[tweedie_variance_power: 1.5]
[lambdarank_truncation_level: 30]
[lambdarank_norm: 1]
[label_gain: ]
[lambdarank_position_bias_regularization: 0]
[eval_at: ]
[multi_error_top_k: 1]
[auc_mu_weights: ]
[num_machines: 1]
[local_listen_port: 12400]
[time_out: 120]
[machine_list_filename: ]
[machines: ]
[gpu_platform_id: -1]
[gpu_device_id: -1]
[gpu_use_dp: 0]
[num_gpu: 1]

end of parameters

pandas_categorical:[]
