tree
version=v4
num_class=1
num_tree_per_iteration=1
label_index=0
max_feature_idx=30
objective=binary sigmoid:1
feature_names=lmp_lag1 lmp_lag4 lmp_lag96 lmp_mean_4 lmp_mean_96 lmp_std_96 lmp_max_96 lmp_ramp_1h lmp_ramp_4h spread_lag1 spread_mean_4 spread_max_96 spread_ramp_1h dam_lmp_current_hour dam_rtm_gap temp_2m wind_speed_10m temp_anomaly temp_delta_1h wind_chill prc_lag1 prc_mean_1h prc_ramp_1h system_lambda_lag1 rtordpa_lag1 wind_gen_lag1 wind_forecast_error hour_of_day day_of_week month is_weekend
feature_infos=[-31.870000000000001:9300.5] [-31.66:9312.5400000000009] [-31.75:9300.5] [-31.719999999997903:9252.2950000000001] [-20.567708333333332:9026.3957291666666] [0.042426406871190689:4491.4636412296004] [-4.3799999999999999:9312.5400000000009] [-8983.0599999999995:6955.04] [-9002.6499999999996:9001.7399999999998] [-1602.52:2176.3900000000003] [-1117.2099999999998:1567.7900000000004] [-19.010000000000002:2176.3900000000003] [-1766.6700000000001:2176.3900000000003] [-10.94:9026.9899999999998] [-7709.6599999999999:8483.9799999999996] [-15.9:44] [0:63.899999999999999] [-23.935868055555552:23.390347222222225] [-13.800000000000001:8.1000000000000014] [-23.492817113170894:44] [0:16581.779999999999] [0:16437.190000000002] [-5270.3600000000006:5249.3999999999987] [-31.863700000000001:9001] [0:7177.0160999999998] [0:31981.5] [-8336.4900000000016:15709.1] [0:23] [0:6] [1:12] [0:1]
tree_sizes=6702

Tree=0
num_leaves=63
num_cat=0
split_feature=0 8 0 13 21 13 11 17 11 20 11 12 0 10 11 11 22 28 10 11 11 0 10 17 16 10 17 13 16 20 2 23 4 11 16 14 16 3 29 11 4 4 11 22 11 26 29 10 8 15 28 12 29 15 28 25 19 28 12 16 22 29
split_gain=8.20976e+06 476669 451247 159049 156884 151563 109148 104610 95371.2 82674.6 109119 79197.6 71021.7 76379.9 62261.8 62083.3 52132.7 50881 49889 51602.3 49887.8 48865.1 47434 44578.2 43987.7 41632.8 40503.7 39956 35544.3 33675.5 33060.9 31029.1 41551.9 45898.9 30851.8 30791 30389.8 29024 28295.1 28589.3 28103.5 27656.4 24951.1 24155.4 24088.6 24066.5 23081.1 25960 22779.4 22581.6 22437.5 22278 36293.6 22143.7 21486.3 21331 34068.1 20425.5 20322.1 19767.4 19326.9 19300.7
threshold=61.845000000000006 6.7150000000000007 92.995000000000019 88.120000000000019 4243.920000000001 23.195000000000004 109.745 4.9933159722222245 179.94500000000002 5092.8400000000011 3.1050000000000009 5.9600000000000035 25.635000000000002 -7.1099999999998955 104.575 25.435000000000006 46.635000000000225 3.5000000000000004 0.63250000000009765 4.6700000000000381 117.78000000000002 190.59500000000006 77.098750000000166 7.4525000000000006 6.4500000000000011 -1.4224999999999757 6.5343749999999989 42.855000000000011 18.750000000000004 1.0000000180025095e-35 19.905000000000005 24.940200000000004 18.81307291666667 81.685000000000016 19.250000000000004 4.9400000000000039 12.450000000000001 101.48875000000035 2.5000000000000004 25.945000000000004 32.760364583333335 32.30552083333334 1060.8100000000002 -1106.7099999999994 132.34500000000017 62.070000000000171 4.5000000000000009 3.1625000000000845 18.315000000000005 -6.1499999999999995 3.5000000000000004 1.4000000000000041 10.500000000000002 -2.7499999999999996 1.5000000000000002 4617.6000000000013 -9.363952120191227 2.5000000000000004 -105.78499999999998 10.750000000000002 149.17499999999998 5.5000000000000009
decision_type=10 10 10 2 2 2 10 2 10 2 10 10 10 10 10 10 2 2 10 10 10 10 8 2 2 10 2 2 2 2 10 2 10 10 2 8 2 8 2 10 10 8 10 2 10 2 2 10 10 2 2 10 2 2 2 2 2 2 10 2 2 2
left_child=1 5 4 8 -2 22 9 20 12 10 51 14 24 -14 23 25 31 18 19 54 35 -17 42 45 -3 -4 -27 -21 59 61 38 40 50 -34 -22 -8 -29 -11 39 -18 -15 60 -1 -26 -9 58 -5 -48 -13 -31 -33 -7 -53 -43 -12 56 -16 -35 -6 -10 -36 -19
right_child=2 3 15 46 11 6 7 44 28 37 17 48 13 16 55 21 30 29 -20 27 34 -23 -24 -25 43 26 -28 36 -30 49 -32 32 33 57 41 -37 -38 -39 -40 -41 -42 53 -44 -45 -46 -47 47 -49 -50 -51 -52 52 -54 -55 -56 -57 -58 -59 -60 -61 -62 -63
leaf_value=-4.624469597696744 0.24818508490305558 -0.27413851634091735 0.58263033675720255 0.43854114152166979 0.73911216084519982 -4.6355799394938622 0.27190677083163362 -4.808892870238509 -1.1850747577171079 -4.5092194482005388 -4.808892870238509 -2.6557199703153951 -0.23082020610545051 -1.141334816443214 0.89479199296941747 0.4161899012965371 -4.808892870238509 -1.1308906197896942 -1.0730671905842177 -4.5294435260274195 -4.3721071997965382 0.99461191826124029 0.69492844458605951 -1.1189890523599377 -1.6812869222619113 -4.0058210703403629 -0.42283464834062379 -0.17100680094148935 -0.09466113475219462 0.28894232433067657 -4.1382940109325936 -0.32997798105790821 -4.0443558983461436 -4.808892870238509 0.17457703775470357 -4.808892870238509 -4.808892870238509 -0.039420494247690563 -3.47102724805195 0.038639572191994986 -4.808892870238509 0.78401101643262283 -0.86502790286275477 -4.3102899821991159 -0.78074094515551185 0.095979648607192658 -3.0416833019522516 -0.041107876426521806 -0.42581507105337835 -4.808892870238509 -4.808892870238509 -4.808892870238509 0.72135381902524642 -4.808892870238509 0.049124307686088109 -0.40460515633562721 -3.9189540593393093 -0.34033344317938941 -4.248714947142485 -4.2318086403439423 -4.808892870238509 -4.808892870238509
leaf_weight=979.69435846991837 124.47116221673787 7.7115578604862085 28.106483092531562 41.095983251929283 2.1010567694902411 134.51591266319156 12.618427990004419 3.9468585290014735 11.258389930240812 388.97922439873219 2.6649728529155263 13.534298067912458 29.281262095086277 60.38808214571327 5.1092731310054686 525.37858935631812 3.8540904866531518 14.261826748028399 62.404804331250489 41.713010852225125 80.062197433784604 1197.1003170860931 4.2358473725616923 17.374898524954915 9.3175688702613098 14.515107527375223 17.274822653271258 11.310116309672596 39.562496480531991 2.2865928541868916 95.60365859977901 19.519248215481642 60.986840172670782 3.1119461478665498 10.525804678909479 3.9046912370249656 5.1359761627390972 3.6660261163488022 30.495108529925346 14.427967630326746 5.7178847920149556 2.0841898526996383 4.4334708303213111 140.2720338050276 62.216739960946143 3.5648246156051746 13.192180188372733 15.89173547644168 74.465221410617232 43.466044569388032 3.2637483989819875 6.7889340082183462 5.2695088405162096 11.730940627865493 15.596564432606101 30.436645895242691 13.098286516964434 14.347286961041389 72.831069674342871 10.099629242904482 2.3866687258705488 4.7564705349504939
leaf_count=112585 2278 221 328 597 18 15488 225 468 526 43812 316 1027 814 2769 28 7865 457 651 2777 4715 8800 4191 40 789 527 1490 546 301 993 40 10065 581 6307 369 208 463 609 88 2807 324 678 16 179 15246 2408 76 1102 382 2358 5154 387 805 47 1391 347 951 1322 430 7827 1082 283 564
internal_value=-1.84589 -3.7621 0.438174 -2.56793 -1.18441 -4.15343 -3.6961 -2.62492 -2.8495 -3.96934 -3.41077 -1.95132 -3.07781 -2.67239 -2.6714 0.763158 -2.90174 -2.66187 -2.12197 -2.9785 -3.48548 0.818186 -4.58481 -3.41065 -3.95669 -0.819308 -2.05881 -3.70654 -0.982046 -3.81907 -3.59786 -2.30111 -2.85132 -3.39724 -3.88107 -0.928772 -1.61938 -4.46749 -2.5386 -0.983282 -1.45856 -2.41019 -4.60753 -4.14654 -1.02103 -3.9179 -0.324273 -1.40214 -0.768774 -4.55412 -0.971599 -4.45102 -2.39219 -3.96513 -0.659824 -1.21442 -2.56816 -1.13681 -4.10886 -2.62579 -0.746539 -2.05076
internal_weight=4689.42 2550.05 2139.36 629.399 356.987 1920.66 932.293 189.477 559.219 742.816 350.171 232.516 498.298 340.997 144.516 1782.38 311.716 203.596 138.825 76.4206 123.313 1722.48 988.364 95.8718 157.301 59.8964 31.7899 58.1591 60.9205 64.7709 144.381 167.335 101.229 78.4461 106.79 16.5231 16.4461 392.645 48.7772 18.2821 66.106 26.7276 984.128 149.59 66.1636 78.497 70.1799 29.0839 87.9995 45.7526 22.783 146.574 12.0584 13.8151 18.2615 48.6442 18.2076 17.4592 74.9321 21.358 12.9125 19.0183
internal_count=280538 249444 31094 46664 16674 202780 89976 14262 44583 75714 31814 14396 41982 25988 11011 14420 25174 15474 9065 6288 11386 12056 112804 8710 15994 2364 2036 5625 2601 6409 13653 11521 8074 7106 10698 688 910 43900 3588 781 3447 1898 112764 15773 2876 7921 2081 1484 3385 5194 968 16340 852 1407 663 2301 1350 799 7845 1608 491 1215
is_linear=0
shrinkage=1


end of trees

feature_importances:
spread_max_96=11
spread_mean_4=5
wind_speed_10m=5
lmp_lag1=4
day_of_week=4
month=4
lmp_mean_96=3
spread_ramp_1h=3
dam_lmp_current_hour=3
temp_anomaly=3
prc_ramp_1h=3
lmp_ramp_4h=2
temp_2m=2
prc_lag1=2
lmp_lag96=1
lmp_mean_4=1
dam_rtm_gap=1
wind_chill=1
prc_mean_1h=1
system_lambda_lag1=1
wind_gen_lag1=1
wind_forecast_error=1

parameters:
[boosting: gbdt]
[objective: binary]
[metric: binary_logloss,auc]
[tree_learner: serial]
[device_type: cpu]
[data_sample_strategy: bagging]
[data: ]
[valid: ]
[num_iterations: 2000]
[learning_rate: 0.05]
[num_leaves: 63]
[num_threads: 0]
[seed: 0]
[deterministic: 0]
[force_col_wise: 0]
[force_row_wise: 0]
[histogram_pool_size: -1]
[max_depth: -1]
[min_data_in_leaf: 50]
[min_sum_hessian_in_leaf: 0.001]
[bagging_fraction: 0.8]
[pos_bagging_fraction: 1]
[neg_bagging_fraction: 1]
[bagging_freq: 5]
[bagging_seed: 3]
[bagging_by_query: 0]
[feature_fraction: 0.8]
[feature_fraction_bynode: 1]
[feature_fraction_seed: 2]
[extra_trees: 0]
[extra_seed: 6]
[early_stopping_round: 0]
[early_stopping_min_delta: 0]
[first_metric_only: 0]
[max_delta_step: 0]
[lambda_l1: 0]
[lambda_l2: 0]
[linear_lambda: 0]
[min_gain_to_split: 0]
[drop_rate: 0.1]
[max_drop: 50]
[skip_drop: 0.5]
[xgboost_dart_mode: 0]
[uniform_drop: 0]
[drop_seed: 4]
[top_rate: 0.2]
[other_rate: 0.1]
[min_data_per_group: 100]
[max_cat_threshold: 32]
[cat_l2: 10]
[cat_smooth: 10]
[max_cat_to_onehot: 4]
[top_k: 20]
[monotone_constraints: ]
[monotone_constraints_method: basic]
[monotone_penalty: 0]
[feature_contri: ]
[forcedsplits_filename: ]
[refit_decay_rate: 0.9]
[cegb_tradeoff: 1]
[cegb_penalty_split: 0]
[cegb_penalty_feature_lazy: ]
[cegb_penalty_feature_coupled: ]
[path_smooth: 0]
[interaction_constraints: ]
[verbosity: -1]
[saved_feature_importance_type: 0]
[use_quantized_grad: 0]
[num_grad_quant_bins: 4]
[quant_train_renew_leaf: 0]
[stochastic_rounding: 1]
[linear_tree: 0]
[max_bin: 255]
[max_bin_by_feature: ]
[min_data_in_bin: 3]
[bin_construct_sample_cnt: 200000]
[data_random_seed: 1]
[is_enable_sparse: 1]
[enable_bundle: 1]
[use_missing: 1]
[zero_as_missing: 0]
[feature_pre_filter: 1]
[pre_partition: 0]
[two_round: 0]
[header: 0]
[label_column: ]
[weight_column: ]
[group_column: ]
[ignore_column: ]
[categorical_feature: ]
[forcedbins_filename: ]
[precise_float_parser: 0]
[parser_config_file: ]
[objective_seed: 5]
[num_class: 1]
[is_unbalance: 0]
[scale_pos_weight: 116.567]
[sigmoid: 1]
[boost_from_average: 1]
[reg_sqrt: 0]
[alpha: 0.9]
[fair_c: 1]
[poisson_max_delta_step: 0.7]
[tweedie_variance_power: 1.5]
[lambdarank_truncation_level: 30]
[lambdarank_norm: 1]
[label_gain: ]
[lambdarank_position_bias_regularization: 0]
[eval_at: ]
[multi_error_top_k: 1]
[auc_mu_weights: ]
[num_machines: 1]
[local_listen_port: 12400]
[time_out: 120]
[machine_list_filename: ]
[machines: ]
[gpu_platform_id: -1]
[gpu_device_id: -1]
[gpu_use_dp: 0]
[num_gpu: 1]

end of parameters

pandas_categorical:[]
